-0.15877016816979822	-0.5775105649708361	-0.7700556194402866	-0.5780323582724507	-0.8831168517389694	-0.732572029665997	-0.8752953042227889	-0.6353948517522707	0.030514652383996532	-0.07438339169461405	-0.7330499693997876	-0.7070744499859305	-0.707764781968504	-0.39371234497288826	-0.18213826918792164	-0.7605012255738655	-0.19156866461582212	-0.135505517939232	-0.785313754974591	-0.10532990898382871	0.06293741006644193	-0.30456939944909556	-0.46937551325490084	-0.05464761483237812	-0.6862746590389619	-0.8409920724327395	-0.23762198343960778	-0.40383063766439015	-0.23366538148201904	-0.8062047137022013	-0.054205057061899375	0.03150041055614827	-0.06478819881107156	-0.10229084014094042	0.09557228226105069	-0.8349918229354145	-0.7920969163482154	-0.22236092561085602	-0.6813113835896234	-0.629782563319786	-0.23766821705865654	-0.46660759254390144	-0.2959184382931358	-0.8088311661686904	-0.4790485203165898	-0.6753991575218021	-0.03276766968384276	-0.6472717939137262	0.04772452120680559	-0.013032731986263923	-0.8090374583209128	-0.1637490208856971	-0.4061069956445201	-0.5698401926178513	-0.6314810135265887	-0.530621551533677	-0.5978617336115379	-0.08361352050579873	-0.17732023213999537	-0.13948409042525683	-0.6418512202122115	-0.7208008949257652	-0.8087061325457758	-0.7476237535419537	-0.8391474545793656	-0.06459186620065893	-0.3825767064423244	0.09792447425114598	-0.054180999183871204	-0.22345477383702467	-0.68815922475022	-0.39453400032108704	-0.6679533718390276	-0.8286636915677223	-0.6159909313331462	0.018985019907022338	-0.3353694344766681	-0.3864820645746086	-0.06880264609701026	-0.5269320943662905	-0.4264552296488601	-0.4714731535659867	-0.7137596542694635	-0.08885608306954362	-0.20776471584510836	-0.16348071188682	-0.7000479812786908	0.09841621352650115	-0.051048653821317846	-0.07340897919582912	-0.3281302748458964	-0.5315758540110169	-0.4633945482021828	-0.07260176661516826	-0.10318593830358297	-0.4653616909566521	-0.4293816544892119	-0.16042118305932607	-0.1098419968680367	-0.2721133614793178	-0.6024718770181914	-0.021941366563900055	-0.08434872239508928	0.002670339979312042	0.09283454894713777	-0.5105056584562324	-0.0808551977733577	-0.7163494273375894	-0.4151142844441677	-0.12304203865431657	-0.08125642375363629	-0.4918784307835033	-0.6536427173519557	-0.31384786970477163	-0.7080531406877433	-0.25793205820228166	-0.19846013851506372	-0.5260790446397152	0.03526375842914331	-0.5948502991815756	-0.6275634667932151	0.03430429441825833	-0.37565403738880543	-0.6148683905819559	-0.09884164777188811	-0.6718836633985095	0.09962561231331674	0.10522462331093474	0.8796821636798965	-0.44175048729712046	-0.258783386940504	-0.8479697643508843	-0.3986233682289924	-0.44251838136235405	-0.3908701698644332	-0.8217464444025646	-0.4902497511508001	-0.8436603815002548	-0.8310474223218107	-0.2970921851554792	-0.7845146579032236	0.06044116025301882	-0.6103017869947522	-0.7316608608294446	-0.3528502593790906	-0.32466770564583947	-0.17243410643251256	-0.7044703866812119	-0.31152940939776685	-0.07169954435590534	1.0198997080726373	0.19816054293986324	0.9432276585488997	1.0118748616089668	0.7496534293113905	0.29488458265797257	0.9743571647066591	1.0163570667562154	-0.0008832898093106833	-0.04881923421490886	-0.3651457492161612	-0.1463137057530733	-0.6292875912446374	-0.26761923164361695	-0.22663286856939474	-0.06632454877855565	0.025465552371928935	-0.8577901593899084	-0.2020783287792618	0.04738575606217488	-0.24402218393044744	-0.4736491401039134	-0.21109386646577066	-0.5104164340538657	-0.16596430191902956	-0.30655584306284955	-0.42875631273675807	0.8594397074886427	0.3211584588390248	0.8975537555040339	0.7407073131704873	0.4599629896624468	0.774612247190437	1.0358431060944222	0.6584933458047046	0.96339678513241	1.056274699179854	0.027141949295097445	-0.6834719572290293	-0.3408517712749552	-0.6543366755640414	-0.4187141992661118	0.04472621594163617	-0.006723621696532234	-0.20291899269926428	-0.08454172403555582	-0.7422973681658589	-0.6266990669568375	-0.8834539120729537	-0.8951084514134686	0.04953846466038736	-0.3775432561755045	-0.8060069759175048	-0.5668282213813565	0.8397010311249629	0.7542799006336239	0.9154230581305632	0.45611217209826027	1.0399360842799237	-0.2999362454414012	-0.44290930547132795	0.3142976199149744	0.4155343251150286	1.0622860338155145	0.40604623201100487	-0.2839107741473493	-0.08149037466603865	0.04801431859963157	-0.21808145309781413	-0.7597474647748992	-0.3703727141913315	-0.7806945593865511	-0.3058822651615659	0.06597992052507773	-0.4785810927337208	-0.32095080912836516	-0.2288363968103359	-0.5193515955005101	-0.2998785230965747	-0.1812685639642435	-0.3835205619529926	0.22118570530721332	0.8112539289444549	0.9655091818091235	0.8090113309227368	0.16416326809676496	-0.35216205533872386	-0.6521148725280175	-0.3140771147183455	0.17349242233511025	0.7390971361411749	0.43702066549578056	0.9922376826538971	-0.4274721080404732	-0.38733548588578653	-0.8843618081173454	0.09778626988061595	-0.42468685554746327	-0.14044623271246276	-0.23779223465767524	-0.32568507991049434	-0.43188085556934247	0.09232599229331523	-0.5777836629950319	-0.40289960477876813	-0.7769600463194988	-0.12394492273702779	0.08067155210960614	-0.39851971451978846	-0.38696590636570827	0.7497940875173112	0.6916779139118576	0.9626240973583717	-0.2238246584838523	-0.5836724574452827	-0.6665969895604091	-0.08033975924892531	-0.6939423172370474	0.9926408570462382	0.7616643345829754	0.5601955528311859	-0.09575717357121089	-0.07504352427852745	-0.2872561822489266	-0.6913391313819766	-0.7796166983157502	-0.6809729158649465	-0.3584573542980802	-0.6140421534703655	-0.465924117682645	-0.8925116725359217	-0.06604295350442568	-0.4074953414773628	-0.4098935392938698	-0.6875257015573599	0.0230582428671664	-0.4012861585044994	-0.6405841074678476	-0.2673583253720685	0.8084870839654205	0.08232153027176459	-0.14938542127444593	0.0551329896193381	-0.40551534982213155	-0.1989069410615112	-0.3627708609989961	-0.19135306462116963	0.8951641172096686	0.9926836947900454	0.41938477348249614	-0.3901915711180799	-0.45867889589445365	0.09186507646603459	-0.571155261983328	-0.002750856394462431	-0.3981339310391439	-0.7703913817016532	-0.4118682261588092	-0.8260832267251879	-0.6764949196423591	-0.751622708536166	-0.13452846159743564	0.018371726503570607	-0.8522660160274802	-0.29448241604773717	0.16258662815391706	-0.6964899262399691	0.40716964069473804	-0.7045754400881865	-0.06252993693648567	0.018270983248297068	-0.1519420655479558	-0.3325063154944826	-0.2816432943320838	-0.5441765082614547	0.30131871128133275	0.593476756347735	0.6604425677535722	-0.704564522365914	-0.0037228141204229126	-0.09776001327315698	0.019039674388277084	-0.7019452096296903	-0.8271023711124228	-0.8497855408173918	-0.11335331519005948	0.07267934354097694	-0.44565510419282023	-0.7099178530074512	-0.1509048020891151	-0.6097619862280264	-0.14159661634981552	-0.239474944668921	-0.6187872449778853	-0.4791241434218509	0.6634202622263057	-0.6324441152438145	-0.050865892297019655	0.06727474889381568	-0.6252029463878759	-0.73068083423168	0.07270053478057492	-0.17677978219417767	0.7111644408982551	0.22066891571350536	0.9922654066480997	-0.06040020729703882	-0.02555788998487496	0.151064131736027	-0.06252036768631741	-0.8189562659707104	-0.6649898532269185	-0.46432449159399164	-0.210208540889266	-0.7284596661587008	-0.21210314612168046	-0.48120914396640263	-0.3771528699493602	-0.5525345505513095	-0.701695232908581	-0.41332608087682177	-0.07912318783394845	-0.03773075965772715	-0.03368830774657783	-0.3431225492701698	-0.5274190233732166	-0.5420917768187157	-0.3910918894051128	-0.5953459764003468	-0.23835972040740366	-0.2130868667416308	0.6677903645186111	0.4932316843629274	0.3203346302178399	0.09387036529975701	-0.3497900014300283	-0.4208237025485495	-0.41559142130499466	-0.24957388544782882	-0.5316822528952576	-0.5798333292261268	-0.5201187713589186	-0.24866329651465974	-0.24806187153354825	-0.1406919942907064	-0.437497612942039	-0.0010492282712254997	-0.30190858807571364	-0.7476071932665882	-0.4692247763047275	-0.22317018141014291	-0.5430618458566072	0.034121856315559196	-0.8886207082736151	-0.7553500071336257	-0.3298694808008077	-0.12230491413000727	-0.8705578507696252	-0.15408884449092658	0.6705155240184203	0.18162216949966267	0.5404222750238991	0.12008715113365864	-0.276438471191335	0.7838180135126616	0.18856621199222567	0.9803381000678935	0.7923101816636845	0.07811000294341364	-0.6624821898675541	-0.45394666301541803	-0.3286143336920423	-0.08471919818585938	-0.628996470596173	-0.8807512455171875	0.031207394939816613	0.11190264310288855	-0.24183804847277496	-0.6221800333257421	-0.2440736558798758	-0.40710297327437023	-0.39046620195791687	-0.5542302812944746	-0.7006043686645615	-0.055008428202428905	-0.5561506444079249	0.4688078148285269	0.5572437562742356	0.6060986269703572	0.6241275851629334	0.4389161137076123	0.8454138575459471	0.6884654044893481	0.21947134068476254	0.4383148538160002	0.7428641762947777	0.7585304184927212	0.6308416346150391	-0.2537274317823505	-0.8189927292782144	-0.7857358605848812	-0.39997065286565675	0.05521612317788582	-0.4653668261353779	-0.1453731085557915	0.018823562821579487	-0.0009734719821795634	0.28033378914489315	0.33879721586116207	0.7272760669889198	0.828750446073396	0.8651801325260182	0.9386445328049003	0.22629735518462382	0.5605654198960979	0.5625014723246199	0.7790519516636345	0.10099314890370423	0.5192484071498384	1.0210542183555944	0.7905990988359272	0.8281644598725618	0.9151350831063754	0.42426269615096374	-0.6338813293940035	-0.422841668258851	-0.10156978924069532	0.027076733724373137	-0.5069130792322365	-0.3992851715185531	-0.49818932716610637	0.055287842744540905	1.038301979580979	0.9866625547573268	0.7019406242445174	0.990208134142584	0.6576899541467727	0.6509709400133044	0.4786304910373379	0.9086380309215323	0.288460572750764	0.3183570766260876	0.44506432374794963	0.34196372472369585	0.2634776264494869	0.7656350204413069	-0.3499642972303337	0.13967545483184107	0.02372633651741568	0.0674142508627189	-0.4478791832059142	0.046067736407257476	-0.7341546953243698	-0.3136626329969864	-0.7012420237307233	-0.10018555587795835	-0.34690473981393105	-0.7951490776007357	-0.23329889888572825	0.15679811191484505	0.3085374117204646	0.8307938538881974	1.0023083288640915	1.0458885143865428	0.7662389933022454	0.35757818890376714	-0.33112011176004497	-0.1915925764463391	0.23368362745180127	0.5412468013072244	0.8122534427966158	0.3500883510067386	-0.06650563976890422	-0.5968569415455891	-0.2994024018969863	-0.013482022382566072	-0.6791898828150871	-0.8642964923782073	-0.30533766978146215	-0.4536516310388347	-0.11847778897120459	-0.34447712816630865	-0.25885862605921023	-0.8510873389802933	-0.7099179597416536	-0.46057160110574197	-0.7691639618380046	-0.031727417083440235	0.979918446331819	0.39010442367723047	0.8398909985153714	-0.2609047546040809	-0.3913031769926229	-0.08623632023208316	-0.6056941945340144	0.07509253335943011	0.5616916895049062	0.44180705943487014	0.3236063857960098	0.4951496607532905	0.12066041379358433	-0.4907254851295803	0.136282475185439	0.02956191838357669	-0.7905168163067291	-0.7761961685912186	-0.7919853203503178	-0.7509758855792843	-0.6810169155380097	-0.12103389936560222	-0.6817435901572313	0.0019489566510065282	-0.0279512342162766	-0.10310374297466934	-0.6113531746363423	-0.25505223709917163	0.8940791456856954	0.5551573532195058	-0.13196341440956838	-0.34732154187549064	-0.7763144616251585	-0.06352699624100888	0.04919187809629392	0.723383878380876	0.6746297856096372	0.3770508395511728	0.17839470100465174	-0.15889559144625875	0.028818106174223868	-0.6210688027385665	-0.5050153885340795	-0.20704674331689082	-0.09377150288257263	0.09275981669718142	-0.7750019029861968	-0.29853494921630197	-0.51068461338428	-0.729514706426337	-0.5417161107018411	-0.16283300136429268	-0.37010339980788415	-0.05917152177388252	-0.0281216006925597	0.13159984218673285	0.3171267737130397	0.9333519266745749	0.7825385448044797	0.7747476606974518	0.9756962041099998	0.8146587515876789	0.5074751706062999	0.6901680461866053	0.7903905660636983	0.8199044098669218	0.7428790849968618	-0.008179989564440437	-0.5547279886186878	-0.26200567735247987	-0.592269570260513	-0.7119881562040913	-0.8729147061671485	-0.5462376670124618	-0.44625394334722773	-0.011248079843828751	-0.6733150696819972	0.033108943930335366	-0.7883366681993345	-0.03881363404581201	-0.38054582964858813	-0.248225587884574	-0.4525308315484187	-0.2847735710979843	0.9285666851963544	0.5471495568696645	0.9112206668117353	1.0576175100231402	0.3808707555969022	0.9345301244644103	0.6817196883238539	0.6972207858855387	0.55688975891638	-0.5405604341650997	-0.32410930674740107	-0.2802667352344327	-0.3368594133011144	-0.4653655763313502	-0.31692048945234946	-0.27179360444042583	-0.7067393145200849	-0.4511679188651529	0.04257017303957733	0.07943863666416062	-0.18376027889686486	-0.03482716641127043	-0.745238315661791	-0.1205964131247726	-0.6467736217780622	-0.40635249273576507	-0.28632512601484483	-0.11202374308854918	-0.1562618045845588	-0.7889879108951641	0.040973508281789195	-0.22329147650869013	-0.08426626696404055	-0.36325942224764507	-0.29910478766338233	-0.5979809480442071	0.008938496997995649	-0.28257467471976566	-0.04514736232147673	-0.17142488256797728	-0.3977516063060103	-0.6091244631033077	-0.8970187611931553	-0.08408559053327258	0.08597982733527937	-0.7011921273243722	-0.0809433747869791	-0.7775493773859368	-0.19627061607579255	0.09219544962730492	0.06643776468405327	0.003128183349968172	0.042366374253669514	0.09167875123086472	-0.7721522511016776	-0.21126433547343826	-0.7306046713949186	-0.542733883853268	-0.4785115393719092	-0.48222307730542535	-0.4595041039486738	-0.30664468315123183	-0.5106809324129307	-0.42876801122044633	0.06764523035393855	-0.6977478210182713	-0.22417975022178388	-0.6808228959896072	-0.8355085268795006	-0.6579639469726084	-0.8672360704783855	-0.08874782021187555	-0.13833594031445223	-0.07514785968548232	-0.36957237801982673	-0.7668610719395905	-0.18006038925691747	-0.26811767120355706	-0.11255928211867056	-0.7755133738084443	-0.057387299084274646	-0.5096710133741891	-0.605030113939373	0.029777556942034877	0.027582492877432863	-0.37699085906249324	-0.2979408199294057	0.012191166551647481	-0.5561553534718209	0.09690247150384707	-0.6959504217738477	-0.8159921846198317	-0.546271082220082	0.08891828303597266	-0.11137245184889238	-0.6044158751051147	-0.8254974064230869	-0.8964983860784606	-0.24374568077309994	-0.059335120907420325	-0.5996297800381531	-0.6610497215623394	-0.4223476425568434	-0.10493567078943317	-0.7788710805340213	-0.4778622320874049	0.009050455507599031	-0.8706100690192005	-0.7779383160930675	-0.17620419636755824	-0.3303161156870321	-0.721983023748842	-0.13845125694820265	-0.08050829914051028	-0.6417492402947411	0.08958074634408336	-0.7676864937262888	-0.6567211397048007	-0.26077082683088254	-0.7369061487739035	-0.016734548813205963	-0.3434199380127327	-0.856280337664634	-0.05543547339530186	-0.6307105813901868	-0.8780253806308467	-0.45312642115357776	-0.5087956442525512	-0.4593594669549594	-0.2555401666586345	-0.3924581593373881	-0.6238395505501655	0.047751598018480834	-0.3125013428138975	-0.7339177438409377	-0.13414587252140225	-0.30963776013768995	-0.6625025255340402	-0.552189565641322	-0.11000311866688067	-0.3008124241702067	-0.7023997952072705	-0.5257113714567427	-0.8769759898345233	-0.40547461479671204	-0.06933764728653047	-0.23431135150085075	-0.04026487508256993	-0.2669916808062855	-0.499511936836387	-0.826854573953365	-0.7914892879721831	-0.3558319769479162	-0.7019541322335712	0.0051314794696202815	-0.337064027581255	-0.051080135949051475	-0.8547455851809322	-0.18693384080130215	-0.029001597718669003	0.0035088084580903733	-0.8549700039666492
0.3695652362732016	0.34917219233443186	0.5814847928928611	0.42768167741321006	0.2961877606763087	0.611507625238656	0.010625762567169073	0.10690631559184549	0.5054318387441645	0.42044599860716536	0.014800082639752965	0.2941408278258123	0.26238091258404606	0.5072089162362695	0.20429634746898906	0.6531864124330834	0.23089150366225086	0.6663010003222307	0.025562527901792254	0.6899494404004454	0.7904711290681534	0.9011608640194557	0.9190424781191905	0.6381079199791412	0.69017954985648	0.30647690025607466	0.33144847535805444	0.6051995323953215	0.3332312797942346	0.9389492124606645	0.8380153381542856	0.4597439564248802	0.7413029261462952	0.0563403837443589	0.08841331888447213	0.9398636282042503	0.11196876932665278	0.8248687682261817	0.5275458324597077	0.6773661942535131	0.2903183496213394	0.617141756577242	0.013367895297483279	0.17201036189136232	0.7696614737219383	0.4511426306614721	0.18362880577732332	0.6673504310527325	0.5337799512652084	0.22724195223204324	0.7652142917743302	0.0002851899266246294	0.8267286790522554	0.23069374144051547	0.8959565813341674	0.5691603570942642	0.9272603834410851	0.9247128539040264	0.8385169071994503	0.8404310635755126	0.8276651607877554	0.5107107845429988	0.7163925021667154	0.6371333978836433	0.4449422265425953	0.9844160122773348	0.450703984735234	0.3261902109845799	0.557031621880081	0.9922124545309713	0.35670051603737674	0.9431339672059283	0.5076796224856168	0.07850669940212307	0.12679564165769586	0.9375005915178205	0.284926547344457	0.224580943854518	0.42801751295383295	0.13187004858661766	0.33461684375665246	0.4350183122879966	0.1348450835088546	0.525312298884734	0.7953357242942795	0.541878418710082	0.7257367632989394	0.5896305091714196	0.059258405958434346	0.9016465463426786	0.21616927004765596	0.9708874358458263	0.37142742106226867	0.8395932797498294	0.37826108427781335	0.04302438399703146	0.8688341026930607	0.9351424859257493	0.7456586456387809	0.1295116971237359	0.22792240108219475	0.17230706007464336	0.16984665048082515	0.99647621596143	0.8727323267549363	0.42263161793902004	0.680816452503691	0.5708004121319599	0.7315889157618013	0.7624969021862791	0.5430073205229561	0.9402313206506056	0.4735670793549547	0.6947467323228614	0.3217340379646916	0.46671096975878634	0.07888017421511995	0.9741902694749175	0.7456448081735465	0.2601397186013238	0.3875097140759036	0.9592615619372391	0.7311414787113824	0.6217600341258427	0.486710347864516	0.22916404934824458	0.9278074429310765	0.5920784432683085	0.9095983777067419	0.05132850397029376	0.9595173564339107	0.3956622226971481	0.654109681566845	0.2779262675101337	0.06005289503439237	0.13189071251548246	0.30860495007340794	0.008967261123211334	0.3184878277394291	0.9058494488890078	0.4287362930606332	0.3434820949318568	0.6930886977593615	0.644847073602364	0.728496544858864	0.02805854954045084	0.4098247270320028	0.7202507514352627	0.7597698679988709	1.014646163905442	0.623602536781724	0.8142947085215662	0.6154805631245758	0.61231507325331	0.47221175065881754	0.8609809226252875	0.5017581742654936	0.3836008295353507	0.5092413623041886	0.02299359229231135	0.6416442006721745	0.37418805371722885	0.23827524313602988	0.17445343352400666	0.31781226421942943	0.09113392307798207	0.9831064932590277	0.18028616316362056	0.608901024672172	0.47784617653120887	0.9055483798809874	0.6783670772360549	0.3171045270548488	0.1801193297622775	0.11486707837723487	0.16480772614663175	0.46286490345665576	0.45060160421026957	0.4875334924007643	0.7600121647614102	0.25113412777335253	1.0171025385002055	0.6304514106114671	0.8495392260179756	0.8935142802886121	0.5039341197452065	0.8261179875633378	0.6859741315058313	0.7973801685657356	0.09419315108792381	0.7581022976046511	0.1883002014458387	0.5527633816393572	0.2313360939845408	0.7406438375526002	0.5822980052203498	0.44166881470108754	0.3423614370925705	0.8761685908663237	0.9082664147730186	0.8416998843449773	0.9826003990459693	0.6383785349070866	0.7971524020537025	0.535381795685884	0.7535234495608365	0.772988819445534	0.564049083342064	0.27629813892923805	0.5399394447456997	0.8753217648811377	0.7995652018669921	0.46444922027637997	1.047832824460445	0.6585503722872246	0.8751324685857329	0.6715701446636566	0.35941072565148535	0.8234642191322642	0.8780678901539252	0.18227557145122353	0.33597269852287304	0.36465235551602093	0.4516439423281571	0.12418614694562324	0.8495879707969998	0.060410583520661754	0.580527388620382	0.5076237686270471	0.3320166487556194	0.2113185863173992	0.5147373746638292	0.552672983489122	0.7681396163906512	1.062329234664385	0.9211761669135055	0.377322966130868	0.9145761660298972	0.8122203476425014	0.08392729345550251	0.4787950697512213	0.7172666535765776	0.5677173748440394	0.7962401414858278	0.8899031250291728	0.20026880105216982	0.7224716403807365	0.5396206319421081	0.5712713792980818	0.10743726885684068	0.87357417439889	0.5252231838935503	0.6816571688828427	0.49055486880128796	0.6722032736302366	0.5799442626353272	0.40836940154648116	0.11224478156666373	0.2697483922041486	0.4922755921611697	0.471628298524694	0.5450757976682055	0.6734672767541725	0.5106665779865108	0.4051665659476664	0.4894496860766898	0.17409948196877792	0.5881663480955519	0.7701433403819195	0.8886357820508857	0.7207639581040592	0.8325643624874024	0.20358415263052823	0.6191492966279539	0.02295585443740178	0.9717640297470103	0.3598537324651061	0.6535371413126057	0.0788961226301379	0.9395344806711978	0.7270140362780878	0.5370874180212808	0.1982359900427002	0.1851210013064416	0.8879835373203074	0.7387840790707444	0.3324753715381301	0.738396182329675	0.7195245778097655	0.8243601146660421	0.265748902512952	0.7251781405692059	0.2127043770951916	0.49187612950496484	0.30854731498655	0.7555274440753884	0.6164921492453739	0.20469799090107013	0.7223429332451676	0.9966949004998552	0.7859425956465896	0.9738551774373232	0.4405888773790717	0.6951381004714724	0.8836129921068269	0.6690753988288206	0.3469239776224242	0.9686126353885415	0.6051456812099548	0.40314667683748184	0.8358253181702567	0.7393775447039471	0.578429526632275	0.2621422255096272	0.3557648562972633	0.38486294965680246	0.6612415182784486	0.8562319458056796	0.4943027350347172	0.10549949596490649	0.35852946676748865	0.5736692747065394	0.5099361860038404	0.07986716021419649	0.684420480272098	0.6995428920634693	0.8342210238507507	0.3685289788442503	0.4299067907208068	0.5774234070463492	0.9748483245538062	0.43134883451960304	0.9642914643160749	0.8918953598375385	0.7708769270343786	0.08107608627741358	0.18111774327604058	0.2753312680719059	0.7367590544954314	0.8032471355307558	0.18731486363522865	0.1876537601494752	0.47953497351101293	0.472358098949794	0.2979414066239428	0.9564520518920893	0.4303584041127212	0.021986471222548487	0.563596949258576	0.1901153155307884	0.4283835384586241	0.8168974793854025	0.6815384911109922	0.39477524122556507	0.8750607484087991	0.6123214828445206	0.41555747015684064	0.4682805128031074	0.49013348923079775	0.5227738588258091	0.7750226916586218	0.2612844938480505	0.2822385839480993	0.6819062546051232	0.4836966983439973	0.15450838819783586	0.8593570839084239	0.27476633912383563	0.2819103410605488	0.2589236064280448	0.9060956284993199	0.7596446465862281	0.6063616133508084	0.7334280253918414	0.268797832899611	0.37528912464841224	0.11303565384910508	0.55875187973227	0.20218263108314571	0.9748492700061393	0.9932374269597682	0.15247275769455465	0.7865893117020982	0.5189770468809191	0.32437224503472045	0.8753241488705328	0.8559843536517889	0.9972229790941946	0.5140949928161483	0.24077806847189587	0.5657202720165038	0.7593543832833599	0.25469584034138715	0.015099765206593174	0.08247557985237397	0.5381676934866285	0.32107439188051334	0.5191962794650405	0.5485279657514706	0.9596794787021788	0.5871265832535749	0.9276507652200899	0.22938635588048695	0.8992954071041837	0.7166713571181805	0.7041079268707297	0.947845038769784	0.3826883165897832	0.906879910216897	0.2409812139764733	0.7286734408219173	0.23059785521246018	0.6979636754863211	0.981280756210525	0.36353412001681246	0.19247073409499885	1.0199403655431982	0.8700651691439057	0.7117413464076334	0.5933849138407274	0.07391357418611111	0.5531843540934447	0.24255602771035478	0.9815350141901825	0.8080132766518837	0.8808152610251984	0.21206526027008804	0.5430478010861354	1.0792309302707352	0.16160231278449613	0.20565780523855892	0.659873705432515	0.17290299203324178	0.6403757722037191	0.537071511339683	0.7667988621482793	0.5959731286373077	0.8877689379477575	0.6936653289197714	0.3605168125626997	0.1946446708247299	0.7636556219158438	0.7810397878744807	0.9029960203261682	0.44392041944734595	0.13033804104988236	0.7027990584986534	1.0189814450338035	0.9789414697455368	0.24462249464237773	0.06820235698103039	0.25303661145266243	0.07030363741053847	0.8266359506522934	0.5998126806461008	0.7041203413258718	0.4131153250777224	0.48942109064384964	0.6432921769643786	0.7637284190211592	0.11836422554409333	0.9317687581523041	0.8975555009951706	0.3695940049093438	0.30481396286319956	1.0114255217330361	0.4865771601359334	0.34072976317332115	0.3625779252375201	0.8305850044022866	0.5154420327619783	0.869885957508596	0.7857940648579583	0.10278440178664984	0.28819952370182744	0.08369646352960936	0.5359671937358013	0.5909905900400935	0.20176490055217855	0.8113642369441268	0.7504652336061566	0.7673341911941176	0.30379936875295976	0.8299260613800402	0.5943828385490805	0.2086942819827449	0.4681099625064493	0.8092083794541329	0.9133332488702632	0.2834057841340559	0.3391105422518239	0.16597907415695648	0.8553188568355657	0.5529112526349674	0.4131495846241686	0.9176427318825723	0.5957491723850751	0.7929673998978529	0.37999865450208187	0.23792951266987783	0.5466509635139606	0.6952607101983731	0.5213114347046637	0.44533683353832165	0.3475101487148281	0.6184723947660852	0.6037385865816965	0.4668788596107788	0.14215510334089676	0.36170790942386305	0.19667423340249443	0.9176251502683443	0.4821505702148313	0.6986280049784245	0.39240644945677755	0.07359272262378959	0.5654266899371253	0.14749093865652463	0.4924314633890425	0.3963300915162523	0.66201330475739	0.6499194518650687	0.6023405442640578	0.8571474477976859	1.027042452338179	0.8474350321910629	0.23950436404756073	0.6900707203345073	0.9042132449899282	0.9534054248779252	0.3544370114743285	0.3323982623468087	0.8692333806148546	0.6228394490012589	0.6995050773090973	0.922875353486971	0.46593979080188597	0.848984096660189	0.27261724472046206	0.6356399368186967	0.564269921058754	1.0080930203635345	0.8307255729884804	0.7473291397480066	0.5416679741894078	0.8660234590017447	0.9958081395440784	0.864461650509942	0.7408285269798366	0.5879571743161681	0.8791341373633396	0.31638004351750226	0.6406663765008034	0.8648038410295465	0.94418605018899	0.2845294128875794	0.6715758964787294	0.5701672746677923	0.6147506865519804	0.15596278929640495	0.11886000917663397	0.6085890032835641	0.0023156127924056635	0.3619725446954052	0.6709924225492695	0.48974336764963655	0.763744682520568	0.4408321222638699	0.37305143179342903	1.0467362140558214	0.570116524875534	0.6139919861169651	0.744165166537399	0.203646181572436	0.8220648332324659	0.40922533205262646	0.5319698872373237	0.43013660301532414	0.36815349618979204	0.7148232669310284	0.501092099974641	0.41560197959675393	0.7040511875237137	0.7840606013949286	0.10536867434882147	0.25237466061988156	0.4485263940080553	0.3009278768193767	0.3836385750558834	0.8267142328731379	0.45738610184146056	0.09099252147569947	0.7493694151056901	0.3046231758920275	0.8521448564221069	0.6043830995094694	0.40882693414190335	0.527542866331189	0.912706620893681	0.4987827180406384	0.11887257957753136	0.4635153892177266	0.8662491587088093	0.716826794178227	0.9389509154879307	0.9285675053999478	0.6264499662392368	0.28076735073959347	0.9465504551232428	0.3481454708039395	0.8051796383265509	0.6017435780725293	0.6827657300479008	0.9409794149184838	0.03514365874821346	0.5074273352369664	0.8339826663412786	0.26603845291247785	0.7298527245705247	0.14027043646198667	0.10946486036716085	0.5275447626557697	0.7216292022980462	0.915677603511042	0.7586413610466813	0.49178465575479297	1.0626155097664174	0.9159073598525305	0.9374821890071701	0.6010036774159615	0.4209142555004139	0.23606420003781975	0.67401773530916	0.7268015553697584	0.5595817202896258	0.7512191031031465	0.7878065323631763	0.05779662343889058	0.3982507391525115	0.06584815274628364	0.34897980435717113	0.2657149941247816	0.8135157667961009	0.471265533149003	0.1909478600045541	0.8558341668274018	0.28021066709696396	0.7058252205620233	0.8833412802511952	0.4005818760978448	0.720908002472519	0.2612324784689407	0.4402697056771267	0.8568976233222987	1.0082216067680518	0.6759494753028206	0.4140777204814062	0.2879545822399209	1.075895715674747	0.9799959568021266	0.3698017103850485	0.4567983321267718	0.7845847036965677	0.8652609248746554	0.6644367215402208	0.6264429287097122	0.4601505248950619	0.02914501635743072	0.6361748750602039	0.056702445229054765	0.5958082833468753	0.04892363151515755	0.03361237835213071	0.8479616272183784	0.40595359728779445	0.1948894426825034	0.502705523339567	0.09802566639667731	0.29913102642740763	0.8591565465441509	0.04228113056358862	0.06570596482793073	0.4828190225131929	0.9146414865159057	0.5077743888089945	0.7339964856109639	0.13049901928806606	0.8176124102786453	0.3448500775345482	0.9898807487173993	0.2990545897565451	0.3747129989282434	0.4846966757765586	0.35721943127762756	0.696472102242289	0.27433872670064086	0.9676139214745728	0.8865358290619034	0.6689310629041868	0.7399170640166279	0.37242377906756075	0.004955637533727297	0.4819828600623429	0.5490821187041679	0.005849016086629577	0.9235674333302026	0.6801221345715912	0.28054573113617953	0.09781673814381742	0.3400655838914738	0.9294514744820379	0.9333748488940101	0.3801525452399839	0.7638541051758836	0.4203593466972856	0.005951533291506661	0.972536318013	0.8095303343788036	0.010105747792460429	0.5819955712333261	0.34027020560490273	0.754834955315072	0.3440484901140419	0.5601435847478041	0.5521648800218019	0.7963619930239454	0.914508999429514	0.7687501386565339	0.04040926838193082	0.36376809512944086	0.18818515583388384	0.7597138595474305	0.5201417677071335	0.166653438598101	0.6689804717200126	0.5155651303804274	0.6557343864189271	0.20815658349432298	0.6105025942470875	0.9891084862864042	0.5420552521303155	0.7147614022133161	0.169398798070866	0.9125017567766216	0.8948072160998886	0.45526109971454354	0.9751599389043648	0.2907264132633952	0.2836397671311671	0.8660730252548982	0.21949695539351732	0.6782714609019258	0.732526878532962	0.6811834341012951	0.9747721082755079	0.6333845615726236	0.5483920163380092	0.37245667106555125	0.25992538422324385	0.014070278285635895	0.04770655243560207	0.23446141030672762	0.40048757075620156	0.3720991843340161	0.40004576444805084	0.26742449028046245	0.05363991034205784	0.9650285755491631	0.9745622695880168	0.9554746219728435	0.7592221682165057	0.8431864235670796	0.5814104517847675	0.3413243922180612	0.002822972308773708	0.9215341513983306	0.8943796309206501	0.5057146358661909	0.8390712258072486	0.772237271096277	0.5482098195356826	0.06317437933493297	0.5811979874474807	0.7512175577359058
0.33145762097742415	0.6491615017167929	0.45447332093541826	0.44027441740755113	0.24856523582325885	0.2077176404482719	0.21157019821852419	0.4288933412194269	0.2876134620342611	0.1469676274492948	0.5869411872256096	0.6544461384489899	0.9348812320231956	0.019810431893481972	0.1431817692802505	0.8709046184195016	0.9053691102313699	0.7625529171856037	0.9625525515330573	0.03392693379400369	0.2624518081760203	0.6447820159172375	0.7588973830585963	0.44897472807791705	0.7715323703705734	0.047911659296535514	0.2742311156359897	0.04814514944687376	0.9612161027671192	0.3821190182246923	0.6776681454434547	0.9885057026597369	0.35795640383491567	0.05708585504352215	0.9387053563066892	0.19277979979551496	0.42691278227149176	0.07050563302543211	0.6913553860610293	0.09891401013722645	0.37696074701803495	0.4982485613054992	0.06354071046673171	0.3918746240242388	0.40150282247814795	0.09810937208893589	0.1399005447613706	0.042714818811511956	0.1208966478439153	0.38670777111984944	0.24667188661922923	0.5172844488140557	0.941390074131472	0.3951760837509819	0.26197457902866994	0.7630040841549158	0.3651376224628088	0.4458508741213928	0.9098029132438696	0.8297773757382518	0.38123124053702606	0.40657674797033005	0.1583657076256325	0.17741495373322036	0.38783639522977265	0.18360426435160015	0.9564243599978585	0.01134989341582926	0.7204503087935329	0.04653793288371755	0.07243956332396118	0.4796548097868971	0.2840145397208387	0.07882891811040005	0.7867416543180995	0.6535308174157827	0.6530017851711792	0.08514349258777942	0.9564819199655445	0.12739384406099863	0.28742699563380414	0.10275967324182833	0.20422875269230445	0.7986383584689343	0.06674221649643486	0.13862710840490955	0.2534015605952138	0.732340848661366	0.14262857130332263	0.6065399789342697	0.5671865341247814	0.2615293702688549	0.9671355970166052	0.9128581992808779	0.02982160154779434	0.4046689041222835	0.9644370657853386	0.36024444950109513	0.6877673148228695	0.5453368621906398	0.3489995765284626	0.2745398465496316	0.5790194286111601	0.16214359113430332	0.15088118143187512	0.2624591573458154	0.581522865797378	0.2202735816189313	0.9127798165891843	0.23093862032309787	0.04534861291176351	0.670455626433712	0.2945586580151357	0.8735920404637787	0.8356025225944808	0.43148510913212634	0.48507630718731054	0.815946451742517	0.20409953672614722	0.04830334658534641	0.23953332619532963	0.2074006145487307	0.4168385639957402	0.466381778449293	0.7712158429037189	0.47276778121887125	0.5991027798343155	0.2966541013278188	0.9548168036374206	0.6812045558578669	0.9313317649060224	0.7053337130210712	0.4612915541902889	0.6682088193364899	0.6750198432675528	0.3036162404814913	0.5578933042522812	0.3061338655898769	0.3125635314902987	0.0030724241677829722	0.9969166111987852	0.6181122935536045	0.14135659592430028	0.7837796008213155	0.1085992088619171	0.8741163974882538	0.4647011992185528	0.4804788272185634	0.7869690842676433	0.9698886855608815	0.5500060155581221	0.9599277660502378	0.6109080919913191	0.5949394660248054	0.37568932676826283	0.6854958595390829	1.0672378793165505	0.7238418703133558	0.6584958860768153	0.0651810961341992	0.07898944186245749	0.7417975500928355	0.985072587847428	0.4729303701599795	0.48742949788853474	0.9395730905919937	0.5461032915975577	0.16261500841154786	0.5465155623896955	0.5155686223525334	0.1588991670615183	0.5217364921025336	0.193129819886812	0.6727991030924203	0.3934897054690982	0.8068185009117801	0.9916259518026498	0.597853771554522	0.9651454348335913	0.47421453465972513	1.0948231547657639	0.8166088585431076	1.0460638749547952	0.7924032605477324	0.8952322476335552	0.4374098778845139	0.4769905102082228	0.26921451424495857	0.16115607818182665	0.5945303480451114	0.7945814746837071	0.5597973693009373	0.9305017952164454	0.8442312571815432	0.48347402409454754	0.7678193854092075	0.7069743359255094	0.42973872071702923	0.0021322976805999705	0.3381385250290456	0.17996095313562532	0.7938077289289983	0.20813458982343525	0.16172849142924217	0.5620721935015792	1.0188132127416996	0.8123650064813871	0.48873421127885536	0.8324626963172141	0.5967324504164974	0.9749922371922821	0.32326141599095204	0.6105707146198824	0.9301201747773055	0.8015600148028661	0.7821469206772732	0.4396980332397623	0.8795428026811035	0.6368917648903493	0.4460383828244876	0.8211408547209573	0.689411567295231	0.1677798019710226	0.8277945442282675	0.24987772438892264	0.7162965846841213	0.14685306549967614	0.5931547574982932	0.7718444568698435	0.6232714052169431	0.44673973228106	0.4191517831626139	1.0191160661948997	0.7838041015673486	0.33858311569912625	0.9448398693625788	0.36397827280155376	0.4834463199075546	0.4114584677754618	1.0247210495908654	0.3198351386153991	0.7572201660717462	0.8436344797547433	0.9988060239772111	0.806836753084282	0.06873890401014848	0.5511046478157394	0.22096322894416243	0.43049712560706	0.0784678205682926	0.19455496829642938	0.5522048883156393	0.10578988197211492	0.04412046903143951	0.6522250178575416	0.3637332370750974	0.7655936355350693	0.2711357753863669	0.4588547071273459	0.8772477928754691	0.6959599518749134	0.9450819342249297	0.41675616338738447	0.6158553175842156	0.7502346490223422	0.3610871909009586	0.928893257106451	0.9996064560111912	0.7092391614967323	0.467992120097097	0.6095214830835242	0.3733168982423008	0.9888775927305363	0.8420019597082458	0.6636281694398525	0.4531580185931171	0.9681191785121026	0.9894283076957693	0.8303044797177345	0.7551409707707833	0.6442616441571455	0.8915764594204506	0.6902446363961033	0.06128377951404684	0.6411704669609891	0.6489702786093269	0.9441522933792301	0.6690835773655673	0.8379050954426832	0.30673058569009753	0.33339220539165726	0.9109692351236397	0.24947060975205917	0.6881644649225966	0.8095329698642769	0.8466710062718702	0.3909889331368154	1.0069442064228864	0.926358353178805	0.5792827262927346	0.7715816765722384	0.4307526581152098	0.846755217885317	0.9082372434960305	0.8594496554268424	0.9725548114482968	0.8599099441705861	0.16724717404120593	0.86800346338951	0.21895285611735638	0.22099551094651393	0.7533236015572357	0.0372273191467104	0.17341197793464624	0.018566316119115855	0.7854385091149253	0.7813917751448904	1.0029624820790968	0.7553531736584336	0.16457376119815514	0.2890225553998236	0.30178721655341056	0.20708560202502846	0.9353971896132198	0.4665203688671098	0.7008255973379653	0.1677151668525894	0.2870230956684308	0.4787931856138002	0.3968261609205371	0.9746519558819048	0.4929956082578013	0.6348420213534612	0.06590273363602583	0.7220694687423346	0.2639074624964942	0.41425762179053116	0.734518313821164	0.6940270105294909	0.7084200404261288	0.9678087340441924	0.9668028575751114	0.6704257354029821	0.6927996196480761	1.0202884733745954	0.763653798517047	0.7000603917139762	0.39490987892498464	0.337761964977208	0.27960318140184065	0.05858401434025928	0.066028217741404	0.24192921800176803	0.8857075307172718	0.7157523153595703	0.7123837327795038	1.0196644994400603	0.5750407489439852	0.41185715675221324	0.5377571376542677	0.2082170984491304	0.9811885926975485	0.14488429864745567	0.3997909956709973	0.6627786154174359	0.08320300247627233	0.8973072457084447	0.17684493117227462	0.5959290643286078	0.7115978692490841	0.5089221261593526	0.7793886281930552	0.34610538105970384	0.8511142640155482	0.4721276761731943	0.21892693753255732	0.5138028137730849	0.9766701131144282	0.6775089633415627	0.6352702457436216	0.1882747985489276	0.6072409410383773	0.9519088292713322	0.4385515164412164	0.8460362201158318	0.7796799133831293	0.637596604739892	0.03936525662548351	0.13360198214380847	0.2433762804927977	0.6764507291122148	0.37861693498670024	0.204291378775865	0.4629254180529824	0.10890612566391922	0.6604987988786115	0.37024123738297754	0.4897922899867787	0.5313336871303435	1.0030565344064408	0.589591474095637	0.8926699293147593	0.9962370108870552	0.1324478267996423	0.2925530338681368	0.9919574311713738	0.6254977176122567	0.16922681899319802	0.4782434789053326	0.4308634443763059	0.4368099620849319	0.41802618764642285	0.196442774362488	1.0649714913820465	0.40473003022946136	0.8455484859544407	0.41217568278029115	0.9777455565476822	0.29426971212699576	0.8505385912888008	0.8649178995197409	0.8484416283356324	0.983757972662843	0.43887960281710436	0.3481617746966379	0.6420091217280688	0.8810026981071877	0.3610593163154779	0.5222863001328073	0.8512654128224786	0.21181592453355613	0.4190925576966401	0.20633899942414868	0.48013705201680623	0.7802927674665944	0.2842359761627147	0.1518391671960489	0.6707302614813244	0.7473758591595686	0.7761216732970375	0.7153429927266517	0.34421950153410674	1.0495776749658066	0.4207765236859359	0.6463440169564536	0.7681252572905569	0.21633434430143753	0.9501121766719886	0.09775025890385547	0.07679009211240084	0.1877371103354324	0.37375735716717506	0.005891397046008939	0.2902440269375335	0.821116947555668	0.2760319238095092	0.47822437409107305	0.6213089758780495	0.5869128384318296	0.7980271636822578	0.7581864522363497	1.0319234260208199	0.468084673138862	0.47440745862594985	0.39064998175041316	0.16572441542676272	0.2754435270730334	0.5548318300662253	0.33813208457206795	0.942385504686036	0.6265406259945561	0.8946114755823835	0.35469283842226773	0.5552273341159829	0.6662178539676337	0.9158433571008262	0.1400883091422992	0.6292804939833271	0.644162313053679	0.4201758834982887	0.6537241564746434	0.5706728266250625	0.19287162118905893	0.939400090102516	1.1026958874247745	0.3619829211311786	0.5990319109769977	0.5302709560199149	0.932732693437936	0.5028313757041425	0.5880619404339134	0.2564660758641032	0.31672706819985	0.43862881017875416	0.16088106160972293	0.36917373854903923	0.4049271464408138	0.5873393102369202	0.8144331451513387	0.8616845903379764	0.9927797538999379	0.7583202137486799	0.47596534837515536	0.4050025586666761	0.5419429166021456	0.42741008758444143	0.9458005661378467	0.9417316172854787	0.8584417452849734	0.9565000867960862	0.662845720320764	0.7345198111855432	0.5054731346586581	0.3483224533529569	0.5702127749902413	0.022491873746244933	0.09167933293528807	0.12218839430683226	0.38309961428494366	0.6954843782949135	0.35072936169490054	0.6432072394490413	0.34438567310260604	1.0539921215011696	0.30604057208911556	0.33507933364966497	0.8839797949953841	0.7783146702860653	0.6107796943035037	0.06097185607792743	0.927894136765549	0.7783654301066822	0.9973167633285658	0.4124043606029958	0.13053790185974878	0.14159641031527237	0.3869333458481534	0.1917113298554527	0.8876063009062395	0.6304113384390811	0.8565745776422509	0.5951101937450546	0.5797272441741629	0.6626690290534744	0.2886902946484734	0.07668664650796087	0.453035705435995	0.2597653617371006	0.5992159861723536	0.6969755818894535	0.4172235349980546	0.1803626510805673	0.9052679172234439	1.0407623711087401	0.7501542144587584	0.48516732234314	0.777012831144908	0.9482380212526691	0.9316199175027997	0.3104218579333755	0.4918397675816316	0.7434307271773604	0.2206155557196634	0.9072435361483154	0.5911510614629588	0.17979759306119747	0.3860454612051318	0.9776029891992718	0.4271178323372496	0.712837741133669	0.6410891993517974	0.7032251978858424	0.10858108178384746	0.8004484512356234	0.9640947767503639	0.2888089081329482	0.9125181603350486	0.37140851184909407	0.7274919576772266	0.8176385572859408	0.9203969071177277	0.9245909949796406	0.2552803927621843	0.8472902732933799	0.8541441951608353	0.7841548665384566	0.4849681178542957	0.6388075488895987	0.11920148765223959	0.49937858611615005	0.2681692918783273	0.4655628036394178	0.7177496776557937	0.8433483996046444	0.9661155447676749	0.45518288121029327	0.37002287898605607	0.6240201719649214	0.29262094941145533	0.42303760899982784	0.18849835908918344	0.3835132454968465	0.2676916509459069	0.5405749618990477	0.9302288910909493	1.0153726846948288	0.5577603387900175	0.5295765176774758	0.7676419304247526	0.9351448361019202	0.8900489600393758	0.02274153862979522	0.5386421914151134	0.9764907937285612	0.9127660674619876	0.8103613874709518	0.38422548836657666	0.9101952718512951	0.319901205364136	0.49879793426324415	0.7159877617891953	0.5524710910702948	0.16124625462613926	0.5694703542653735	0.8043579416318758	0.7836019818173531	0.9872732312468244	0.47800112116514787	0.8829661440617652	0.8245459942996923	0.6799256646781586	0.8750224688112543	0.9898250973038756	0.2605011803484719	1.0448384850128067	0.12803696936101905	0.646638766779793	0.12500679367836487	0.07075025132508139	0.4499472284651388	0.6325366205963512	0.389660835811668	0.5615073899951506	0.3418636420058919	0.2866588836750976	0.8746709928616744	0.03920828084039307	0.8492357981694068	0.3418348989498087	0.09612150271259112	0.4182041390736069	0.4773167788719931	0.5726591921317031	0.304109458481321	1.0454928203966194	0.7064819997403983	0.5428739313499483	0.643582623915616	0.6155873274300676	0.9226740726109065	0.8740910742017597	0.4535621282593148	0.9883109708741347	0.9310916280056404	0.7118594917044434	0.3709665800446693	0.4706860499877513	0.9192853443518175	0.3441430799365728	0.4984528640730994	0.8835600289845766	0.14174716092957007	0.12989452083687314	0.05085018531092278	0.509935223442323	0.7790325675881468	0.7030014313712419	0.015787562623773566	0.9496599623572765	0.29379909455196485	0.3937376498859618	0.21786090769646652	0.36764296301674126	0.7884749838740525	0.03576135631638311	0.3496875762760313	0.9608996749094769	0.9835337987938327	0.2601242297551415	0.6880705502905167	0.8648681354843083	0.14848620236435384	0.6723857533956892	0.14841637233720295	0.6212561729331115	0.1907614517144154	0.9385902777690913	0.4055474306650174	0.5883662075111771	0.2464008640741555	0.16200648024557995	0.9314641858015696	0.27085725330005317	0.39686962104270573	0.9491775511468066	0.5381559642282462	0.9616653242130461	0.5931423944240897	0.4311280757717978	0.048370785682064765	0.8613658272025526	0.7152398672153853	0.831963082324601	0.0933283739351567	0.041693396853026754	0.86739361538069	0.396589612394488	0.11489675409976352	0.04291625552332956	0.025330272313495272	0.1788660074411632	0.26376468784942464	0.07778089203158534	0.3407411914518341	0.33590239461437155	0.17859669566286973	0.600327876809105	0.35445693260117617	0.3090261985318927	0.44164912544747403	0.1434989175046042	0.5586390556961746	0.41304915400936104	0.16563356881881175	0.24398935410635358	0.5877458065891805	0.8648047341198102	0.693858782337278	0.6816775149123057	0.226802225509372	0.6954452579185173	0.16975580013438007	0.8191916264748422	0.8598468911084645	0.3371417966053838	0.7521811165846286	0.026899820147605613	0.34879377921083077	0.7911626251242879	0.783663792173536	0.33681361958569644	0.7528799869838807	0.8823495040681586	0.8576423829906226	0.3662070971885516	0.2513716796078831	0.8590586279167313	0.0753298742621471	0.1997969161709482	0.5191304358693064	0.9809199258549439	0.20216656313784753	0.9331908799344042	0.9021152054580291	0.9633057706748847	0.14346864154760341	0.8473383112849997	0.4777004935439819	0.7650360780118727	0.24905582987659414	0.7560091004554027	0.9782237871166123	0.21503285174861797	0.9114019233164146	0.035599272591165576	0.1772659697158484	0.1400422103209481	0.41081397978267675	0.3115207718100207	0.460939096882353	0.1057477830475041	0.33001185369121366	0.4114689790103103	0.03510001773628835
0.3267789082094167	0.823686528013654	0.5632942245093294	0.7874947726985607	0.18784273456468636	0.3513850832600035	0.3986538040328139	0.2626686390443408	0.6380120140364518	0.2321800002617732	0.2815899092337667	0.25709247595932894	0.6745125584375089	0.6643383337132471	0.10687666982955524	0.9267616232004378	0.9001186194840115	0.3604466235165493	0.2797256264548459	0.3866058193855708	0.5377484067761867	0.3267501312613722	0.8110940475156675	0.13269635510281907	0.9535011943481949	0.6272377718332356	0.2763326243693729	0.71402918591162	0.45079800066588205	0.0827934279648771	0.31195407344882076	0.6558082020817302	0.127959313120786	0.10521769151622207	0.32930215092073345	0.6406468513940744	0.17306445930484016	0.9600482804518392	0.3491552908337353	0.3088313376821955	0.1531497948205529	0.260759540749269	0.3204563422235228	0.42768772526408705	0.5320179634765523	0.1512858324976385	0.5151743062721376	0.9597075873316747	0.6886777774723163	0.38588195165368566	0.06511304252764183	0.19239518347258633	0.5858643913398193	0.5063112399291143	0.9512022036111148	0.5644220991937018	0.8411736584637869	0.7563745996813217	0.940694934179218	0.5727341671033875	0.22249931460134054	0.39332544486513843	0.8853571425115825	0.6507544527928251	0.27025015976752687	0.9912966775434418	0.2767309382362976	0.804185534815279	0.6542662794809057	0.14201429228353823	0.6464193362346335	0.9288965875641814	0.09235160586467583	0.9303984021582776	0.13578269891045225	0.7103270392320041	0.9222988087594818	0.11940025343589922	0.8846079338285625	0.4969243404752236	0.469517515656276	0.7816295197752751	0.20945555347302292	0.28838129515953115	0.5605288309392552	0.2588923100549473	0.19655816886522082	0.029001359081682998	0.42055272802961585	0.46309086870513394	0.5750024020402765	0.9764953596039316	0.42855067487218135	0.39370219049148847	0.7501099285016568	0.1972928397510213	0.572465374546178	0.6681870830891574	0.9901521368660038	0.5592304098264588	0.3369335337277052	0.15691725513042143	0.9842747988361906	0.2193686002889088	0.46013951809433884	0.8858127807745458	0.24615091178038184	0.24105241247468945	0.9305274376517803	0.534792258824891	0.034857134173167714	0.3034483388693202	0.964523090086941	0.29586704830329735	0.6642753167574602	0.6138916325417096	0.812464362236445	0.003933496597990471	0.38639429459512875	0.9965544008284631	0.09582842147413384	0.46783418598885584	0.5177930693415922	0.34842454274765544	0.9404822504879621	0.7872361225028849	0.6027962718978189	0.9178064984252308	0.4276688708757554	0.09100136340250553	0.7701875361257224	0.4964965391320114	0.5069628664773506	0.9774543612282883	0.3839410669219353	0.9149477092707418	0.4695518580482393	0.1970691792491791	0.37622806273706166	0.4427626021143052	0.5263742314152483	0.7306892784463906	0.9328210280312221	0.8218127770060781	0.9204399902563931	0.8192217021883119	0.8104891591199741	0.15122894313793844	0.42277052821606	1.0754886022436156	0.5360626796661885	0.7335249695204714	0.9882446636732439	0.40607598829732794	0.6470538648962597	1.0710681960174597	0.5605030618305298	0.43872411258094574	0.834085471543692	0.7907718291420346	0.28722729425413174	0.602554850662898	0.6364247367133414	0.6343722675233349	0.6673750151279129	0.4377399457575316	0.7545659907969922	0.40662410573617014	0.9758060517351204	0.5221520876643816	0.4233676105599987	0.5300931339941686	0.6663798095773652	0.7057235793692929	0.7034755689586757	0.6617221559464465	0.7558170089567836	0.3774732091606519	0.9259432892359094	1.0720750711253064	0.6739105487110384	0.40083854078820125	0.6241073406568256	1.0867434564183045	0.6492276980308769	0.5295981364227861	0.37769949894389876	0.6949217651650194	0.42179545644287086	0.41929082160990017	0.6556273090053323	0.893676119400424	0.35818645390236836	0.12550079245186074	0.3213975079907059	0.3357761812233009	0.7725177302801077	0.3034571776788686	0.7955136648810495	0.6799387254222882	0.15987169007363167	0.7635362846230817	0.13462795850802378	0.6579549270965683	1.0144911616384038	0.9428992909444464	0.47241283742642315	0.6852650555659087	0.6633499279649313	0.9473950949418302	0.7247127273216506	0.521703388893234	0.7831929930386426	0.6640295786868563	0.3749209995640691	0.3634356941267225	0.7375462419959132	0.5987459905643931	0.7603520383914677	0.561889858771234	0.879722877357965	0.07547403894404492	0.5092547365111577	0.5423745807113787	0.5959650842766293	0.2197832869708065	0.005039006017423797	0.6682027988866847	0.759348665148641	0.6540282916861925	0.9481623245680365	0.8908370209599236	0.6092733888968687	0.9811646720792669	0.8827434488305039	0.44687374113882194	0.26876603214565176	0.7639314829775453	0.7625393694791051	0.9200671231899346	0.9775413520638502	0.6153023370788079	0.907068050813248	0.659261045127227	0.8221534332614844	0.9787651016296628	0.7794602366817159	0.050167310723489233	0.3505238932515027	0.5673091934667077	0.19008755612118822	0.58002048466282	0.9949372700638908	0.39079486005598396	0.4232809476522471	0.7351090420839528	0.8539193506640649	0.4913334231061295	0.6689375118144624	1.0515035629640515	0.720081249452893	0.7751838225797444	0.2669174861389573	0.08044656859792043	0.39650558313641593	0.3370951725792255	0.7609676203167998	0.8628617955269404	0.22078237561583217	0.7802666025111539	0.8752200885432746	0.7570480111829937	0.6508510622699334	0.1268303960746075	0.1909357758318616	0.931518955996746	0.8631276203968733	0.6323186919192926	0.3147044399780786	0.2419540050660992	0.37307681147695826	0.3436457030710024	0.6918745298393357	0.764430957423922	0.6094904906986105	0.41981751145213875	0.6101796427239321	0.4602508089275598	0.3183902543577329	1.0563655546836292	0.6468738856599432	0.8729044166761952	0.5771497449787879	0.6651208604916898	0.2887756816003538	0.7093476844836052	0.473021960678755	0.8588173882139768	0.8889360358200398	0.4448464401345055	0.5565961256850054	0.23000214886694897	0.7735161464514358	0.8742458290207537	0.9560857508902636	0.1393527349571264	0.15161899701052206	0.7032681926253302	0.9138772692863169	0.5317877275746168	0.2735301116100908	0.7651612933607191	0.9925768568207282	0.5380104385776965	0.9486540931046451	0.36187385001554573	0.36675574485980283	0.9009568666562403	0.32017692434594025	0.40018333708742637	0.18861804609539912	0.32011673891209425	0.04284838380736378	0.27179485321066765	0.5443967173108261	0.16756432176495886	0.5990187897207756	0.38434970299079085	0.49347501683855677	0.5803615292844096	0.8812312608107593	0.23104236830917735	0.6639843521398323	0.09670343917685431	0.41153042438962495	0.602428546551674	0.8869217945033405	0.8941375036902953	0.9889205903488203	0.4786369503519716	0.8365106773381155	0.8075258423789328	0.5955553377498387	0.7947880298881532	0.9072368010774579	0.8300141659988955	0.6779732535593637	0.7349922305193164	0.7461950813375913	0.2569272925662778	0.6883163025247434	0.02055705316496015	0.765377533972947	0.3135143538487078	0.8613943200126986	0.22402771165490834	1.0400327972737506	0.39126629204966584	0.38595686355156805	0.5501900001866824	0.976730807259358	0.09130969775481057	0.31921683097856124	0.8064573449167829	0.6113627344467111	0.9408766725683732	0.6173804308808106	0.05415077372472088	0.35763545747090053	0.8088773497850156	0.9679021445872674	0.8158810996910703	0.8234548295345056	0.28394004241393234	0.06660201166242485	0.029612017225113307	0.8957190880761764	0.0862940227052702	0.7192820702492126	0.6395751178879876	0.8918406811446228	0.5291473127528856	0.7575261769080636	0.24767805250132727	0.34586878505897845	0.5019107291520971	0.5999074463116781	0.4159509238383595	0.46997464752322693	0.9323739495470302	0.782540454364407	0.5971428144766366	0.025378515386657696	0.5057417668994496	0.15459049254559998	0.047402396198094277	0.7993683085972805	0.13643516357293106	0.6571403938751906	0.7653568395718957	0.7277317786644647	0.14591632366583512	0.21838243760918175	0.1534465870424604	0.49256496317023735	0.9576699913184162	0.20603405388000506	0.8556320518755312	0.4223513884537269	1.0076601779324839	0.25293242865556415	0.47075264174326836	0.7766704912889917	0.9544704720061388	0.9267565628747627	0.1369339359748655	0.7454679974972181	0.45832495263881123	0.2525310391951757	0.21552958587006577	0.11200263152283607	0.406586792811206	0.3855542642807033	0.46485974665836527	0.08291738250099479	0.09790894275268514	0.7300308843360083	0.36181337480989756	0.5713516005772491	0.7921414841177152	0.9335120509273692	0.9991904939366659	0.08068295592451014	0.5131835295753897	0.1591236915451466	0.07430782018665327	0.3118587066534851	0.14586454915997832	0.6183613416414688	0.15151408433950073	0.34591815784340135	0.37440558101409444	1.0959417831231857	0.1873210529627032	0.49938240319056243	0.2206644424750103	0.4006046483490076	0.5297478395626006	0.6359705480758158	0.4405590273723956	0.9729664277573236	0.9749474857492822	0.5584799156355642	0.9991431116731316	0.5419994254105739	0.9479711029855941	0.7591354725803514	0.6902182752593383	0.7321688616914596	0.5285251020508099	0.29422501686911007	0.7620266003673937	0.7415957977671999	0.409586099231809	0.20976550690504195	0.1859413164511994	0.38476252938923194	0.7814815488082432	0.8894010967885417	0.9518540977902891	0.7188754070308846	0.7835536898466612	0.8066039219920269	0.45375217510721316	0.7224741769253002	0.14440732578354554	0.38096712377414577	0.4572467832159398	0.42707372972436697	0.8997804339597165	0.22023045115152728	0.7608553361897966	0.2009754443355075	0.9935047084107395	0.9834907492429102	0.30808685606280983	0.38027828281294046	0.31170345904497776	0.8743487297794693	1.0049037036863533	0.4285325236059455	0.3827905958326233	0.5071353035561262	0.19484991445435748	0.9865578647438326	0.31320357743602656	0.7997920178111586	0.7542649698633848	0.4452185093290454	0.08604399248206163	0.2933379024460303	0.8289992167178152	0.42601236095313066	0.5595842714573097	0.6047066609173042	0.03316597621462081	0.66221356383141	0.9661894838863357	0.10131967824637311	0.5641059274317769	0.7418787910320129	0.8208370154098796	0.46426987521177826	0.45362128197777174	0.538041591233175	0.059063489230573564	0.05488134691157609	0.08808496462187865	0.7578298337888273	0.22994505045663857	0.8372232522843286	0.751460326963911	0.9490716181065073	0.750936638978726	0.5421338978883464	0.8975782159295369	0.17452807626341657	0.5965219679521975	0.16724844451626153	0.7483895700055118	0.641770260627037	0.13085923343048023	0.42743985223640146	0.40314088783524105	0.5887621961038418	0.4952872913492272	0.043360177228968344	0.3918419166311894	0.6749171587020573	0.3235774286969029	0.6039088523102687	0.3241035644470223	0.5710920558185175	0.8882955757316788	0.8705076869095791	0.33945715889382355	0.9147941689241739	0.7192264994140538	0.9749336407036607	0.31807872268834475	0.6906993583760448	0.618527875998158	0.8498122663646788	0.46317286981849637	0.6018617240890722	0.9147677641374077	0.5423805828933469	0.32974983484419973	0.22090983753547477	0.5488618200997598	0.4947410947061237	0.4380998573918261	0.07430312290138541	0.7633190591065427	0.45253191616602484	0.08249842013157027	0.7339171793700853	0.8883328341414986	0.8160884824710163	0.7157621212112987	0.6555834147451058	0.2820947654968453	0.22781612353190372	0.9476962246560701	0.2078168350421971	0.9502231712741253	0.8272628587622898	0.5438764548641464	0.9927307973980176	0.7081066540804686	0.4389249089980005	0.10789923505861483	0.5682232390420444	0.347959445905047	0.5849651889268701	0.6126206173001768	0.31401236446454805	0.626353514186381	0.7293798719473946	0.6618198260342706	0.22642478381626674	0.5487287318333341	0.5963676558758612	0.7962527410034432	0.6511823190832667	0.9165071436393981	0.8326568347207065	0.9368007113453338	1.045103501374692	0.5929185595652134	0.9948082887602208	0.4455912784300742	0.30902531199953626	0.41289725995898885	0.3760881243246021	0.6822982467662092	0.74584291264867	0.37929497643465443	0.6623946623229077	0.03901976706117724	0.971146598774062	0.8951395375915283	0.35880643484115315	0.47370423661559147	0.839186413011162	0.9514209854744432	0.9726835403924615	0.8350432736484749	0.6826722131002463	0.7532655510475583	0.49582454539463194	0.6899916396213297	0.19735273876111664	0.9881810851633906	0.6139426238337513	1.0678706052745868	0.4817397889707227	0.9904300103958005	0.8181529423739545	0.721564540570663	0.9946152318538676	0.6265030555670429	0.7880372960133103	0.7476634491552554	0.7897718090391401	0.28169538896021035	0.6890040661958557	0.19743147060490052	0.18440824467823003	0.686570430430482	0.8040479126641911	0.9370297838473902	0.05190748688541469	0.007791389556539907	0.16696105000243033	0.8186627710742279	0.20938401011835772	0.9223461371188546	0.7504243740978213	0.9072745425417109	0.5332614288098935	0.4910516739867745	0.4931207045158446	0.451376564994111	0.945674132433188	1.0253773363930583	0.6346125451130701	0.5344772206385466	0.48941028071673925	1.0261706478345909	0.6332464971592348	0.6637675167168754	0.338462076866768	0.19315098280671583	0.44406543470035775	0.813190104554729	0.45413225382547706	0.9682213947000873	0.23366776164287073	0.7708721700099547	0.26230253433535	0.3687611514200513	0.9761788306542115	0.20611252897116128	0.7261439990398347	0.2770160377838231	0.8991576514170057	0.37034393913178965	0.5934695106644581	0.7120483438063306	0.9604146481727857	0.3562693142833059	0.46679848453273665	0.562273029687949	0.44255851994592144	0.2475368866833032	0.0027124695941532773	0.6230071287396747	0.4378445698670763	0.1425833355079461	0.033823971260930175	0.5366296076725228	0.42439769302326147	0.43853561131675134	0.1031436573818727	0.21494250424691752	0.8979760981813691	0.9266964847172786	0.1461533906618303	0.6408742654493755	0.1425682340526936	0.036221494917614394	0.03695953514312156	0.5819662657113245	0.12006895561904884	0.9865021689040145	0.6242153819750257	0.42939639734865176	0.3986047670203773	0.09164994726548592	0.7526742276966254	0.5585888015942674	0.7485435114301369	0.0231439604711422	0.6549165273174444	0.8864274892070296	0.14583417779011987	0.5275503884854043	0.5369565450178925	0.06271370498978557	0.3927713986357133	0.6234046540099979	0.5074003741291326	0.2651609853080261	0.8168886099930064	0.6814653660098001	0.5542206511210738	0.4446503614619155	0.7120114058414827	0.645022163102379	0.21202811334131066	0.6354188488724096	0.5236117298557181	0.1888539311167997	0.5852296633398035	0.9599245965128566	0.06267595114288771	0.612039958190437	0.5350948105230978	0.9988422389853938	0.4144886973721049	0.20007998949102757	0.9074113448738552	0.7256936463404922	0.1867338750819264	0.9589792530873288	0.008350997257825288	0.4454345895679839	0.28280781564959523	0.006567437014824873	0.27401112746545353	0.04453996856343878	0.503313730277588	0.10283851964850788	0.10902803331572786	0.18434980670637324	0.5938106743166833	0.4233860278701407	0.8528343695519549	0.34232793857983823	0.8272866987859305	0.8282217881488215	0.27160733961967	0.5564925342971738	0.6468988020613571	0.3857832913507224	0.08829432762613287	0.991633969796722	0.8629676878813928	0.9331671478843412	0.5987308350286419	0.24130301335911808	0.3377174475957999	0.3903596517804617	0.9869627335804102	0.5301733894808733	0.8104538240352613	0.20820768987287097	0.8121776952857921	0.3332512039727499	0.5760340286554015	0.15469650295488135	0.1168827892185248	0.26188249719141177
0.6431125429429904	0.7573440330257069	0.5859930259300953	0.5589973036040384	0.39646350868723745	0.9548098548742812	0.6661991874540893	0.4887303403738015	0.5160270093726224	0.2540244863442762	0.6853115053683684	0.05839796013627696	0.553498190587869	0.8106165052681837	0.974747334635484	0.6623339937154209	0.8021449526076685	0.19651653370785171	0.031729300064304966	0.9750922609689225	0.06738335471016632	0.5085553649382789	0.5102754465729733	0.878658165626252	0.3728396325787995	0.7329391530335655	0.8353645661730768	0.634161474169457	0.23947820749566695	0.3416825544241079	0.5466461985266963	0.815981810962747	0.2835661886089572	0.2775101950231892	0.18246518363397246	0.6365384847999226	0.9001860524375761	0.8670537698097001	0.2530352829186274	0.17532090795469768	0.030642188656100133	0.026657460906605257	0.5713204095472212	0.32273594029317076	0.30432909826754506	0.9541514486903726	0.7489047983352924	0.9264562330647476	0.5966616437149906	0.21903877676866534	0.36415504195536486	0.8792426264711252	0.04996265615299211	0.5650618139205729	0.7059151428902366	0.08735315788377052	0.02294820308414136	0.8683876922803718	0.2074607277267735	0.10284077458908991	0.09241278195101787	0.8353567000453228	0.49389186396570095	0.845228475398463	0.6074250645377673	0.06972598901377636	0.27151077052662276	0.3564194775331465	0.4169414291503165	0.05361998917357558	0.29972597032223136	0.4588651227166153	0.6564739272281211	0.18710366553347646	0.7429152682468076	0.30777369362248874	0.1968002452807529	0.7449994997158247	0.758280908394185	0.4371810031730764	0.55973320527941	0.08519813123529774	0.43283617902163496	0.5006421640538264	0.5536572405502252	0.07169704315753134	0.005778241056087707	0.30663359888276964	0.5184156334665632	0.6289431362206902	0.6285688524682022	0.7574966584184313	0.9915079730242176	0.9187360010408867	0.5652107158858389	0.050605003057782816	0.46357977765821856	0.15173920804820218	0.09712751414425758	0.04600380614607502	0.3659832917000654	0.15302595748000947	0.7193145349244594	0.2611821408994429	0.4642184666107241	0.7290425988031646	0.6966707496386584	0.3309734992648742	0.6176982390753532	0.5560696029154587	0.07544224003833977	0.6338240031259116	0.38960112972796923	0.25622223718746195	0.5212338231688276	0.7260879626957785	0.530052571089064	0.6413994099130619	0.12259661124761723	0.8041572903539211	0.9219611272607371	0.9093855090536849	0.4518247998887529	0.8436103995314649	0.8690810240874387	0.587395736766344	1.0383421247477291	0.9565159160364263	0.38514571370793793	0.3628486117621439	0.5929543525851024	0.4370203625469702	0.1785349280701708	0.49318725845412126	0.2779812690791622	0.22458647398695197	0.7607901842239532	0.23625842951639664	0.23542127259897594	0.3400422569596592	0.8504480235435602	0.5417169821556859	0.5504436920551944	0.4924483253175186	0.2700457796170943	0.8540645031213051	0.678472523493729	0.20388320419976635	0.5252326968503269	0.9175009099318059	0.6643483924388688	0.5160010114544804	0.9004729366376503	1.0020929505989142	0.9554673990225571	0.8609416278587483	0.8065120792495943	0.326829307308671	0.9268030154540121	0.8627784640046967	0.8435025763470688	0.06562186026819627	0.6948504355754827	0.14411638566312834	0.16139641930333282	0.7073976423300095	0.780830192696158	0.04729908016916695	0.473250317127459	0.05040801345741319	0.24608542390280164	0.24238827555875564	0.6810888765510199	0.18923093726598383	0.5999974671706187	0.6306710263928338	0.8989235569599723	0.9041833567221055	0.48190064224661855	0.3739865597357693	0.5861478254245424	0.9418825673272971	0.5674402223816597	0.8500793136186537	0.32186960077347704	0.5202308164431608	0.5952795094104761	0.14061661444170387	0.8185987894277916	0.4002430408082719	0.0820505092338828	0.7250990650831974	0.4971540515510574	0.7058022627466988	0.39459256044985325	0.7459135195318489	0.37873823147793906	0.549714341224365	0.6348680313781023	0.42416566525689936	0.2954678104931664	0.6053170906599594	0.7159617180015819	0.3471253950791465	0.3415938826558722	0.6515646931481782	0.662160454111428	0.742695976582431	0.7915011307173986	0.9602141187342071	0.6972376319105001	0.5409940360524554	0.4501250397747662	0.4494739568020411	0.6788167394726776	0.569113203526692	0.9985448421146433	0.07981524609686708	0.5524928826003941	0.360903451522134	0.7571393104327062	0.5826274176396494	0.7306799520892159	0.8722965076008764	0.8957965415446196	0.9595322943575821	0.17985228504367468	0.19167224470816768	0.9771882367749243	0.7656600164642173	0.6945414388838009	0.7213440042201239	0.9374139177573677	0.9498291955293995	0.7168421298817197	0.7870780958137814	0.2799253292382767	0.43529344313703666	0.2826327458500891	0.38446660749487355	0.6892231769273938	0.7597549395250291	0.6184347429027887	0.6170303848484137	0.163281583681218	0.18523852044936484	0.3105150227934219	0.9762898221205153	0.37056758230475084	0.7187920325924305	0.9397196895682781	0.0844398793143748	0.7374083875509578	0.5818244682719343	0.26554802778857356	0.5517472585986558	0.8917892760085508	0.3071627787338951	0.8187762288192646	0.23127147720314134	0.7857991949160197	0.5803255687629407	0.7616430766790467	0.7218822653882172	0.9388580029655653	0.5599123280263822	1.025204441434003	0.27216559679231744	0.15557865918515784	0.9146836097870459	0.5097099066537805	0.4724181349994712	0.6795681867260649	0.6106170659469885	0.6704304743680403	0.44065525029648545	0.8223864854060842	0.7580173779974256	0.6391328184567483	0.5762258268952584	0.3149969916537557	0.6571419551567559	0.08824233183508667	0.5703601715059672	0.9223170029176605	0.4162310692198322	0.6227342575008095	0.2481812417540969	0.3791803295350637	0.4608624885136537	0.36965308731389557	0.4371447581327703	0.5504472448284774	0.5898516045230646	0.9534629920998934	0.9620305754546583	0.9899466142316695	0.4525681010108587	0.6299117486179289	0.3170723266075206	0.36115850190429566	0.9680992545186593	0.5169313828872839	0.09611545448137926	0.9803780040406849	0.12439262717449606	0.37441819464395654	0.5321452181581107	0.8632776322811672	0.1623548946718325	0.9052299605365562	0.45483361088705987	0.365123083747946	0.13195335495427274	0.9317407132591038	0.8077239738015193	1.0126207306984754	0.5659886080870681	0.9728410028609148	0.38811224726441773	0.6658600289643836	0.5618613139115376	0.18996281444310692	0.5124307117911434	0.528836769203304	0.499788579626395	0.7405411719804057	0.3706384380590747	0.9979778652024344	0.44033822685598956	1.002275412787637	0.78885150529386	0.1341662263626977	0.8901572110750183	0.3475716750477509	0.5778214895117301	0.5132541395970541	0.45366407070422654	0.8504714615447935	0.18572214909713836	0.9346189811177872	0.25570138111370055	0.10404424657438327	0.9298309659485855	1.0155840090493153	0.5166284124583471	0.0018041985952401696	0.06678797793519753	0.5375931273902537	0.9063573214237433	0.6473391325983651	0.3843328531989806	0.11555154108510735	0.7529371011944476	0.28262907422295963	0.2963505948314963	0.5525802688840507	0.27152741563181504	0.4333948043341756	0.9526558279500383	0.9546101232395721	0.2107240275722908	0.41697161916947045	0.23533676677116122	0.4391986638204345	0.8051881659710287	0.45999751450274773	0.8581402021099351	0.2550815848265826	0.8631248085897072	0.11071934843907875	0.3470345038539265	0.4414862357278043	0.991636719370306	0.8209498239968336	0.04107224006433352	0.9842321747099716	0.5129879416645725	0.8458803918122162	0.8613305025915281	0.021705614880391577	0.37663961210556374	0.8076283436878859	0.864174552973344	0.9214378497015292	0.6327830803541643	1.0093742635131542	0.15600907950633003	0.3011158280219244	0.3521924935316163	0.3359496379711534	0.20290206066649663	0.46069740921828806	0.39606337749673215	0.8797225797690958	0.6972636546200016	0.1017419469506794	0.9398650255653235	0.8912412892717515	0.5517174011666734	0.29315789253416336	0.15763128238988827	0.3382748568355849	0.05232123287707269	0.20671079545099413	0.45847736133190364	0.05026322009178974	0.6615048134716974	0.6146400995808762	0.20117236630404556	0.571211542114184	0.30203858058634325	0.6299540219393512	0.4786686320288882	1.0728569724708479	0.2298324406873457	0.20947615279506068	0.1919020792949834	0.3220603490257988	0.9271491324254707	0.7638740790697471	0.45415517459676225	0.0743128310968929	0.22223141123462187	0.04177135571039281	0.9400814390449083	0.38331172580010037	0.7258651992610881	0.5501090963663048	0.14081355927756292	0.8674786424045978	0.45301998816595046	0.667054921846835	0.2051329871888613	0.8993172032355754	0.9089176604075242	0.1744455778270152	0.8531106770808617	0.577411622942136	0.5767586399006278	0.3203192885695399	1.0185001232058806	0.5545019371593003	0.4085493290510185	0.5369262257562067	0.6638291749314881	0.8390431482668808	0.824530749381933	0.07976310187939362	0.5334477098807814	0.4090587670588587	0.2663681706069482	0.20107961040566769	0.2945513249500963	0.6680844210032484	1.0117122129143592	0.625836038857754	0.9743476881834564	0.6294722646384151	0.4464380362718629	0.2566603427235051	0.2908987845583286	0.28488121161656144	0.7673310882869926	0.9580589502234004	0.7150534471445492	0.7625215351701573	0.4079208853194356	0.5067770014980358	0.4040846960559783	0.3298524008213983	0.5571669442926082	0.9111007494629265	0.5963862746045436	0.1534855009378192	0.5993227893177374	0.9881308422523002	0.051754263922024535	0.8814048515451643	0.5086685752402127	0.7445282743559286	0.7787581632744687	0.8013350864505042	0.8873766799763806	0.46950774840973225	0.8716090541899175	0.19293627184513296	0.46197034516225005	0.1971522970453031	0.713691420863881	0.9669587185980104	0.9089808318625952	0.5395300522009526	0.8493632098316279	0.939402448620746	0.598351987885423	0.4850961250974496	0.6883737663662	0.9777882577224765	0.19019812625360388	0.2930456113422204	0.9150200065792381	0.457402314744191	0.8830938918379383	0.5913349167943946	0.9187643361741357	0.7640621561149488	0.18321253529385628	0.23385982507548475	0.9974121186036184	0.817109871540539	0.7780947902071635	1.1146507149612213	0.6938545744069856	0.13876791684279494	0.34005731267891925	0.11556262838258691	0.3229061973330152	0.3906581702761737	0.9053981031360429	0.43879891933762344	0.7546327240361257	0.41208748136111695	0.4123216634991613	0.6459204739994558	0.46953943806979537	0.577722503143457	0.3152579723658113	0.6173054906626567	0.9317015120262896	0.31944147806338774	0.5126240562554685	0.20066945059176544	0.6112606230761994	0.5789554009836957	0.6821965336569075	0.003878437576917748	0.47348068958009537	0.4018272281810223	0.7594913028159067	0.4151166350501079	0.8593767303185684	0.4296602613079211	0.9703066752120215	0.33654760595727695	0.3309489329718417	1.0244965963556534	0.9139447480731264	0.19648432720317358	0.9299206721791407	0.2261948463678762	0.4818519816749181	1.0119385882706546	0.3141885537353599	0.9829240287261459	0.5324711627284968	0.09971709032649911	0.8630562804111286	0.2201281908286744	0.13870397171810067	0.9705511303649675	0.19845708451473	0.9115934947751154	0.6790999817410956	0.27082697152015833	0.5811262442629507	0.3011825962580086	0.7966876816748684	0.8997914860659149	0.44130859623868485	0.25350395335287285	0.2791383213380142	0.27783049209297067	0.21013429637096925	0.12056292698420044	0.3763079503631738	0.8984265048371316	0.23090849355743426	0.7609194707458564	0.3081463732481326	0.46007895688322425	0.4092983651221583	0.6161914272861291	0.8012547927252152	0.3690882761539539	0.28934118217976856	0.36645321072341475	0.2860177492514472	0.9558282555456095	0.6860155584873432	0.6115930624850455	0.0024872266796605036	0.020958178400882654	0.6462260643127233	0.42946388803102553	0.4843022433926987	0.4499048752546385	0.30545431911183396	0.40911530950594843	0.9346911820419259	0.9782210860046353	0.8471035976632026	0.7196204835504262	0.5374656667057044	0.7015200336996804	0.6363213596614068	0.36038583748976816	0.4146593734612653	0.5619265111244536	0.7457714291291823	0.3778022071962054	0.1377356378363942	0.9491963751318814	0.033116762424249324	0.9732413093905921	0.418897582516251	0.771006042549923	0.401954469430267	0.10800622948192562	0.032824038761915975	0.1798770813832744	0.6579418357814734	0.5336500304698144	0.47644085340270387	0.7583951490867866	1.0130256116356402	0.5279146254706051	0.9156892551316639	0.4717424079777577	0.7322462146389928	0.3797535540773514	0.934297288128846	0.6202174770724166	0.2932965488294372	0.3877876561217305	0.5803788203588317	0.9261370399585357	0.6526643698816365	0.8142323294229722	0.9878357061374469	0.8672095622847158	0.08815393710326647	0.13805090519518826	0.9598520885646336	0.9103673219753634	0.006313115602743835	0.6197747899503704	0.2846360775773078	0.9660808191020261	0.809480342218935	0.5365388235624319	0.8726573420143563	0.8208158131860199	0.3662638323372268	0.6172677168902765	0.46254934474348736	0.6841151589151576	0.5258033918830125	0.803462443504567	0.5863872674336182	0.8811920552696344	0.6428600034342871	0.1539572816235452	0.9606004249759235	0.5623343996887851	0.34504467387322624	0.421702166652576	0.16651964482869674	0.03478457595027451	0.8580188099740595	0.4926853672319579	0.6199705016398029	0.7063335136949324	0.5734988100192946	0.5485973697483905	0.22690754157717707	0.6633604310743343	0.7462808892604244	0.7097390454534472	0.892020827704047	0.8535572864323138	0.7355884093696514	0.6740061050179963	0.5831532452823313	0.3028156197605275	0.6140895449666438	0.36837754603214	0.1188007037402612	0.6548762189877751	0.35049602366717214	0.38090624989454613	0.6618031952268536	0.7443075570628911	0.7371313143066729	0.9938493028999364	0.16752129534714366	0.06494792866270249	0.7119028183483249	0.3956545610861836	0.615982798078108	0.9291759810128813	0.6461875229825501	0.09661644266447689	0.2973020780508818	0.6411331672922385	0.7423497356782821	0.7733617271158152	0.9576486474962153	0.7645809275308967	0.16055982878352548	0.1588385614322697	0.7437150267632098	0.8265693652575603	0.7385622228811681	0.11134760641852604	0.4079126404940224	0.6812381150158905	0.8234217467445076	0.3766540868388727	0.47690115013541634	0.3949929258733932	0.6806978553860701	0.8141137800727732	0.7315292334080918	0.6221078435630834	0.5532427241925335	0.1603915427562802	0.0002153092661185685	0.14918612336780956	0.26134947166481837	0.2388787867718838	0.227799029703191	0.9615064741789077	0.6607719791854376	0.34998033673829876	0.5348461064715755	0.6454355177540565	0.34193432010188307	0.9994806354958623	0.7333257496074014	0.12016957538190831	0.2418252884811123	0.36253453449570594	0.568188279342608	0.6288499673870378	0.8320919381656952	0.45094620518539474	0.2648246647882332	0.7216086933772015	0.3652448596375586	0.6267919923427242	0.2221292753341566	0.12348746189067417	0.1352677316995018	0.16887442223025717	0.3465348668046868	0.6054049302060542	0.6930564083253321	0.39606838810221323	0.23698440127628018	0.36736994747770857	0.9405724971385904	0.7257825208223365	0.0823418535140652	0.6218306038359539	0.10763327939012601	0.6572238087402499	0.9076127998079044	0.9328061822530193	0.7698071669111358	0.25294181668945903	0.04387045462164674	0.5233915389644935	0.7376558907321354	0.11759568664786957	0.08990238784987303	0.07281776278788454	0.3434114843214128	0.06661351043437069	0.27117663569175354	0.15563624999972647	0.2338058567896042	0.11223884084633784	0.8117453751664266
0.917875689056802	0.117339193403176	0.31624431913563644	0.9550743182741742	0.13952393298599963	0.4601253577870611	0.8804781775840556	0.39913591743847665	0.03984775709293065	0.8983680144999279	0.33240537945443893	0.7552053804290436	0.7945369995646544	0.37333466389104464	0.0626170662581369	0.938295676008008	0.6499006710806517	0.32740340059576734	0.8981544895718245	0.3995629184053281	0.2606987690368896	0.8312989532589538	0.038441391174464434	0.5623046581164551	0.4501852441948633	0.4299633635270632	0.7174399430090925	0.8849911285023685	0.013535490918304194	0.597335841713338	0.7906089503643127	0.42380914434487393	0.6607846147195768	0.8879514287404061	0.8411139865587818	0.8664757012450951	0.06502798505483376	0.03531206336229675	0.020285541443640698	0.22085138386418357	0.6586999572308239	0.8388787711243972	0.948927628079808	0.5438641749184818	0.39442519892878947	0.3720276995744294	0.741354355159137	0.46527936757602883	0.2899380782305845	0.25004487960971433	0.7206147354944574	0.9546477952533301	0.11055585636518661	0.6549811496319166	0.7282059169683167	0.45958260707236687	0.15199254749210644	0.39338182194598004	0.5462898376765978	0.09996706230715058	0.7885031328030494	0.4857554197972881	0.9471127313055195	0.7382391957479276	0.6601152400559409	0.8942424896562597	0.30730880967571306	0.18405548418752204	0.3411768542289727	0.49853504248259217	0.6900757919633613	0.054822248537548135	0.9169621852061477	0.290454766045425	0.3167120662837234	0.23141019939252927	0.32993445843644453	0.0796867593313596	0.9159275593358974	0.043543021453165465	0.4441711919809067	0.8971267652515293	0.7883504260013946	0.982957119513196	0.3307950268174624	0.806374138033568	0.4866442535288753	0.6730876153719535	0.7105826235249775	0.5417947681712765	0.6209893568273094	0.7264630204284757	0.4494428596639638	0.05122846491214195	0.6492079228619542	0.9093555724501078	0.49524980647855943	0.7086619041863068	0.7295144624895046	0.5191087825629898	0.7605909026266796	0.21805839719664022	0.03190673492749074	0.2750398000623452	0.7347910286375693	0.12178422826214275	0.9809427966330694	0.9240822834061584	0.25734436180174036	0.5432940398847206	0.2166136006759115	0.532763677851773	0.7282492567266051	0.2656579728086992	0.043554877060080543	0.5642735443077532	0.7295158562743927	0.2035067915958203	0.13973868194424077	0.33350698921529076	0.7540225855939972	0.21867069068134504	0.8306575798904726	0.7680181140991713	0.27888811159330257	0.771274702332517	0.5024808281241028	0.2458364756002379	0.47243552893714175	0.644830166669565	0.308933804601496	0.15476520796709015	0.3167382905062677	0.3064235669410442	0.476375510080127	0.011357722954087213	0.9983235167880361	0.7961447673475498	0.22719043931506455	0.5939798890516972	0.7569394206355619	0.44983570906497994	0.2924108058182173	0.726215071569016	0.22635620456327665	0.6900496767263441	0.5356286687331054	0.4862749929686023	0.07481516712336789	0.7289633686398422	0.971269980303582	0.8855801098740659	0.7111602165388828	1.034901474697968	0.9804304821751914	0.7570097524503229	0.3953918741639844	0.7008073061202169	0.7224352837626535	0.8169812208608146	0.2576939655991537	0.0911516899102851	0.9592040800935703	0.16071642379179074	0.010934456858015196	0.4357221636506532	0.7049842582404502	0.30403742795462063	0.8643131119524136	0.19737441341636963	0.5883814835318625	0.7554895285712803	0.2989350312792909	0.6191801750098351	0.948451307061038	0.8549679052696061	0.3595253004246937	0.5374614049793361	0.4512119417427058	0.4298548468733619	0.7369474260586502	0.7173534471031288	0.5605405714186702	0.5711427873789287	0.7071246067425858	0.9479995531276815	0.8463601710072274	0.8931469900201279	0.26901460843781366	0.7653659558738427	0.9971435898291755	0.3839537281632208	0.5559752044566378	0.08421715946660824	0.4121009845795731	0.5881667240052342	0.5900728619931591	0.41051073149118267	0.530737166998994	0.6327258091634298	0.0031780121248033977	0.48442211938044333	0.024967216750777066	0.9875909842298126	0.4088700558372522	0.7636943842510483	0.537884183654543	0.8451151873943744	0.8814187233903015	0.7934138746939706	0.5318889094682231	1.0773258603746956	0.9068127080032946	0.4264506233636344	0.37978516388186034	0.8471503551746057	0.9915472246072105	0.4066157076392902	0.277909374859734	0.204283599383985	0.06278956137817304	0.46074658270145674	0.1033489783253656	0.8233154822855072	0.9646682205165726	0.7644500977318032	0.3794205665991317	0.1702867350472702	0.6332872675299716	0.2093137184590801	0.6756668299417332	0.44103602066888564	0.8564212531559298	0.6002386484759374	0.36165055800717993	0.13035521427649374	0.8020846956938933	0.7371774377088034	0.5054489399424087	0.1880589933003763	0.8414073232739071	0.403820566989359	0.3444919091998183	0.4936007867983223	0.9418511625826667	0.10930787728532176	0.1955699594664705	0.6352362056445178	0.02196212726332203	0.32998915228914394	0.9455116209484252	0.9580208231499069	0.7573996836922512	0.8566765770145671	0.5529570932540538	0.14584235236601062	0.6518665375969229	0.5486492861210617	0.7823036339781048	0.850229279845491	0.5976166278607755	0.4329886455857056	0.6922527575107555	0.9265390307600008	0.26368708598851986	0.30611319123212005	0.3415076060562907	0.2828494000761791	0.7494907130958499	0.9860946607035883	0.26305124353176584	0.9953976846486392	0.6236768889512698	0.08659174416526887	0.08225909568481693	0.07070697348263821	0.23957069851803314	0.7851883580445749	0.04050282304012787	0.9179044696158695	0.17321823103377865	0.027281650030442584	0.9930756879690936	0.6613570856013198	0.3318226048523134	0.9615733953808984	0.06894943436149625	0.2916042371552563	0.7640037169555626	0.6323612116181022	0.852650461764844	0.34276324335349206	0.48503865635843924	0.3537088131917309	0.37944121935882974	0.6993882089973094	0.4890980191006109	0.8937568671301633	0.9787052147344626	0.6219945950075401	0.6144927711004086	0.7426767500384321	0.6460100128182339	0.7539753502608685	0.2954146350269069	0.4714187429990596	0.8188372363934083	0.07280961867615166	0.6137181587314532	0.195957078747939	0.7196621893592345	0.6748649530814543	0.5611781226484721	0.12130057414258633	0.3550658984111925	0.8382990836989693	0.41992260713580437	0.5834547124118977	0.7270306687966633	0.43233700854560686	0.7632907883645815	0.6619476096957021	0.776548392861485	0.7289502196228055	0.023604093365898304	0.7616614132247244	0.6760846892488382	0.4416485487492782	0.3280824679541654	0.7358812155785397	0.11688799164541276	0.5697979308306522	0.2512449406477123	0.23355804816831394	0.31702055452021216	0.6501269896923738	0.5738926870247629	0.7721550908315676	0.7160044139225111	0.2777898436719045	0.005761864012657547	0.3306071945653586	0.8335980824115475	1.0662222686322675	0.9939791849067624	0.2539824102453261	0.1409604555773173	0.18785416969048385	0.059975588727762874	0.09058623279829335	0.6712430781620253	0.29168402524956005	0.790367240037407	0.3005614825022665	0.2845389772286226	0.8005492510990769	0.7058684130966262	0.9496421188251511	0.659627095863807	0.7567595643886147	0.9665594136101245	0.18884402278992807	0.1846715084296472	0.6622803732223591	0.6796587353618255	0.6014262947933947	0.7702924472878343	0.6594768622488771	0.711883269040349	0.39372389002395825	0.7689396997468185	0.8959524631105787	0.36970370613594833	0.3322184936193214	0.16119457031201778	0.6544034989479878	0.7495167642353996	0.633249489499708	0.31487635926225355	0.9411086398017238	0.8538203215203691	0.4330105595184651	0.2636606961302627	0.9307895286801128	0.26327904957441284	0.418510888870893	1.0381152591718947	0.9511213563800226	0.7086180409930888	0.4172880528187449	0.8554971736301874	0.22277869133052175	0.33849390934620804	0.44204045538822956	0.48523924188296197	0.35207739196420695	0.33799979816706816	0.8216394092272612	0.9865796649663748	0.34847830558778314	0.29050835862195973	0.3791747005326196	0.4588946959323116	0.6760427850198806	0.5104372441919811	0.7935669558562749	0.028762225298563315	0.47098931868322147	0.4549494110093004	0.7278021566283808	0.9022045820276657	0.6741449342500054	0.3535627173794162	1.0680461085250934	0.4197486066141163	0.4102797958550452	0.9344109016420231	0.408580860664421	0.6455633979297898	0.9197651482764182	0.6502495369964308	0.3090183021825704	0.7712983323949597	0.6038571004047367	0.19647546090972756	0.26700888956780877	0.5794207219324785	0.8292685846502288	0.32682409869597795	0.48989376127629064	0.7725953504857608	0.25358065500065163	0.29734901073491415	0.5605618588642532	0.8236900317296859	0.8051053987425979	0.8139311049806648	0.7591839732392229	0.3095862571479859	0.5900284082441088	0.7352275475936865	0.41880602245054344	0.9560640891827905	0.609506982378224	0.5053158836571767	0.7148533016668979	0.6190812606715691	0.2608662796278204	0.9299678475834471	0.2906743738061014	0.611022502912564	0.8564352257776228	0.5179988471239706	0.2227466693849104	0.5697771595835193	0.28461562013018876	1.0823172046487037	0.6134967779826668	0.77250242713697	0.9630284601798065	0.8564488988438747	0.8458669589891064	0.46100803174539406	0.6963046086639942	0.48436818656961705	0.8987287976721982	0.6601506628451705	0.10808066977538293	0.9782088984797243	0.41463303678085783	0.4762808030176192	0.5131238320259797	0.3892601951072845	0.6483279178751571	0.17589172987204782	0.8316670908681442	0.8369409098476116	0.7667530665109085	0.8498174709518186	0.6654491674149651	0.4250389955176048	0.6204918729234713	0.16913550802540894	0.6070195153956351	0.5504906879393904	0.9992219039677199	0.5697077226155605	1.031388419074192	0.17172904980674925	0.4275006977165157	0.37655815778078877	0.566646556722313	0.9033173812439024	0.6960484721710829	0.3496150799817317	0.5401601125057943	0.44523683218530236	0.4826058299832243	0.368467497653447	0.10793484474451387	0.46300754626534923	0.6392455820544422	0.27022831770944555	0.26924176765945573	0.16458940213675222	0.15771609176753465	0.7756737808184472	0.8669870477449346	0.9973081291725062	0.8042879287868602	0.9925030984290124	0.9776555879992926	0.824736190154388	1.0360444626917649	0.8306321911702593	0.6962867207614465	0.37597299320440103	0.3062010532481029	0.8701560821117376	0.47727273627739863	0.6971079290980896	0.7627284048188477	0.4857414903130661	0.7437119925125746	0.7436711179604182	0.8641202282449167	0.701001699348483	0.11664439442805663	0.19246219636584017	0.21006792942585328	0.03060189505055022	0.6921272559060954	0.9594840849287529	0.18534620914428224	0.305687695503048	0.02600193077967372	0.3324812252517343	0.6574665225707579	0.37163997410592486	1.0072494030645749	0.9127796641149051	0.4864726734116456	0.42775281354262207	0.18510941600838304	0.7716291688886815	0.5723707947497666	0.18075028737152082	0.9622700781408288	0.17187117960765802	0.15242661798740217	0.9272007255324844	0.6366143136499329	0.8052972237459302	0.4237105302354196	0.8243368798105469	0.2934352061701201	0.5244483464740718	0.42987943132816997	0.6549886361297365	0.9454029870858964	0.05298839600780236	0.5589082344615799	0.2920776745210748	0.9014877488353481	0.4192314614499062	0.9928525206134114	0.1187530278242279	0.543410559281586	0.3818075805886765	0.7665585635159504	0.6982757181697172	0.6202337692174339	0.7258234363252091	0.47073346720343473	0.5343814436481318	0.2618132040691883	1.004190836226387	0.8929077004302383	0.2516924267896154	0.8681203972773562	0.27719094038994563	0.6421692045373865	0.235928514360928	0.13728072607259922	0.22259402335833678	0.3720499856318067	0.2743824734057235	0.13966753608253757	0.08394097421352953	0.25301688464606265	0.9173190788965728	0.5375843808080166	0.8531903991600642	0.6118820334913421	0.9040661182228942	0.9985809440086028	1.0488870125284144	0.32022753730456494	0.8904803079896165	0.36863795165849983	0.4805708170740369	0.5387757539745017	0.6557900791639233	0.9667379191760287	0.9383531666732873	0.9204062455420794	0.7925720139888923	0.830796083965733	0.6008667461444015	0.08755760137233078	0.6875369191272049	0.6164907255706327	0.04677324485211132	0.18944162268925413	0.11038079806196255	0.6514470854123424	0.27409527184004623	0.874601451256724	0.5514298421351332	0.7443671179569593	0.5936290386975752	0.9885549673958821	0.4940217664746574	0.4064442304569451	0.7313294739365581	0.7915470692563494	1.0616689868807654	0.7338535174219354	0.5424533027129353	0.39660411582402416	0.7981132332670806	0.8014629678144861	0.3618139962360098	0.2568488750054247	0.869743178478746	0.14607598531038032	0.8070678113634097	0.6136411161431474	0.1766313094014107	0.7570689675935814	0.6837763178617368	0.39532980187500344	0.8050844808184207	0.9105449533864558	0.48712272938642354	0.0797339009710264	0.34793503574316653	0.38005406061101765	0.9342647888385829	0.03660804771698911	0.2446469757626858	0.08751210506156593	0.2783983098623521	1.0219494365042718	0.5357647276497678	0.4870813932474235	0.7357253612345817	0.30571252558427553	0.7551455028104642	0.8759602164625586	0.5487916092818212	0.9202069287876867	0.15137025423604003	0.9026107325774069	0.17067267733436742	0.8380462234444273	0.15637732284674632	0.8924611226823823	0.30913422652646516	0.24491015009257444	0.7057970649208525	0.5246241176917025	0.4522451173118961	0.6034952049333117	0.18624605076674539	0.7440645694926732	0.13138295408165834	0.7705883415426824	0.567306619688153	0.6256087447564497	0.45802098024855653	0.22483888441712482	0.9469445416260152	0.4763453855105755	0.03338901569639696	0.031118760797086198	0.6346618364556854	0.9736590791349166	0.3129249050402365	0.800167515715884	0.3683449955485424	0.1070170212299626	0.06428055350868167	0.060465202728232414	0.35516378764578194	0.0023533587159044744	0.3795678652641937	0.4348370530036909	0.18602614956205255	0.16142863253607587	0.7463929190341126	0.8666611657055392	0.36703722048226506	0.6502357617820893	0.7728918438005052	0.3682263942575984	0.06016284832297902	0.2092885467497665	0.844576523538155	0.74078870775841	0.6815504739630598	0.5542846609596921	0.1907175180126971	0.7373091637170635	0.6416303585706534	0.1528656984863105	0.6877819810404519	0.03178866154373983	0.031734134674621606	0.5751599537258314	0.6227716526303426	0.6367198475093653	0.32728668476160305	0.8424519866485484	0.4986535219410939	0.8497076961640282	0.6245799561339893	0.413192326812752	0.26340333039324704	0.7729127865936944	0.6740685902602812	0.8817088586335204	0.9372129203181425	0.09504502093700806	0.6140726792127201	0.5575708532306634	0.3314970831905574	0.9736630391894907	0.19402450924983317	0.13123104773956906	0.7548289391440478	0.1790299146513914	0.13761100353993805	0.9041648137042801	0.47878423099553014	0.6752074986563488	0.9790089383428583	0.4551857107095578	0.9175697108399548	0.4784928571626583	0.6776611641152366	0.19512096061704443	0.2505329621640773	0.7632313999446128	0.14400129625792224	0.8956679615511686	0.7497688769878976	0.4935982087485762	0.19941520730472728	0.4196329215606731	0.5293077820243783	0.3651976591938174	0.910467471952786	0.03145693443839803	0.4390608983011588	0.761515840133369	0.1105603221696132	0.7272120258653979	0.4169835745011823	0.9829436144468654	0.19701271812655996	0.07049964553693189	0.44487872340334156	0.7852530320494274	0.12315663970840551	0.3152601020982856	0.10591072330760021	0.15571575900724743	0.1539213761199788	0.869086951720636	0.36466354836003734	0.9563305577657532	0.4601624223008739	0.6368357534901135
