0.4395083924202844	0.9558229168344837	0.7030991171223607	0.8334357847388694	0.5421362109075303	0.048305855765489625	0.0424310185843737	0.41906773686543997	0.12978337842130228	0.23580372242780145	0.9825170794792584	0.46168909029600136	0.49319756187870856	0.6251954039876952	0.4173505977256845	0.5374860366386635	0.5032683846318118	0.5385993463287274	0.43111395254060714	0.39550094016430926	0.4606485917938147	0.9891997048704153	0.06345125375446226	0.216401738115244	0.9207480428957735	0.745507193599436	0.23065036967600172	0.9333465334981688	0.02082549900610753	0.6728580947029184	0.2632379988079133	0.8273431175058932	0.8468311874010508	0.06534631330902407	0.7085403550824514	0.6375905399740737	0.776474810999832	0.9550377386260187	0.05731080465085403	0.21871026117939163	0.008378736734452441	0.29556810425449576	0.2018904456050239	0.42218787299372595	0.5791153468148608	0.873482068331526	0.306603083414137	0.5208631784575719	0.22696908177770625	0.2837479153603074	0.7191069433954186	0.5973544499223657	0.2091916741699863	0.8940693005338818	0.8566801650721361	0.6246638347322634	0.7072532928568964	0.09788239594886317	0.9703800270116529	0.39362226754109764	0.4598322622965749	0.5280935169272047	0.4831765300148715	0.24576657126563706	0.9995432436222607	0.4432041373505675	0.4444049663252959	0.00016307640001334	0.16114478869904403	0.8896928858599432	0.0006047965361398733	0.8189527810995314	0.44430673317586844	0.9213510984716001	0.6953536980058618	0.4958550783493998	0.2440100235262327	0.04305292042642661	0.7602606167740846	0.6568278296653756	0.6987364202250658	0.23977964880932534	0.7410996552566252	0.8132356188243381	0.849652593337706	0.9413181596742128	0.6472356169913857	0.512215710418082	0.9499911488922358	0.8123437801606213	0.4045355874165063	0.7597759699640283	0.70851722589185	0.4867439501244002	0.9296691166825756	0.945259710632319	0.5893473988371534	0.1653877972553045	0.7912800808290005	0.20405664000675827	0.9327966822565911	0.7445930666200543	0.5263674635694777	0.42675362507244075	0.561604096714172	0.6688525216680503	0.12299709497346611	0.5014501256167507	0.8167271133673494	0.6357723228321037	0.814129903378249	0.9694906817648786	0.08354445462129256	0.9474119655186183	0.2695110807747295	0.4096244666534683	0.3770411969382821	0.9893968872889184	0.876353064648752	0.6647584327760135	0.9550445200262659	0.27059260134565344	0.2312470812969316	0.9881705130540108	0.7655021871578068	0.5919980084519739	0.4084825907864823	0.7199862883790982	0.6386916682156648	0.754538013226316	0.2135789595179538	0.560488462219262	0.503602318921542	0.8131210476462625	0.5231241996104902	0.6834790686857042	0.514166476047926	0.06452999870571807	0.4619544667618454	0.32668456137292745	0.2738162598554331	0.10223999671969386	0.14920148623738516	0.6896575279538609	0.3822721439790121	0.7492955275140265	0.06402963103775583	0.3468279863552386	0.4443449843014027	0.37481967549834505	0.8589242842786421	0.8858926533634198	0.39938874537241087	0.3671118318565225	0.4305322138548153	0.8485497987992933	0.8532282214642013	0.12650804663688375	0.5031765376086708	0.5916769279434947	0.3390249763494212	0.540810450940381	0.28626706792819145	0.18701910395562749	0.6787755943868657	0.44262960237294335	0.5504543783137359	0.3054603728338863	0.07083140538919164	0.39187635029026324	0.8049919949011786	0.43938897475267125	0.4551013127770501	0.8067953531686766	0.6412934338200752	0.6637104965300926	0.2884464589919732	0.22554859005557937	0.8891411781236108	0.7725002445623393	0.012568757191465774	0.897179913683201	0.8106112374385324	0.9364391321680328	0.1605981754523098	0.05524088378180014	0.42372646780910805	0.03410367048651397	0.8175358747338376	0.34657286717479463	0.7555940807042745	0.2766959182659817	0.8514831482862777	0.17485922464561232	0.7660823130284854	0.8468121458617931	0.46926993324458344	0.4434240106813092	0.7011555590356796	0.11692372451654565	0.8504628198521993	0.9043734051104333	0.591621678778334	0.8019465287866893	0.6095457078460791	0.8485777492502943	0.4723245317782354	0.2979135306537204	0.3533403332204945	0.7835809293031645	0.18352446712295012	0.988673840021512	0.7282022106798589	0.2626910937349891	0.5686064063037127	0.9181868635189084	0.33902625471607795	0.17305538922810193	0.262152145089503	0.19143788680899	0.04992190442595412	0.04738482566321711	0.5446149487956568	0.589690765649833	0.5389258891729826	0.8073406050498387	0.31598924072796564	0.6894602624360302	0.8203210134204385	0.03432673573736322	0.5850570953992416	0.8859325322340601	0.03303030678333796	0.3948915015395347	0.8751447595960807	0.31758429494296836	0.28403623072769246	0.09910197995578762	0.9380003203816486	0.31744161967518947	0.06491473633688216	0.7973578564612149	0.32235114965798806	0.015588498873675416	0.010112970364084317	0.5434038300495648	0.5190149864867565	0.6672260439116191	0.707911210735356	0.6699243915685498	0.24502008267528597	0.021271006613448162	0.04330533798302205	0.8581195529934684	0.6005464467072518	0.7674771328533299	0.6499558895784907	0.12710987008489416	0.3947691708935772	0.4957333098708069	0.6856456150763112	0.74295845714152	0.17889605752269166	0.7009201769177678	0.14960304137899005	0.9834442096121055	0.6440703111619014	0.9913654863223422	0.7137442783890111	0.5981430882213897	0.6669492177726539	0.5304235897804815	0.39395123282680977	0.5231667220016946	0.8408778525583916	0.3622919012805884	0.6264669819531259	0.1876138644424662	0.4394678977662404	0.24278560172427865	0.9235399232662312	0.21006585892951313	0.45352968711689357	0.517619197180154	0.36312042832573566	0.1066960611668959	0.31783107639470143	0.8750552954372823	0.9101363989873237	0.699771308556321	0.5262580799371547	0.2547049757405334	0.41400291046609305	0.6431630598524986	0.7924333329780529	0.20583895798566387	0.0418586450175259	0.42505100645971783	0.6595449365158054	0.9475426233366372	0.037304982916996354	0.5420029381436618	0.11574610411862352	0.3227589709228701	0.2510621603979927	0.37718526415603026	0.04868824420536577	0.2261221620520627	0.14706000096425176	0.2887144963499285	0.454468314955197	0.8113169489102561	0.26349136552413177	0.17005909919825446	0.6223045159402552	0.16241581209716838	0.11170771410793567	0.09680826979834933	0.523969578464747	0.12311736124860528	0.7368671516571901	0.173950317681967	0.19452755253672083	0.3900170810299185	0.6245661692278105	0.07230560708949474	0.15874485225602064	0.7972465824533261	0.8693765050232825	0.47847374988875047	0.14857657550952252	0.48191145359434684	0.8406615723728507	0.4615367296575894	0.4795441651815492	0.7612874505693823	0.4875883589851293	0.9202864670074308	0.6192422301924827	0.642968168409555	0.7205732778461784	0.6935841431920153	0.15401496515218716	0.1675130392160218	0.3304575871269725	0.1356945087709044	0.4709426120598592	0.39504217070929604	0.9102257951954117	0.16901110531767694	0.3589814817929423	0.33925584605881287	0.1420730686689211	0.8451292058253406	0.7144925872675967	0.03775286998315874	0.7530338097344879	0.07399472783246475	0.15057080000774659	0.9780148912774395	0.6295087205068471	0.5278437628685224	0.13080654009170856	0.4056465342043002	0.8576290288860744	0.2475179006250381	0.7600272118518123	0.35446985662146946	0.6974245602556132	0.19120101813695445	0.1180466243539039	0.7875722865262214	0.47215225253128634	0.5636191514046954	0.021683183687093543	0.634088379075099	0.5307761426891097	0.07681654214832867	0.5763081614087364	0.010415910700820485	0.33600093519703955	0.3902490687800073	0.2554366189535986	0.48867764780028466	0.6323610241654651	0.46879808944608836	0.7789875357665854	0.6357653880749162	0.047774061566301484	0.7649889985950963	0.8903832432162814	0.937048658813476	0.07842786400439072	0.4189009146914531	0.3195399871170045	0.18142069566754093	0.046944942809822865	0.5058634405875332	0.9412146022343106	0.4777158355831034	0.15410284818058217	0.31870405349150577	0.9820111510012949	0.5574035486264634	0.1341854015545646	0.13666230095388698	0.9670800399003174	0.07951842726880254	0.08981983802293192	0.46070340462545833	0.9576583290777408	0.4353402849782101	0.783679309923211	0.9394432179817924	0.13007902406680916	0.1803238741981621	0.3263051591328632	0.6743431392263102	0.3075910817907481	0.7658489589503019	0.5363954196777208	0.8673511064623187	0.03434881332138073	0.19433850339323822	0.6116073128690942	0.06190786755354882	0.2820560986345647	0.9623653978861746	0.7022628210371227	0.13842247488031012	0.5988834356018159	0.4484342033600388	0.5033908517407243	0.6455847212645366	0.706819851825001	0.5646125262386484	0.4488574498138681	0.17146577447438172	0.2634855340194776	0.9395449066744344	0.06380395288098784	0.8096486553532343	0.43618316820397773	0.3734133829063887	0.7542566189698227	0.046400477816282315	0.6168038187700281	0.5118388139950707	0.4409944322065549	0.263006125113052	0.854752980481697	0.2759916052514588	0.506388727331744	0.0346406785458202	0.9867230238234727	0.47450987824935964	0.8101355572635652	0.7251670182970325	0.6012145294573433	0.40948608039426126	0.7141489312374317	0.14908306410124617	0.8222522731711374	0.03441300552619875	0.9080872911925584	0.03157723285627834	0.30677365032005155	0.5109162990916475	0.5809000841563523	0.1251491120970819	0.5946286226565846	0.2803427620392517	0.47699514243140584	0.4599977860124155	0.7732203294751583	0.2909702460356087	0.9900086820467061	0.4752705292706032	0.023370776686375105	0.4299941201906584	0.53219922719482	0.12712721618994327	0.7203467747025457	0.03509731323760257	0.9232686895954593	0.8230173224423298	0.07175341258985068	0.990884014637677	0.4116402782424271	0.4820297399648944	0.7346658637244158	0.007948759024881347	0.9700996053082075	0.15174055630713024	0.9099896143870129	0.03206933804936507	0.8870469863392652	0.5456420852148656	0.6969717913371319	0.7397082803217687	0.4169518364536412	0.9579111588068362	0.9014067922170759	0.062090246810643346	0.9860135067881488	0.955314611746486	0.8457217468737451	0.04214641495606952	0.2446827544837783	0.6427810434315417	0.3344408595987308	0.2715625990184126	0.01978867478805868	0.8871236825353246	0.9189530642362376	0.09800055181802281	0.752505140515956	0.7568966321590306	0.418173853256537	0.3894038237255599	0.6272039581246819	0.0706341326974651	0.897022843731956	0.8237698803509409	0.48840741268772436	0.4973294941330807	0.4511241980371955	0.16925489426527052	0.377888947155271	0.23836754753541112	0.15502035327837016	0.2579434205204054	0.5729728074170444	0.9470215251657379	0.4566347633560289	0.8932297779159126	0.6957386952766711	0.056631718767412464	0.20053833950687405	0.26132892916389616	0.43331405564823333	0.36184460522618567	0.01878212076999075	0.6855796476565682	0.9930019514045931	0.17267720436578338	0.4359651008547333	0.26526519051130104	0.30878339628707707	0.22670194932683463	0.04881096929105144	0.09157151579094835	0.8831724778293296	0.7867770080085379	0.0935210041603427	0.10048027514089697	0.12295440295029558	0.4660393027761064	0.7871526567461192	0.472409082397676	0.019596383409398843	0.7953328456354231	0.4160592430193669	0.8597798544485022	0.4469413706228649	0.9284912234936997	0.5532901214037647	0.22846854451661203	0.5871972538828015	0.08962773421012649	0.4117442917492018	0.8749653794286051	0.6394037909407437	0.8751411965592636	0.0816781904377657	0.8741104684233583	0.8180095771101048	0.3321801554994809	0.4383979341252916	0.5147586443558398	0.3021729750208696	0.10555512301084113	0.5649244389751614	0.13267283771301974	0.9583350400636507	0.47380408423467246	0.4594305466104204	0.5397126656136353	0.6302298661890586	0.829499482307168	0.6151356852296512	0.9140517810210809	0.5185081000022086	0.9686746419796097	0.09735600951298906	0.6503900701198009	0.28308223532826426	0.9745756932704753	0.8460658312606931	0.07640775532909982	0.05092244935833368	0.6541770051395533	0.850009213818873	0.7793146716867135	0.46315783168265523	0.8561765881427709	0.522472201936019	0.3434626143486994	0.7395138373675404	0.5444576624852044	0.9996962791803357	0.6931795042820887	0.9475453510859567	0.18500527075506534	0.6597649699103496	0.6384308249925356	0.10033540318901502	0.5122542605231397	0.9056199290642138	0.9924859870583054	0.2401398855549639	0.22458072447938238	0.53514900539489	0.994495719850954	0.6607345237303526	0.2008186704060484	0.43281270091425206	0.7068401916037308	0.8984265386137872	0.7513730858430614	0.5372540179012985	0.43115061450542036	0.6073771634317224	0.006411263824910418	0.7036319801897027	0.34698802247708016	0.175686196084465	0.34366061731320263	0.6480780532605811	0.04729533873757075	0.740245582014351	0.42103761386726135	0.36214151890647983	0.9161725593368385	0.41686469094431955	0.38500222908441495	0.7104480942121366	0.3933569798430909	0.9526406695808142	0.4443534659559688	0.49633589727367355	0.30549345431798847	0.6241084490585728	0.23268118973952956	0.1167720093067115	0.41970316556090903	0.16683682941429112	0.8082026649974401	0.30620650268567473	0.21416931590146093	0.010522991667677561	0.7010668863050405	0.6655958404939823	0.4050227877525232	0.15184696856437074	0.06907787561551604	0.258233941732656	0.6734533785300588	0.09303111813087406	0.2495118655070191	0.483650292556114	0.6034067460976584	0.11449922453343975	0.8612329361684835	0.6713390033448668	0.3112754507096259	0.7677770914973662	0.7865121916957791	0.18552797842104762	0.6347353859986896	0.36912240581633715	0.4599369786752394	0.8120997375490059	0.9377058807188461	0.5386510910118539	0.8272885783923419	0.7429024220130279	0.4978181584437421	0.6491742883591894	0.61261746450481	0.6464430075041901	0.04706839165799881	0.8038514327187901	0.663294382079188	0.16985967091614906	0.8956312956043274	0.5296725144078849	0.11007374163909922	0.8620248809858927	0.8149257746120327	0.5650123136671248	0.6321838169863035	0.30979423122765803	0.5292614474620505	0.9764817122078631	0.20475835125568342	0.617624875137877	0.7091872910474192	0.5092597626841234	0.7080831013806043	0.7981413752488109	0.6540979562092736	0.09688588143036558	0.9813152936424625	0.01409956022041381	0.6814341320341258	0.986293234774855	0.24673886716443538	0.5805396323380766	0.03513429560940318	0.8238283380930147	0.4232094993244856	0.6758436072562485	0.8495965395600292	0.17654367356329848	0.64168144440149	0.15554077683758982	0.60089335271109	0.20703810151265356	0.5599740211941796	0.8334694704852148	0.004799149859270879	0.6021997985702983	0.7567637712573108	0.5656550109853907	0.8421968668579244	0.39594728754732333	0.7807194449491911	0.7566695036444325	0.01769942190798035	0.5565537261255843	0.7294920551985761	0.466712916829897	0.4515860173014621	0.5409929695056176	0.807861362796524	0.7630983950575883	0.4206076530807682	0.729156421652368	0.3713018491827913	0.5085493818931415	0.03564081572189726	0.35869036473801685	0.3205326209572994	0.8602902132778971	0.6666091856323823	0.07499848582185575	0.5335289284580127	0.5778877877681323	0.19259575737676304	0.8581516411593397	0.19332095236204794	0.6570948000010985	0.502377147393391	0.9081617637651632	0.5990307722144537	0.5572287594260935	0.9906605984502234	0.9679732529238583	0.8695762136505073	0.19327838623732252	0.1729238015644955	0.04342424050588345	0.5927816677076082	0.1192874778655989	0.9025499427223802	0.9889832326879161	0.6904185303644783	0.9873271463858261	0.6667341052640074	0.18755944745204256	0.6147593797439663	0.07442924888238478	0.391817786287757
-1.2	-1.2	-1.2	-1.2	-1.2	-1.2	-1.2	-1.2	-1.2	-1.2	-1.2	-1.2	-1.2	-1.2	-1.2	-1.2	-1.2	-1.2	-1.2	-1.2	-1.2	-1.2	-1.2	-1.2	-1.2	-1.2	-1.2	-1.2	-1.2	-1.2	-1.2	-1.2	-1.2	-1.2	-1.2	-1.2	-1.2	-1.2	-1.2	-1.2	-1.2	-1.2	-1.2	-1.2	-1.2	-1.2	-1.2	-1.2	-1.2	-1.2	-1.2	-1.2	-1.2	-1.2	-1.2	-1.2	-1.2	-1.2	-1.2	-1.2	-1.2	-1.2	-1.2	-1.2	-1.2	-1.2	-1.2	-1.2	-1.2	-1.2	-1.2	-1.2	-1.2	-1.2	-1.2	-1.2	-1.2	-1.2	-1.2	-1.2	-1.2	-1.2	-1.2	-1.2	-1.2	-1.2	-1.2	-1.2	-1.2	-1.2	-1.2	-1.2	-1.2	-1.2	-1.2	-1.2	-1.2	-1.2	-1.2	-1.2	-1.2	-1.2	-1.2	-1.2	-1.2	-1.2	-1.2	-1.2	-1.2	-1.2	-1.2	-1.2	-1.2	-1.2	-1.2	-1.2	-1.2	-1.2	-1.2	-1.2	-1.2	-1.2	-1.2	-1.2	-1.2	-1.2	0.25722605393004416	0.9637956282293655	-1.2	-1.2	-1.2	-1.2	-1.2	-1.2	-1.2	-1.2	-1.2	-1.2	-1.2	-1.2	-1.2	-1.2	-1.2	-1.2	-1.2	-1.2	-1.2	-1.2	-1.2	-1.2	0.819494158739732	0.7926788005425478	0.2845002922523929	0.2689172001367167	0.5864067728434668	0.6439158769810984	0.24091740692667912	-1.2	-1.2	-1.2	-1.2	-1.2	-1.2	-1.2	-1.2	-1.2	-1.2	-1.2	-1.2	-1.2	-1.2	-1.2	-1.2	-1.2	-1.2	-1.2	-1.2	0.4951079910489971	1.0000788639414546	0.4587464809809411	0.561937095878169	0.6577356823068743	0.6341795778391779	0.580824255131615	0.3198352714118099	-1.2	-1.2	-1.2	-1.2	-1.2	-1.2	-1.2	-1.2	-1.2	-1.2	-1.2	-1.2	-1.2	-1.2	-1.2	-1.2	-1.2	-1.2	-1.2	0.9897249867341746	0.7222948221101547	0.9570099787415942	0.47131195079658217	0.7337988507542239	-1.2	0.46463972524930786	0.6696669200408816	-1.2	-1.2	-1.2	-1.2	-1.2	-1.2	-1.2	-1.2	-1.2	-1.2	-1.2	-1.2	-1.2	-1.2	-1.2	-1.2	-1.2	-1.2	-1.2	0.8637181451085356	0.35585607402923636	0.18067685155339716	0.9180831697549373	0.8599650964312945	-1.2	-1.2	-1.2	-1.2	-1.2	-1.2	-1.2	-1.2	-1.2	-1.2	-1.2	-1.2	-1.2	-1.2	-1.2	-1.2	-1.2	-1.2	-1.2	-1.2	-1.2	-1.2	-1.2	-1.2	0.02368022902803968	0.7443955537788027	0.5942049431023703	-1.2	-1.2	-1.2	-1.2	0.6367578763947496	-1.2	-1.2	-1.2	-1.2	-1.2	-1.2	-1.2	-1.2	-1.2	-1.2	-1.2	-1.2	-1.2	-1.2	-1.2	-1.2	-1.2	-1.2	-1.2	-1.2	-1.2	0.4294789611661578	0.8214524398247164	-1.2	-1.2	-1.2	-1.2	-1.2	-1.2	-1.2	-1.2	-1.2	-1.2	-1.2	-1.2	-1.2	-1.2	-1.2	-1.2	-1.2	-1.2	-1.2	-1.2	-1.2	-1.2	-1.2	-1.2	-1.2	-1.2	0.5435943602280192	-1.2	-1.2	-1.2	-1.2	-1.2	-1.2	-1.2	-1.2	-1.2	-1.2	-1.2	-1.2	-1.2	-1.2	-1.2	-1.2	-1.2	-1.2	-1.2	-1.2	-1.2	-1.2	-1.2	-1.2	-1.2	-1.2	-1.2	0.6320156237325708	-1.2	-1.2	-1.2	-1.2	-1.2	-1.2	-1.2	-1.2	-1.2	-1.2	-1.2	-1.2	-1.2	-1.2	-1.2	-1.2	-1.2	-1.2	-1.2	-1.2	-1.2	-1.2	-1.2	-1.2	-1.2	-1.2	-1.2	-1.2	-1.2	-1.2	-1.2	-1.2	-1.2	0.1265770996772415	-1.2	-1.2	-1.2	-1.2	-1.2	-1.2	-1.2	-1.2	-1.2	-1.2	-1.2	-1.2	-1.2	-1.2	-1.2	-1.2	-1.2	-1.2	-1.2	-1.2	-1.2	-1.2	-1.2	-1.2	-1.2	-1.2	0.9122424682383203	0.8387427329347474	0.2788410458764582	-1.2	-1.2	-1.2	-1.2	-1.2	-1.2	-1.2	-1.2	-1.2	-1.2	-1.2	-1.2	-1.2	-1.2	-1.2	-1.2	-1.2	-1.2	-1.2	-1.2	-1.2	-1.2	-1.2	0.3265098751491238	0.8257347953153429	0.4941560786775626	0.5656532426345345	0.7226128444452792	0.7395149570233871	-1.2	-1.2	-1.2	-1.2	-1.2	-1.2	-1.2	-1.2	-1.2	-1.2	-1.2	-1.2	-1.2	-1.2	-1.2	-1.2	-1.2	-1.2	-1.2	-1.2	-1.2	-1.2	-1.2	-1.2	0.9716680909166066	0.2734751794180339	0.5861899030347091	-1.2	-1.2	-1.2	-1.2	-1.2	-1.2	-1.2	-1.2	-1.2	-1.2	-1.2	-1.2	-1.2	-1.2	-1.2	-1.2	-1.2	-1.2	-1.2	-1.2	-1.2	-1.2	-1.2	-1.2	-1.2	-1.2	0.9649494902132342	-1.2	-1.2	-1.2	-1.2	-1.2	-1.2	-1.2	-1.2	-1.2	-1.2	-1.2	-1.2	-1.2	-1.2	-1.2	-1.2	-1.2	-1.2	-1.2	-1.2	-1.2	-1.2	-1.2	-1.2	-1.2	-1.2	-1.2	-1.2	-1.2	-1.2	-1.2	-1.2	-1.2	-1.2	-1.2	-1.2	-1.2	-1.2	-1.2	-1.2	-1.2	-1.2	-1.2	-1.2	-1.2	-1.2	-1.2	-1.2	-1.2	-1.2	-1.2	-1.2	-1.2	-1.2	-1.2	-1.2	-1.2	-1.2	-1.2	-1.2	-1.2	-1.2	-1.2	-1.2	-1.2	-1.2	-1.2	-1.2	-1.2	-1.2	-1.2	-1.2	-1.2	-1.2	-1.2	-1.2	-1.2	-1.2	-1.2	-1.2	-1.2	-1.2	-1.2	-1.2	-1.2	-1.2	-1.2	-1.2	-1.2	-1.2	-1.2	-1.2	-1.2	-1.2	-1.2	-1.2	-1.2	-1.2	-1.2	-1.2	-1.2	-1.2	-1.2	-1.2	-1.2	-1.2	-1.2	-1.2	-1.2	-1.2	-1.2	-1.2	-1.2	-1.2	-1.2	-1.2	-1.2	-1.2	-1.2	-1.2	-1.2	-1.2	-1.2	-1.2	-1.2	-1.2	-1.2	-1.2	-1.2	-1.2	-1.2	-1.2	-1.2	-1.2	-1.2	-1.2	-1.2	-1.2	-1.2	-1.2	-1.2	-1.2	-1.2	-1.2	-1.2	-1.2	-1.2	-1.2	-1.2	-1.2	-1.2	-1.2	-1.2	-1.2	-1.2	-1.2	-1.2	-1.2	-1.2	-1.2	-1.2	-1.2	-1.2	-1.2	-1.2	-1.2	-1.2	-1.2	-1.2	-1.2	-1.2	-1.2	-1.2	-1.2	-1.2	-1.2	-1.2	-1.2	-1.2	-1.2	-1.2	-1.2	-1.2	-1.2	-1.2	-1.2	-1.2	-1.2	-1.2	-1.2	-1.2	-1.2	-1.2	-1.2	-1.2	-1.2	-1.2	-1.2	-1.2	-1.2	-1.2	-1.2	-1.2	-1.2	-1.2	-1.2	-1.2	-1.2	-1.2	-1.2	-1.2	-1.2	-1.2	-1.2	-1.2	-1.2	-1.2	-1.2	-1.2	-1.2	-1.2	-1.2	-1.2	-1.2	-1.2	-1.2	-1.2	-1.2	-1.2	-1.2	-1.2	-1.2	-1.2	-1.2	-1.2	-1.2	-1.2	-1.2	-1.2	-1.2	-1.2	-1.2	-1.2	-1.2	-1.2	-1.2	-1.2	-1.2	-1.2	-1.2	-1.2	-1.2	-1.2	-1.2	-1.2	-1.2	-1.2	-1.2	-1.2	-1.2	-1.2	-1.2	-1.2	-1.2	-1.2	-1.2	-1.2	-1.2	-1.2	-1.2	-1.2	-1.2	-1.2	-1.2	-1.2	-1.2	-1.2	-1.2	-1.2	-1.2	-1.2	-1.2	-1.2	-1.2	-1.2	-1.2	-1.2	-1.2	-1.2	-1.2	-1.2	-1.2
0.5434804248775514	0.171921995093969	0.00499693937182899	0.4873204562196589	0.9537333414893508	0.9487385352068177	0.013833946714560175	0.261567368856616	0.7049002851267359	0.028491567245278238	0.8807200705852055	0.997698442772183	0.6491881933987617	0.01768930451561479	0.747347420431793	0.2856578747609818	0.8526541979417428	0.2828490551576297	0.8815837463798172	0.3552654479858123	0.9100793146648812	0.9209641854619034	0.8130757337826997	0.7613437206836224	0.053388035053741456	0.7319575999770916	0.7802844798490823	0.5992859926783705	0.8366070161254306	0.9985957884613781	0.41671695799109065	0.658678641703081	0.862978277604443	0.0257122198660088	0.9347650322115864	0.28813725774213983	0.002655861249169278	0.811281256886438	0.5663070356407813	0.7022847268708415	0.08436372364736011	0.6305735204707849	0.3278440964385473	0.6443106922905716	0.6572214920977593	0.08743902961299188	0.1035411628838735	0.9170295919389507	0.4623899844028454	0.30365964582699934	0.8271882043319757	0.5883862406055466	0.687792890692619	0.9904437246591254	0.3842725342560651	0.3230479136315202	0.7879496197080507	0.9510589919788461	0.7646291942641278	0.15407770487174333	0.8165692884453802	0.08722995822036606	0.4500480532080742	0.9954226885243628	0.6883902783794954	0.3648574004501077	0.009124247763468318	0.5216773876890756	0.6342896072360585	0.43965250127794475	0.8037196475647842	0.0060207342736171565	0.02464015654865892	0.6640269226958976	0.8553312479231413	0.009207757931872229	0.49406851123532025	0.4911912467001628	0.9464425022612827	0.13479660692549422	0.633743533099767	0.9532973718333572	0.5174848984093499	0.3086445297375474	0.740986783367897	0.51255009045119	0.8448556205222947	0.7589943725747836	0.1737602478472039	0.8102414113130908	0.6205140092669156	0.2720480721934786	0.7944128186486032	0.34063455509281904	0.4765539941413016	0.7892505317616836	0.9752880515579316	0.25032481439636656	0.5807752036535063	0.7103794697104391	0.5346952219271303	0.5627978399447546	0.6218412929608438	0.4418962828600408	0.01041263185458019	0.39646627189336736	0.1147692970080072	0.9227760768010475	0.037633714180397404	0.5433364406033463	0.7030223101407074	0.19724501083803192	0.2310170761875726	0.8848294765458287	0.13717361036658327	0.3822345030705757	0.21680050156664277	0.16096922683282577	0.33841637151746484	0.2363096561362804	0.16228568218637807	0.26901337582431495	0.136786918599775	0.026971456484821466	0.533911945316508	0.701209020332065	0.43476559547856397	0.44189334456982843	0.8970650534212148	0.40695532133662615	0.6712170534111163	0.009563323710386817	0.4321057881860182	0.8484601128556978	0.052494473568300615	0.015148319309780334	0.8923359132442718	0.30700480905366356	0.703476074243021	0.9560230302067991	0.9732730596531122	0.40369869171010775	0.6073397516669172	0.19830501969927228	0.9536537051327021	0.7048524535086139	0.3070964914539065	0.6924549442840836	0.8253117007794402	0.6705756322998858	0.04833805023341198	0.14348549686231038	0.9829230298008764	0.4909154839808181	0.9882545512112557	0.9968352730916185	0.3644716962878317	0.35699610480458677	0.5292574636986772	0.9495231709905587	0.39307321050903554	0.7893708666439379	0.6637348125177863	0.02182737706175064	0.21331669057728797	0.18501061523028672	0.1377573323784167	0.5887638736580033	0.09954211995131446	0.27945491192517513	0.9285285709310643	0.9443097808310198	0.04467510774460337	0.41826444742050606	0.43455533055520135	0.8660488635440716	0.9875582752017976	0.256715320496967	0.1553464875550733	0.867053464209231	0.7160961089434574	0.9775093087593469	0.6282094316344132	0.05985234692772301	0.9625608740230712	0.03151508568355177	0.812333092844426	0.22810886546877351	0.7737796591020992	0.09495194536818263	0.8073189152921921	0.39549093661944934	0.05739144814567487	0.5749827505948403	0.2882618740360584	0.5964389811882789	0.7497697278480066	0.17906391523253262	0.7325869508690828	0.383084414285775	0.16119327307100673	0.40993543451544123	0.8615770708380702	0.06947375499384223	0.22156398792585086	0.5332299421794231	0.6527615086015227	0.14919829606578938	0.4743757848245913	0.5827470416578848	0.0335816428982143	0.48094389798101267	0.6968600633253418	0.06342649653415733	0.5176480169622695	0.6983027008423072	0.5552756102383956	0.26043676006103234	0.14453085718098813	0.6564059298020397	0.23846806927168385	0.08487979666710943	0.33800069596155613	0.0963322290010592	0.6888428674287629	0.7582887051242144	0.24147390591373907	0.35530393025844276	0.4339485692059665	0.4011879799638389	0.0020661325510151762	0.33651864045328017	0.40760163972869634	0.6395316566449744	0.08509075133377575	0.3006417417160888	0.43343732920761746	0.6009131847406447	0.06525497016698933	0.6951828458124093	0.7173649563047282	0.41857225033704826	0.9536290656027894	0.7370438846509844	0.7438166483035221	0.17249963524637457	0.9465844684461436	0.15662452450209918	0.3859561500598825	0.8613537545449969	0.41738659056108085	0.5434908846294803	0.05075789926290797	0.42848521427299446	0.8233706346645394	0.11539871861996143	0.8322825392433612	0.44804969723165355	0.11456130342867465	0.42722092636849496	0.22179018866064415	0.7601976375123058	0.3696679676840291	0.9581316668299521	0.6634383870490871	0.3429665331554884	0.770303246085252	0.5448682824565985	0.7279564458310063	0.4689373481625907	0.27340464068897075	0.7958091115988916	0.1646600796544071	0.9849378001588894	0.40847492577905187	0.7551241319711764	0.6779539589561056	0.02196680582770627	0.30833236800311115	0.6052898296965996	0.20478931642859388	0.7075407259596234	0.030939151777752305	0.96936457553158	0.5774343503716334	0.1900819426162027	0.8743111538165911	0.8663679614045289	0.2667440684894591	0.9534459886798013	0.5692662125148117	0.7784894365883538	0.5207685795209462	0.4062341674276678	0.117594726150135	0.7783006294672249	0.48771586317402726	0.13392599061859123	0.3416690461429599	0.8373662412851277	0.8671593282326796	0.652553700552586	0.8274386105515157	0.5254214810398902	0.07613050606354865	0.5740457064436154	0.8997586154023374	0.5664762807863433	0.8705102320971336	0.8381051178825462	0.9262156827949818	0.5585964981819136	0.3555432846853779	0.1606482693480833	0.6063111234289393	0.2972477623397751	0.6473047450555166	0.64765867781924	0.7973103553898521	0.9196800973049897	0.5485174235278367	0.07690447328788552	0.4086092203617514	0.8180011028331311	0.34178773411482266	0.1605714030298825	0.11789521998873842	0.692053616724608	0.6937775675086443	0.6422914339064179	0.752376902975111	0.3775390092044002	0.5828227146783438	0.15832587363268302	0.36191594884372535	0.5647011884504708	0.700321455718066	0.10017290087041675	0.7898793340279167	0.6360700308925414	0.17541848178952368	0.05357705508671917	0.35602269297138456	0.7913962154128532	0.595940161105256	0.2516844405693579	0.5532647469372494	0.9812251912919917	0.5249810587520515	0.8362054847129123	0.6820425432252004	0.09677208157060357	0.2679044202833243	0.5502314749550952	0.009437192624853208	0.7712442596448494	0.7223715903147782	0.1478936048137991	0.5627275908435238	0.8351186312861917	0.4068295377474138	0.9608589889803644	0.066714710176218	0.5709086708632083	0.09585176525597405	0.5981712370064814	0.885435446456459	0.6198005384418641	0.05347137442489702	0.06353577442012004	0.7153800100324783	0.5127398701046274	0.6845052946300931	0.11411611091595131	0.12669194318956567	0.11422748177389497	0.5173243854627995	0.936432841029802	0.38253393404470926	0.752635346948564	0.13281267379420947	0.5497946596306778	0.1705703449741518	0.44540574835487823	0.2335896502033451	0.14604295759718255	0.8557921905522051	0.6251184261449313	0.3014014581658253	0.22641163082491	0.3529924398334302	0.6801547130892667	0.25178979054215667	0.24308866940793594	0.46607189273945115	0.2880574054404347	0.47794400723627006	0.32247737701969736	0.9632038591533522	0.7050982127435638	0.4677105778289916	0.8892136762948901	0.1373518889150367	0.4896906961597215	0.08157937458374676	0.502080523756742	0.37671744184435396	0.8346156964865138	0.31822870033484774	0.06558903466680599	0.7928985585611541	0.7065809816326456	0.8667356393303067	0.40809715192988105	0.49084756510565064	0.5651919729385765	0.13097800377852364	0.018293058957238095	0.3362916484189977	0.1932347463411408	0.4425465213227354	0.29433447162112814	0.60141473654804	0.5494294583724979	0.21050066866583905	0.22411071816467276	0.2934452228420372	0.8075731688498412	0.11866490865232482	0.6849511957761301	0.01248837353555421	0.26925861337427315	0.8054647498783855	0.9523707230882692	0.7710975274002448	0.30809034595804974	0.2124595185844066	0.022671934758858425	0.5726489479618558	0.6117074559718836	0.9739287115208112	0.3142623831640091	0.4159823270955685	0.7575732067977728	0.26670113814579843	0.35193614955790264	0.7238580055732685	0.5860933256797022	0.062316382993610975	0.8284635114867337	0.2927032060590887	0.9617495229025883	0.20257748967428002	0.37843247982827444	0.0009969106358852509	0.7401818355650012	0.26489967585126917	0.6478971182100306	0.6800560223700786	0.5601402688695426	0.22884735898538544	0.08363670981682891	0.4277378741909277	0.7080787526552361	0.25826835337337994	0.49440873475941816	0.5038175372151481	0.1623527232031603	0.09128880484835367	0.6134452008711354	0.15637334631357946	0.16116977376312625	0.5798830376225045	0.48213877790662407	0.38428544558943223	0.4361603883816514	0.3778422744594877	0.07430462786995995	0.14102507715666412	0.1168905200768684	0.6390254760343392	0.7693263222503297	0.955047191092552	0.3077623980198865	0.30492821271779924	0.17938070888276492	0.0740286665190677	0.826201332216428	0.7658196983972069	0.7846849030578273	0.35387274116119183	0.19447992009888226	0.2771575785148538	0.46005630258067787	0.3642183782653433	0.7238874441546068	0.029809583356943947	0.07635654326408381	0.3150834429847902	0.7311315934630627	0.01713278317061173	0.7511399795016117	0.7883595387073683	0.6766435425970784	0.8563342078999591	0.9781264611307234	0.3937848266825018	0.2666902636920425	0.6397247550903948	0.11638407459265465	0.9665952056289486	0.4083304044486693	0.8204350003673846	0.9276040330088645	0.1985144189329504	0.9753699915891473	0.8396528745231643	0.33337831456135725	0.4465266294943129	0.7479025895419751	0.5636813586019688	0.47780334056336693	0.25195676976914194	0.0001756363275651207	0.7223773036323805	0.782152724310841	0.5684850457483064	0.6860193208267676	0.2354880309003602	0.03519778102975635	0.4916539986626315	0.7068211221521259	0.07152916716517332	0.6758748046345738	0.922329721149478	0.777273364902934	0.493390806544604	0.3089112594751615	0.6597524901210224	0.6836577836611497	0.9820274806779494	0.7028513029542591	0.5784794572464486	0.9067199656947257	0.6478907598118641	0.9720242824129739	0.38803901432448384	0.5761426934895456	0.06040551892484691	0.5304026876518688	0.5976070878306448	0.4381744420256878	0.7949473100532388	0.7960228785281754	0.656413827480667	0.5385398760840702	0.12326008167839253	0.09725556971543814	0.24360671748496499	0.2571175377925542	0.659119782135437	0.28585795839069694	0.34297913089658816	0.02621546306315936	0.45636720600488845	0.5459206749335346	0.08837508010952988	0.8273707100875372	0.5928237076566131	0.3221478118856851	0.18362093135070412	0.27376090242796147	0.3281350015284781	0.1456635534659937	0.6874138366106202	0.9935052299184802	0.9490205548378527	0.8020803200566435	0.8290630636613968	0.4445704079220808	0.8047390982255399	0.7181238398835599	0.4197035137390078	0.8638173950991157	0.5139754984191202	0.9648643971696428	0.37046559307934335	0.8203806930003011	0.6462230869931445	0.9082453295702269	0.10159574253628245	0.5917716464255358	0.4821460932100624	0.29896344878426806	0.08266148508261129	0.0021753708412453054	0.40827606334285405	0.9220008612526807	0.09908837960717887	0.8981855712551698	0.2009359138324459	0.004130002695805546	0.2738713891434683	0.9112797581478469	0.2411700505155452	0.42574563407776345	0.08975876180061071	0.8351292515109797	0.8151074229666024	0.010818034936463716	0.07808228086590685	0.44021462395247846	0.7728141898514986	0.3950424167331107	0.8776736479203865	0.5620740383233356	0.7491296084161847	0.8727553399204073	0.6014251417186505	0.2865622748690321	0.754508623798564	0.6671994942369482	0.4032978835807651	0.48170361805062933	0.4499990711479357	0.15891995978215745	0.18722070227128962	0.5603239844214292	0.669164944178366	0.8942679233807348	0.8814571361627931	0.23585481060726332	0.8713539302153068	0.8050807768707468	0.7285858234850294	0.31941073912414486	0.4936170369128826	0.1375635700211879	0.07813571714250855	0.2586771032893733	0.6421589128410706	0.49205396150075487	0.8073201044304683	0.021322514345394894	0.3978625035946738	0.2752311033747977	0.5464664063675337	0.5806194669206562	0.27865037746995924	0.5320005025647458	0.6462678628914439	0.6072935762184053	0.2936462242700325	0.15181445839555363	0.3163790502363757	0.3245816822536923	0.6880863735395044	0.42167448186898193	0.2661589698099831	0.5118253199364605	0.4754863699335701	0.8135891021772292	0.542640858530792	0.37843894250306964	0.12217347985976357	0.8222379566118341	0.054300155347961176	0.6583525517923061	0.6879085065912778	0.12708190601318325	0.048704515011577465	0.5281852369443673	0.18850361166250507	0.5100584905227018	0.8325293314291438	0.10062672638333692	0.24948767857324627	0.5443617698078737	0.6838185621398634	0.49369617594289017	0.9206501896559306	0.938539463547567	0.0008601134304041524	0.46318098644726713	0.1222203300205632	0.4626553545751766	0.2254557005380895	0.8159042624022864	0.31420117258629077	0.9583619320530724	0.35231695763811455	0.11072907182478975	0.621775849049655	0.5678300404473543	0.40233291555909456	0.23538353089713604	0.9674807324944402	0.04892244943661428	0.7636000953149981	0.22062734654668692	0.4202327675888543	0.8712653372890772	0.22498607026308504	0.6329688370901997	0.11043852856620107	0.07412375373762681	0.19284849789441993	0.37289533340522363	0.9465986915157952	0.7432515319695115	0.7137934037604808	0.5039230312047368	0.08101392708499222	0.31174594666857336	0.35007829754649145	0.685912339083979	0.07991154403283907	0.7104421250580026	0.8991523706075951	0.051598891338615394	0.7134515402700259	0.6509191623983659	0.4693316147128044	0.1353171937820159	0.28704676155333364	0.35426602277393826	0.321522278808861	0.28984969759085677	0.5740823957588609	0.5525632268335711	0.9756332295475474	0.7681921412669781	0.2512256129237206	0.4555630602975068	0.35162712048469313	0.4776473059907902	0.1590200991058729	0.43447935595397835	0.22534685281464562	0.8910075274027826	0.4215404197396342	0.8668246486749162	0.35951996036393796	0.23324064823532953	0.17384449269038516	0.3092767037656492	0.46694973863657385	0.8867946522778248	0.8763190973593494	0.26643941885830313	0.29118662188789624	0.25208759800434666	0.637179921256379	0.42676458015318974	0.8952567376988564	0.46600626447191196	0.10175397800723085	0.9364883565373245	0.7384687944235114	0.317206076050063	0.511475819839516	0.03381637484677469	0.3799934113871284	0.47747827697822587	0.18626343683541902	0.36378261166901693	0.5505891022680138	0.1377137750735553	0.6167453810257603	0.01217170095255915	0.11009298777036058	0.4079589541152311	0.5207973260446899	0.8265423792783119	0.4650764058248579	0.11967970189390098	0.613358213856244	0.4521020911663898	0.07321248942709147	0.8773840229680538	0.8068496147119323	0.07740025180866517	0.5164223185974625	0.7755216187786398
0.7747516345692357	0.2592503448128385	0.08590984816613312	0.3787130202531691	0.1940014801120592	0.6749013290207373	0.8565241512808447	0.9367437237128738	0.34681892295379735	0.5609753311795953	0.6967584774750201	0.7200121249961525	0.44059784248227696	0.2775320408210048	0.76802505297207	0.7082591032308826	0.5955362239811346	0.9371776923896565	0.9639069298314331	0.6136521987264169	0.3353886841003395	0.21297104628906216	0.8661414389966018	0.6194820450286208	0.46982223485145735	0.3475937335262578	0.9188610182421002	0.05432618161731462	0.6378814038196114	0.46949857250780236	0.5165835007805958	0.6233056452372782	0.2476615109762983	0.6158739459692678	0.6308254363755712	0.9557406599590353	0.20664698358186617	0.4194858664127741	0.25376500887830344	0.5034956306654433	0.7125755602365482	0.6285851154248219	0.9730435459901953	0.7580021902393573	0.8809989435644627	0.40529830281520074	0.08304192763797169	0.9262936809243523	0.2524953997277246	0.6787360608641878	0.48697615632200153	0.5024221237728014	0.5462057392760682	0.6879803167796432	0.4100808979047921	0.9703001832085817	0.24506547736846895	0.01268372514622651	0.6309892756100592	0.4808086551689754	0.8678757066550267	0.5754301355492609	0.7125405089905895	0.8579282188628897	0.3793701953147979	0.25459035212342473	0.5869234096756337	0.6290597567681198	0.06908312621091861	0.9712611241079544	0.37039620876676993	0.7219365215415191	0.24825429128993526	0.11814108782433874	0.749559729909852	0.3300024561014855	0.04825543927475717	0.5682288649786219	0.9767134217762267	0.4642669867749689	0.16779973035517193	0.7950608812130511	0.49058242291892684	0.4737604887243868	0.5620303215529953	0.1707940217365378	0.08712140493635179	0.8103133050511284	0.23997043114460193	0.5074596162242069	0.7627129885950518	0.5647373157161004	0.4850236455230389	0.6745301271543073	0.613642012223093	0.05917656163764384	0.19589763461640863	0.7281109493048288	0.16683000211445598	0.5207706848213202	0.38488441658222317	0.36889677563936585	0.49768966863447117	0.9712304443156118	0.03446396360942183	0.005756888475277333	0.5752179101103951	0.12748374511085148	0.2803008287531611	0.20390974240918136	0.6856514013493308	0.5468001593188987	0.4791614668997348	0.4323097097652069	0.2204397699380095	0.10604126672059888	0.30046832975008886	0.2531242226311172	0.7979409006850525	0.6385053718108268	0.9604344595030313	0.17438742241077598	0.8007648520096485	0.9975637020643016	0.45736573349037535	0.0847736573365927	0.09029132167702802	0.2518519966901669	0.28406218472189004	0.05656687903877655	0.7679489210833353	0.48716243980371376	0.48083772803069824	0.6595682213468735	0.37509279197114687	0.14264551522827895	0.526397295872609	0.27332643884455554	0.4366937447595537	0.12710121749632997	0.5497693199012149	0.11783835549699295	0.2868960636579876	0.4203354087166776	0.5421947979426778	0.4403841331745406	0.14519096571422707	0.8904899220122554	0.2365502038096272	0.4449772254165898	0.38001813887632097	0.9859760355230175	0.279485663399491	0.9088929630617103	0.7618179846712153	0.9684957421457684	0.5141994395975565	0.34183274562308696	0.9428166165772536	0.9558450983888128	0.40082785021410783	0.7920138646961304	0.1933970422596708	0.8509348288193316	0.6472774813828794	0.8772839201735034	0.2659526747227864	0.6980100508086403	0.7039913313685721	0.637905488685962	0.880305099577637	0.9008329017807968	0.2192833326348882	0.2314652505621837	0.334023472425809	0.1964150404161421	0.15777966404642707	0.9238692902260135	0.4823572596987389	0.7983809434555824	0.9280878622356946	0.36756669047157475	0.5751792267985167	0.3712954903440103	0.3910037161414167	0.058268918068425046	0.21758033839641033	0.8147342715751789	0.4157671539018488	0.013603490678430363	0.7356600436801689	0.2136321445071715	0.025367167768837073	0.8033998067731447	0.3263287794785409	0.4425020258379275	0.13344475543811163	0.4435542774946728	0.19540783437428855	0.8752104468646896	0.2523379639560902	0.4447131793519289	0.8870371940623257	0.47518346655553156	0.48294915147985096	0.574968406174975	0.5525969717817176	0.8596014020595124	0.29647749299572834	0.17052595254704572	0.7046693291299538	0.837026910956498	0.6947842331662696	0.45082442492841124	0.4224356052456537	0.5459204969785183	0.4695914733748572	0.612334922927021	0.6637925487691679	0.44012696413039365	0.9554638393403796	0.9745240268333818	0.18686448724495408	0.8739891617472684	0.27793178174188593	0.26267233683157654	0.17834493729976186	0.13028787250287432	0.4842674036901524	0.680780441796681	0.4497138307285268	0.8380794775179091	0.342955066000994	0.11171501564805075	0.1413707406836373	0.929173322426229	0.505088727407329	0.272534011925354	0.5218834682019956	0.38551928151915693	0.060278625606227654	0.2332839498502216	0.8470289789982987	0.36649319812536196	0.9210761863943177	0.9685426758789714	0.2041854620766007	0.09158127751855427	0.0034690095204454874	0.7356245817562144	0.6376835297986724	0.08925732207666304	0.4675887981659629	0.4525988521432992	0.6012869312932861	0.4450870526547397	0.02158353743916519	0.8042225283266712	0.1094532489215404	0.03844965582604787	0.32361528969943554	0.41765828961028806	0.3534627503964527	0.23300660684868413	0.9133657852830045	0.022727916925573632	0.4654114768948938	0.02398765033122141	0.3235612423335259	0.3243535873338168	0.026959447582808438	0.9019471301624633	0.06201605137171018	0.1948668066840138	0.7738236646939111	0.7581646173153602	0.7872701975846232	0.2186736332651703	0.9408433785551041	0.767554379395166	0.19955458932769043	0.43880289479944334	0.9007997998554591	0.557092165320086	0.8034439591098231	0.8043889263341845	0.5959619909761728	0.6443471895112853	0.23091658141463944	0.8385234550211349	0.6978871468639593	0.25215750711580365	0.6443837848018009	0.5798075609261335	0.5347316547251721	0.472549105836352	0.2982371330101051	0.850135732171156	0.7095492717344059	0.7622759434067535	0.08695138813239023	0.46340627811162693	0.4206988693211373	0.48225421041623395	0.3109465202982358	0.25867106706552645	0.8189773397353711	0.8089211597115564	0.7566029345062459	0.9717086834796419	0.7460925940433453	0.26054929972839747	0.3186138099845891	0.7394612523478659	0.5902745572885579	0.6553742187523955	0.816073900572453	0.015419228411156394	0.15697890994751817	0.20707510261811923	0.7473094695714338	0.1252817761727737	0.4069111999931502	0.09134588586359638	0.0035050550828961136	0.1029432292082737	0.4051014074494588	0.212453963226221	0.33454600655485023	0.40575489061766046	0.6688506842411038	0.7619512766848557	0.03561783705819466	0.9099801809013109	0.318279186890454	0.5985120270163575	0.947709058306521	0.9761595166247717	0.2547629284238322	0.7834299676655917	0.22912530955102162	0.9943308597285047	0.6249668977999435	0.8856960135936545	0.07171603217147782	0.46842167574210014	0.5223307647865132	0.7836350294744231	0.6927491775250281	0.2719024771027122	0.8815078978522459	0.2353544169906362	0.3675373698992107	0.5520914561064333	0.08845518024650811	0.9023616637096205	0.780007908695469	0.6821232131745816	0.8978688028907482	0.1896052372330589	0.6962613144162163	0.45753867371629975	0.7201799140132661	0.8939020678676878	0.6323184105204726	0.6415373577822093	0.16708506332847683	0.802304513548615	0.5164403752629594	0.4132472535853082	0.8803556946997635	0.2670874022344141	0.0894638610476477	0.06172596581253398	0.8967424763481553	0.02492436917590679	0.39558358615675426	0.2582013973764866	0.045270409445033244	0.8401861598574383	0.8341478613765566	0.23566012396699776	0.6976757842345984	0.2098907183716564	0.9111829984321199	0.6199346570412225	0.9662335001225856	0.4883234365578949	0.05920536861022274	0.9081861472603342	0.06291569257484442	0.19620489301830013	0.5063271332116974	0.5768768703384654	0.3835908694080269	0.9968134646117981	0.7037534232986322	0.816932279921249	0.32207283317314106	0.04973840748113478	0.5637781718794437	0.1635714731956036	0.40531177873305835	0.920727613192896	0.20553385244859312	0.13334168806511904	0.3275099107836993	0.5112594518408546	0.009423225159212234	0.8330312744983427	0.5864228283549743	0.9671218980823697	0.29970397930608716	0.39374711456091893	0.24497228384843006	0.1628443144696896	0.4756098363639606	0.005379097696532109	0.8146308080256341	0.08342213734426629	0.14761532969556534	0.4661132134719723	0.7375895321846756	0.2918554276776103	0.5415295624322218	0.7600007180362386	0.9028372059350168	0.3951799060000797	0.19105915261555162	0.5642707180989641	0.1517156473347413	0.7499746451309244	0.9554645709329789	0.751604466615445	0.5858213316677939	0.16288930799755852	0.38640699547676816	0.8984658589204287	0.7167199844468853	0.2501213344004686	0.9778395262130268	0.5532845785146012	0.8469620950101977	0.18558420579564716	0.8848385343915697	0.08090866817390752	0.42164176833532696	0.19127813747823663	0.8098992584131275	0.4664205522213585	0.51395018795262	0.5839879404432243	0.6786662430891144	0.503599814336632	0.26900593141337037	0.41520431342336805	0.31780168089244354	0.4716349773740143	0.36802379558770704	0.3508908488867213	0.6621522843249542	0.1849920041084422	0.39057968021136846	0.45536580104923097	0.06012954179161811	0.7705511008097515	0.0026928414318951877	0.4678675969328453	0.2458133409610228	0.5243602995123272	0.7891487040371414	0.6577556261409213	0.30484982168695995	0.9388116653665886	0.885217433547524	0.1434883890393691	0.6527702814599482	0.7436762198225447	0.7542124434898944	0.3981288995373792	0.8744567374414108	0.5814368504451667	0.4194587080004829	0.9026880162204055	0.5095507943316985	0.24127151953024073	0.8399348852101539	0.5082953002959981	0.147742776089279	0.8807376846102064	0.2156027212541951	0.9468969795701695	0.6959664012671418	0.6274573200001039	0.6466493722695122	0.011286529030434922	0.4113386617498759	0.0015623973350197273	0.40240605906342575	0.7710446908728806	0.9507200429080545	0.3271459243774043	0.12793674266187016	0.8836546922831819	0.10113020585706112	0.7428309762027195	0.3603246074261406	0.9199120023872895	0.25261986157077787	0.9184676418025511	0.20123227382173503	0.8979983652178668	0.7806916906535329	0.9261679000681388	0.056715964013001274	0.5036756266735936	0.22896726340865126	0.2819387818589266	0.16813744400469965	0.23913361853934756	0.8305490846476877	0.04065480376447461	0.8943221930022542	0.13988755915238205	0.8114626321328102	0.6201723833224672	0.8007058703811061	0.22551659315942185	0.8826859736476447	0.9375664818026523	0.45568055902501825	0.9891912065003152	0.8633863096731582	0.793017381450352	0.5237111571765055	0.31370005699786785	0.7984952126901118	0.8193847725428421	0.32005792894603236	0.05021153134666867	0.1257627365096351	0.3877896663271406	0.666189140182541	0.2924719853252804	0.36923091225143634	0.214095618538637	0.7111346468992427	0.16293798345250488	0.6034698363591148	0.9448470621586723	0.6687174303429633	0.7632070430504564	0.9226133806270459	0.10058979454596517	0.5347508045513167	0.27315909485964873	0.38445569472961727	0.6381404839492429	0.494624080215901	0.82010782604244	0.8279241870769887	0.04726787803995025	0.16515330634461367	0.905631377122259	0.9257867797356092	0.7737391683995057	0.3410733146132787	0.672886226441922	0.6207594470045075	0.3411671004353496	0.7812411154501443	0.702912152550937	0.8584085465231901	0.7461150743142403	0.8426825607069302	0.8060252084631531	0.8790521738027048	0.33329742873758106	0.3190677107346721	0.3837083293074207	0.5893707503663911	0.5192602241404142	0.8128833480598899	0.3930659061125128	0.045256729503166504	0.6015087056518136	0.9953226650129873	0.3010917286857292	0.06464568841105678	0.8969977269018351	0.6669985060505876	0.6609199423156764	0.6284679263026786	0.5845871705236512	0.8862995570520765	0.023212142746770303	0.6378910973541096	0.8923026265489257	0.2556423243207857	0.3518839353187989	0.44418089596424326	0.5358905923939521	0.7011123578851434	0.16760415172672194	0.01636922354276449	0.6334332735747384	0.4049307134334257	0.48285000978703063	0.8361688075049705	0.4714138174097148	0.8509546570695715	0.5921804507674444	0.581578062655692	0.5946589820825633	0.30432971737558256	0.3236329747018082	0.10704419537272925	0.32659045866806924	0.5525145126912969	0.4406847464775131	0.4872086021254348	0.9717711935874161	0.040176363275612914	0.16494752316346595	0.1771751510189784	0.9858852384290179	0.29117892682635904	0.2563737262304453	0.7452651522454435	0.5993993234410491	0.048029114549832386	0.22325585342949572	0.6895375635129344	0.8489370445604698	0.4922661613774626	0.301343288999519	0.6707163764650115	0.358408892150509	0.4009773581139413	0.7250258119212086	0.6521606980908714	0.0012345985078956456	0.28544157053595565	0.36543708981348344	0.8288745989440678	0.10921209159850509	0.25810565844547584	0.7751953273357514	0.0018886301574976283	0.56575262528658	0.48418843068100514	0.8887696555354166	0.19571356546218033	0.07130453140104032	0.4527051521945612	0.465704261695814	0.5988377802174822	0.6110993671127312	0.19858512866799893	0.956724550103771	0.8033747157984789	0.584234050346866	0.9901411893219665	0.13129520854457988	0.6394919592294611	0.5335142293553379	0.1157179752057419	0.3133855648742362	0.7934455177234319	0.12143618945578927	0.3815236379130291	0.2899290582987186	0.7549278907734819	0.4597231960754349	0.5927324028164522	0.35087199712079986	0.5106420634069518	0.3694813679549358	0.45685042642473994	0.1169372753329162	0.9257342812128266	0.8867344116006473	0.03169724386175665	0.7433168197180424	0.13243611386352527	0.5983754911779241	0.5137913019345745	0.6664778601964669	0.1265338711488253	0.03971352229034042	0.8214334583838627	0.17433376956985314	0.21994523430272483	0.4805550138242096	0.14099212619074997	0.058515723084166416	0.5736524618788702	0.707723847971688	0.9844618708077363	0.7099502098708721	0.8933632272555423	0.9924640704882612	0.029535648897668687	0.8114103984922462	0.9431960545388778	0.7622902289195915	0.5736608948640922	0.5098109578458616	0.7530340672423508	0.47277520079761637	0.8831052291798869	0.22547407818591125	0.07457502917902525	0.4394965486740652	0.8904092312511219	0.997351852067833	0.44990084809859177	0.7442840954719038	0.4577633964244866	0.7320603695359501	0.27928149198075725	0.8439269288358772	0.13538289649235236	0.1662950009651991	0.9527674436251451	0.6960496017726792	0.4662084451959633	0.5570039018142927	0.16420834898847325	0.6805696289456662	0.835590444822154	0.8806821075502299	0.5975590229671126	0.3401606420527201	0.12942427410050994	0.05053548948662501	0.8848312792061173	0.03116995000286371	0.4334102592528173	0.9736504068432519	0.0861485984552185	0.09967901820262381	0.2603076165641205	0.5721040452194969	0.39854439527107954	0.9175806794363875	0.33424111927322697	0.6987607160367106	0.2517341239246391	0.16700601734900622	0.3414178925262613	0.8513658343844643	0.5967294276987436	0.9227761780835374	0.7718871237804362	0.8183735566736151	0.8436018868108996	0.4962570945283199	0.8623873591379216	0.38801075984024413	0.7150886638986358	0.32434866418798036	0.3191881183137365	0.6913914813915202	0.9744548127609222	0.24065112847594672	0.46086431683041573	0.38954059805920493	0.31478495306117904	0.9673135763000178	0.22614533807852444	0.6142270412602282	0.3884649919310075	0.2148114962210267	0.0921967501176768	0.2830480623119751	0.9884401964843123	0.8088682328719315	0.8772439389408035	0.6869631031317586	0.5110546205471166	0.7706511353418143	0.4913639288381406	0.9549656384745939
0.4752586077856814	0.7339303132990932	0.3629807047313536	0.28366881369446106	0.4160401431736258	0.7358856869675325	0.8098994554876247	0.9324974914080643	0.12102941311982807	0.2735630437754548	0.18995836286713463	0.5122090480099125	0.6800438615326464	0.11727113287647084	0.865693126300572	0.9997783730700012	0.5113413520786447	0.7799220688893527	0.8041769447738686	0.4209780873915011	0.04512838410637998	0.3059541182864839	0.6293806070190823	0.3289452763006092	0.6784867414660545	0.6762443218653957	0.4167271966392597	0.5849403092547715	0.5083926548353744	0.10639673125874016	0.5867168703134765	0.23721880436153542	0.3656153217930985	0.6491888820560693	0.7883171147251636	0.8047643770190407	0.6691315440929756	0.7181795589423651	0.7323248693366933	0.4138329613779851	0.2757669027291133	0.6829547770674056	0.1114803540751097	0.3461103323930397	0.6770918958764841	0.838793731994549	0.762059001861396	0.8983967263558618	0.9121094207051039	0.7098307027596614	0.6811479593623938	0.05778129998979842	0.7158889456542153	0.32705657367078345	0.6221867217186524	0.6700479016728967	0.7175283356644153	0.7986256297675803	0.30907186545625276	0.9144945698350995	0.1364324439248975	0.9873714213026098	0.570258360965429	0.6136391451420307	0.330814545284946	0.5945412658242715	0.8759238455925795	0.11139234314646984	0.7342917123594621	0.0006365397121154137	0.4890545017300678	0.4308963409354044	0.4197368379774987	0.715941996051192	0.8094503904440877	0.08221701015589944	0.6786322623693332	0.36883500107788103	0.45626519520609576	0.8549477631631592	0.3794279150007348	0.14700080900505375	0.7598001936693433	0.8995891979323487	0.13629857713970528	0.8522853140444466	0.035860335418088085	0.5356771612453994	0.09166527840480843	0.35281327319473044	0.26603580258519255	0.760807612635039	0.2580182113573337	0.3603207289236291	0.3511972162596544	0.9394026826906995	0.3263346901110069	0.46293980568447657	0.7295565850697152	0.48554761014159653	0.9062674709844682	0.004272737222023593	0.40173845307058254	0.2255602732012394	0.044498336633880364	0.6879714392405107	0.857160694204731	0.7246173764603002	0.10774424109040104	0.9066920554656066	0.041791822827503156	0.7314337863643254	0.46471178258379797	0.11306176238464327	0.2829629892308305	0.4281653034121067	0.6115895209617195	0.3440274341268559	0.45329197118044595	0.49887630950822215	0.11830279874369576	0.4989109004248996	0.4917592941547315	0.7385310985186511	0.936498417068631	0.012839272903386933	0.08304367756667852	0.19088542544353615	0.9204823408627206	0.03821573812908252	0.8650859236264118	0.6293476282039553	0.2271369662911017	0.576361414193939	0.6118043943451831	0.4917455290128546	0.4437169471236502	0.008300988880168059	0.1559452212596969	0.023746506001865453	0.7456856338557658	0.932548762908528	0.8994989508010865	0.05769056135671269	0.49300536714119947	0.8935562148288703	0.9620595209404362	0.9436948418822488	0.5410705334440286	0.3864326068821834	0.5398175737921608	0.10524079751362225	0.10818568446172772	0.5014411864158911	0.2166339316354805	0.6045171574709791	0.9405067707922126	0.1571711355117844	0.4352564933893518	0.23653182001979223	0.518630009063981	0.5047341502308063	0.5878578199429941	0.8948009210321437	0.8078093065524768	0.3899017043317531	0.1621209080639695	0.14177886563991238	0.4619877467371859	0.9895968656975728	0.4028537293077463	0.7931883447458434	0.18223025534554882	0.1604590614022523	0.10121988076732602	0.2640586967111358	0.8184676019903628	0.10431218115948016	0.3649613863607494	0.4068646832799472	0.17657873877724917	0.21646564199584928	0.24933092468473828	0.061281417522335846	0.8664838105228482	0.1270948602781906	0.5538429459283711	0.07741551128334279	0.4155522663546156	0.2180047252718913	0.7256417441914639	0.10614925488162041	0.7340423978038924	0.21112908698877175	0.4564959192248762	0.23167883330722672	0.3614999975168879	0.6925592187209889	0.40220562884315625	0.1881361236343725	0.8877200795366478	0.5618218627388555	0.01617926690518323	0.4753843641141492	0.0390659133801019	0.29321394458290384	0.9186767463625064	0.7017863470269616	0.07943207432686705	0.9551803652042707	0.42337061741698745	0.2192974571196502	0.7856193214960702	0.3381137785028506	0.429997330499002	0.09455490206949324	0.272730241113988	0.4432958169788467	0.06691157528515501	0.05635042064353912	0.8420703413015524	0.9464526644096789	0.9748209655520261	0.6640427225958175	0.5695706503991834	0.7976940514932115	0.5325855907201807	0.158901738324422	0.557468158160373	0.7568271078777254	0.28137329758866936	0.7050145823337912	0.46987420827515003	0.44412583720721466	0.14789250541312027	0.59221138647753	0.38429833272814407	0.2875308382081574	0.1968688166292134	0.4143656752833692	0.8602777220085822	0.9787056032982551	0.691239952155636	0.9775639158208862	0.5328496211729559	0.1630567844768691	0.43219866811617447	0.3177896444204419	0.8140008817316844	0.05576362399374024	0.3064843344071265	0.5986063572952399	0.9680858626851143	0.5893782231726117	0.7168684723035227	0.7194810193586497	0.48615257984510274	0.9277495343421553	0.08705318632706516	0.2369758676112057	0.1755727166437212	0.669411187394541	0.5004091343247026	0.9786580456858321	0.01742796966210225	0.42551463931535505	0.5953745094946369	0.7690672228859937	0.5964446973777296	0.9895917240887047	0.27960032361423326	0.3615392705928274	0.21089729544423874	0.27866669563757196	0.17320104054851393	0.4111177133699744	0.6553704918899073	0.398699119395601	0.7111868050820838	0.41231386737564646	0.4061457453382086	0.849136944440838	0.3365392047445621	0.6602646178983612	0.05708373483077922	0.6561297046049905	0.5047829342839297	0.003083572458097761	0.437000086523602	0.2571151416497153	0.3923042760028046	0.7192376423947983	0.3897071950084481	0.5986882085065327	0.20086042858044428	0.204184204126438	0.4543977792232843	0.17853668847543058	0.1699719456035429	0.986341118522109	0.6787836098765275	0.015420764354885819	0.4980929486440796	0.16727934151913337	0.49140716692299	0.99106794881332	0.3686555484672789	0.4844798976609441	0.874972044293983	0.6619261539608482	0.6862186856006366	0.9227129825101953	0.028916630424111855	0.13049809741078733	0.17167111637740995	0.7056045380866213	0.3618210444549932	0.35062299514523554	0.05911326814633633	0.8119862880382882	0.1920813423367842	0.15586846156702638	0.5002144952630705	0.7619539012438417	0.10500393229625005	0.8153056552023349	0.7753729622560284	0.3079273624693878	0.42625835135271584	0.4211954541204266	0.6240739025716247	0.5531682736576763	0.48277332439316223	0.7414977136954267	0.9402602756394726	0.7087904757769486	0.661039995652497	0.14527528908402199	0.029534649632296017	0.33944505248311607	0.9929931576926316	0.7368884871583142	0.9909300353812927	0.4726090074901136	0.03536502215251536	0.4096602411331318	0.15406872951038464	0.28775390939944123	0.611421573063754	0.04815768894303374	0.8801281126206001	0.4128823668027989	0.36629037680926657	0.7116019322194169	0.9475560179887826	0.2554928001926984	0.024761977367141363	0.14208111063659945	0.2159944827719149	0.5357004908177636	0.8302068194978071	0.1562478567658584	0.3433402788470117	0.5642754697460041	0.935909392786396	0.06563627392101601	0.8010746515797754	0.4019637256182351	0.9723905195526392	0.8332834959746732	0.3573669117771491	0.9784280256838594	0.40433104050694724	0.8393920500943973	0.9937365581937757	0.46132563245421554	0.5065275427400824	0.8381001555735459	0.019266909894593343	0.5342191054126115	0.6923934174142016	0.8184160410894641	0.09628008662948218	0.42413496114912996	0.04497754992305947	0.44645441818285314	0.7414919678024927	0.6780286677006727	0.45916253925206973	0.006075179522388008	0.4155492353936113	0.6073120031605067	0.6848101089974628	0.579585272364997	0.6549877512344292	0.6221713270293249	0.8531601249663444	0.8425969024441698	0.5666925794047969	0.19213872011124522	0.5975548102566964	0.7474517744404946	0.461171386477075	0.4477538754449679	0.3311137186694514	0.49188970671347376	0.11697930282951441	0.9807925840613467	0.8976835994739092	0.6427773303890321	0.1444913236029136	0.5516069231627599	0.8087917202767655	0.35013265938157445	0.4475425681060853	0.5139151477729669	0.01776543412964282	0.3827986974566169	0.8815854165587598	0.23193367169009915	0.320961704978066	0.39627711223677053	0.42284741795087954	0.8274813898128439	0.5975385243009316	0.17771448557525016	0.6343885366740397	0.16545967696470343	0.7073274777828169	0.7446625440148718	0.8668963162869525	0.5070242540847747	0.1881015229924763	0.3903033589336856	0.17319038555663557	0.23332324006147476	0.8653957099980255	0.4883863891881923	0.07156363352944906	0.9772794635321168	0.6742395002711072	0.8096755533747134	0.5336945131397874	0.24824974981809922	0.19550957556566395	0.3117061116820178	0.9872330491291202	0.7833896875056336	0.28065690613620653	0.20993292140466324	0.5732900905583529	0.43484231817663876	0.850834255031074	0.7019032844871838	0.2504003910019216	0.29628814742655396	0.5126784928704499	0.06384590131986345	0.5356292664272823	0.07102318014671472	0.6629324526268081	0.1657022338105938	0.2133995522127876	0.4199862415296254	0.514062873577952	0.5835988666227586	0.333117931251243	0.883197962914209	0.8081851656574044	0.6750445963086522	0.4523852218119331	0.9640836145837173	0.8554203577529925	0.08350154149313427	0.8022718787794488	0.8841754478958731	0.6738510519502079	0.7742674068051676	0.07548440530629408	0.5561329124585558	0.6383631514131184	0.728294403737358	0.7392756061282301	0.642225019479768	0.7068924829874728	0.08606118553104769	0.18408863432505185	0.8136267503657264	0.572934296718145	0.7474388914074042	0.14770079666576497	0.2938180594306168	0.9175635654092967	0.056488485408209166	0.6813360439653855	0.8967095956665491	0.9794143451774794	0.8719495412574864	0.9709903268696911	0.52759325868493	0.03385770598885762	0.8087957573761033	0.7379245400857972	0.3396613018592003	0.6331789771574938	0.9264431265740226	0.08142766112592525	0.5373043452440389	0.4584296781973598	0.6822923307811803	0.6458424457629687	0.22166795234222092	0.2169295607149857	0.42289502893227227	0.8386196837006461	0.9163569676160075	0.6952549425429292	0.07565351147647581	0.3785120508943909	0.3781795926170547	0.24893684100783486	0.4380762079079067	0.47608793524282844	0.6876081361682421	0.38884389822506127	0.35663516187802813	0.15242583101086127	0.8985236313830528	0.7737051097255572	0.7204163020337842	0.21084246619531022	0.072880427175261	0.8334088820401625	0.05951621015959274	0.1472306395701335	0.5704083373780601	0.8430922794419892	0.7441013057377761	0.4748041261030609	0.24708221754969373	0.1316804173151529	0.18195843314443594	0.8771591580456402	0.6784893358557854	0.6527952299171721	0.05819791828039056	0.08011408047118163	0.7386701776361241	0.16421928784793072	0.5145883711757576	0.8678873180562962	0.7529092597781456	0.3820076150959235	0.7200494904645801	0.46630565213911757	0.6714140410399582	0.1552043389503147	0.8000554143001078	0.42104048637498237	0.5574342352107794	0.24935684636729405	0.4779937523061333	0.5811352742225617	0.6267967736390722	0.31851261060356395	0.2070086198672041	0.47263148570495916	0.39532194872360293	0.25162343527080133	0.3353230809942681	0.05080002638114933	0.34173328741440556	0.8951223568612894	0.4557486210042855	0.6182661301793778	0.44889006258711206	0.5326429497322693	0.31310840234872783	0.19466337241546183	0.6996796663156734	0.8296003048029905	0.6211758882843627	0.07717751321527422	0.6565503018776816	0.8104576908285346	0.24942535930728438	0.9348537885397522	0.8446282138153351	0.038462531058484295	0.43007132249554003	0.27967325207496874	0.36211658359332555	0.19556825094382124	0.7934563886362878	0.9605119706896221	0.8963127560839688	0.8985357140776604	0.17819096067198015	0.6832188403888566	0.38703130291362287	0.36311998931921285	0.5277422657865003	0.7676894283647879	0.1971599892510748	0.6168396532204773	0.45156446209143	0.9130425308502753	0.5886126705045909	0.11674492964950689	0.414939618888566	0.45715250546770925	0.869438619711164	0.5007487806185901	0.38143343917865435	0.250112172146969	0.17546428868532415	0.5370058482243016	0.8310554165942955	0.7787666106519427	0.6061535399680852	0.05916293773955761	0.0949625723499985	0.2545974493413109	0.8965089182512153	0.5384423787818619	0.034332253380359834	0.6562958430422241	0.9956433198274246	0.6518286854999363	0.0263694360208232	0.005106517523482457	0.17507800265560713	0.44325887123151053	0.9830047402220574	0.44297495879571414	0.48887956715626724	0.080576567888486	0.015048010567647818	0.8373045663075416	0.8703178250150767	0.7305197482307567	0.4811069206808264	0.3028723781109328	0.765152881704051	0.757239271039931	0.566303766995672	0.9321602365720723	0.6631351247483258	0.42721461767718405	0.14093131153844052	0.8639785440234357	0.6224950606959712	0.5284215075225324	0.3975099280605502	0.9131846909254964	0.023231433357675857	0.9104078850887268	0.0009469824892018863	0.7851199415927447	0.6218073756591055	0.8541129364992394	0.5101270779459847	0.38665988940633145	0.5031851910955609	0.08846094619066636	0.02572365661235443	0.678410559142948	0.023387306447571032	0.28241752443266754	0.3216555301470807	0.9400631926346752	0.6941875901909081	0.44338440406924284	0.05574193261030502	0.16907742108567636	0.7953999749455549	0.7246779072615376	0.6176575819214221	0.600622964273072	0.18271053306709273	0.2632319714684975	0.09633974753082386	0.32303309635237776	0.9644083746934488	0.9813818054902613	0.05986854550997822	0.8621045975956662	0.5825217277036648	0.1837894806230581	0.14635709169114397	0.5151223529971027	0.5976280809259736	0.4561454842067759	0.596259137243597	0.6078300611013241	0.12492366120646803	0.8476458863490194	0.0036130444406702322	0.0456558573581507	0.6395715815740801	0.600056416837616	0.31130521706696423	0.02717686181443768	0.6859872389031508	0.7526755914197407	0.9045421976861411	0.9007902849211692	0.3014362412110453	0.5880359291187144	0.8401218391327983	0.42765655086180576	0.7262406715245541	0.03708172051390313	0.8595150373723722	0.4238089425869539	0.7541096136879799	0.34747181222712487	0.679547424457926	0.33094546041555706	0.20344399766550336	0.3156828084665121	0.441539323868006	0.36103545325704656	0.2915512124462448	0.8059787173276489	0.9607018777244258	0.45423361456755107	0.04512709463583786	0.6426095567301562	0.8929205417950904	0.4905878273890133	0.6031548455928498	0.6247726093778845	0.8841203719965612	0.4930711212992479	0.30308037342666594	0.7940379955420439	0.4486733212436784	0.014044291965767397	0.40239934291279533	0.06067804319993808	0.7324370234339479	0.611816708606134	0.7290938178389784	0.6838885895424317	0.8796980079846323	0.3583526596274159	0.5587766796274786	0.47689193153693743	0.36381120664674005	0.2026329872952929	0.9801911432468825	0.962867081551473	0.8591780867166481	0.6612680127565915	0.9629742621575956	0.7805662438539334	0.6889325214168159	0.700033885893817	0.8075572244362493	0.4104914875204908	0.9819042602729111	0.5501983089607432	0.44389462799206236	0.5179154494635972	0.2293885627331297	0.7412805448163707	0.21146245018101983	0.3512698568672875	0.7787771462629642	0.0773999931880115	0.3618891583579712	0.28744509203303115	0.015264397990126466	0.915457012889299	0.9840575545541089	0.7398159407535596	0.4988092788654718	0.3308291520764183	0.06223702092959449	0.5663670448313506	0.6618844780535376	0.816112591456765	0.22237023688948254
0.17861700981487494	0.6897677314667372	0.059719754866529695	0.28737591228378623	0.7097399382646995	0.4351748684180037	0.41293849431845153	0.6729830591110961	0.1901530889257489	0.2359456386613038	0.7427245370952558	0.0515027797466886	0.788474173593433	0.6326850741020726	0.6061587787838876	0.7265430720860683	0.05662481056071411	0.6903644852524913	0.8730510382731373	0.4264104041679557	0.6415162938814996	0.04582209361662204	0.012631647686397796	0.15243830819971993	0.9828254969961451	0.5172497950725017	0.0964917382089282	0.38071030259247185	0.3378832463500533	0.3207404209198501	0.5693888448999265	0.20990627272285878	0.6715502043232521	0.7125038817250262	0.16855068073129098	0.5302347029345589	0.38470341703324074	0.2842944724560773	0.2353059079908053	0.7186284996098714	0.31514127138886916	0.08130810037460734	0.47927544639581987	0.40499428546516647	0.3898962592318129	0.2024251611835397	0.3252188747395821	0.47044246996031436	0.30509653875737364	0.5808822375650974	0.7727811698600633	0.8492020340574443	0.14605751565643021	0.7063035193268593	0.2096292569736402	0.8091996674832527	0.2688014339316337	0.009468230546391898	0.0033646691599265033	0.2410414112982373	0.164735743362035	0.35927134958535334	0.8935708935974982	0.914102988232149	0.6405741913266345	0.7849352620006306	0.7782284719448602	0.46920392227428065	0.6999590820091486	0.8032965353592509	0.9794471035641992	0.666875648068459	0.721721881985649	0.16817771116843494	0.7400910044564665	0.6968007983836022	0.2649749635516985	0.8584144592209779	0.02509065224950824	0.8761608546753326	0.16649066428190662	0.9730269284035603	0.01036285747989285	0.9206377934833453	0.7942157705026425	0.1684447865436567	0.33364659645365313	0.5814993113083918	0.08825369973965602	0.38599926569929266	0.8364244142717434	0.5610468615610945	0.2738119815607075	0.030993261407047834	0.7694961129868912	0.6684790068636167	0.8285368407091064	0.4042941471401893	0.8945321164483168	0.6133602210941007	0.985303468837878	0.5161269127829604	0.9237418329083936	0.5332256545531838	0.4325138567749688	0.9785172850702625	0.7704052433801757	0.1677360905026002	0.3024937149635001	0.19714421059178988	0.46876236998278686	0.4823190526960687	0.20702639423650293	0.10602471975167549	0.6470469101217433	0.36478700963940835	0.013359268476836883	0.4187155847334434	0.7026329222077419	0.16874072381549354	0.8452120412494879	0.7620574934462296	0.7514787129342573	0.43449354782900174	0.43043825524657275	0.06492290032503101	0.5904375067162657	0.8313026918706131	0.7342207957744146	0.855219954638934	0.7796598721269599	0.08308992858355846	0.8283917095985849	0.4478964311524867	0.7152477496055797	0.3299589806502762	0.5384565691275823	0.5883410388911513	0.1602368420508028	0.37643917163714447	0.46747883219457	0.9210006922109695	0.1998579767372547	0.6016233624732656	0.09362558574709401	0.2761287621182207	0.21825577942287944	0.7346436536482023	0.07379303282488359	0.9537504135131871	0.7551136154666593	0.5418871287048014	0.1464886017655017	0.8101302242718074	0.19924604522421607	0.9853071242121808	0.7950127906753457	0.07438105465130762	0.27123119199905554	0.8102659904634867	0.2654228714932213	0.9748332673605541	0.2614804324680696	0.20397520674955227	0.9125581277705704	0.29934657052045355	0.11184039896926579	0.3846507156169445	0.28594799404102944	0.9836582569785746	0.5328153131917445	0.7728930454482498	0.5074472850167777	0.5204265856436638	0.6184432678573145	0.042569607879147875	0.505100578144408	0.45117706206452446	0.8776200062738855	0.09137500216881234	0.23718197478217806	0.9920715322209214	0.9844271170850781	0.45686240975333015	0.8922232660288221	0.8475572010205575	0.7828360894976105	0.08017603206869217	0.6085920490847477	0.36442121890463053	0.005058261411182263	0.2997637172957489	0.05466254307569296	0.20274894298991197	0.32898009778556425	0.3687130972780216	0.8662111149092034	0.9364945645344221	0.19647053803117942	0.26107968899960643	0.44065353097881566	0.22027260287525552	0.9192094848960939	0.07741302370785608	0.8330530281025211	0.5879836912330236	0.2814041391317532	0.8061505654626834	0.2484312370988494	0.1656780597235239	0.060751770654375425	0.026422129535608296	0.8308976254935705	0.7336683256969206	0.2653393206744853	0.9368227732150136	0.26615095312115045	0.10133211290219157	0.8741089903024372	0.8179506250869848	0.3902216329587146	0.08052909377514761	0.6834975717755897	0.5072945328775651	0.8550526435234538	0.2651210451693349	0.756426313392325	0.7049991694119332	0.4239116881891484	0.756458052504562	0.1810418952927645	0.9538573504224256	0.7961276179673433	0.8522670753279552	0.5262904685082329	0.9601569179585671	0.7211961425972563	0.06217448639528811	0.5423155620199749	0.33414897872060556	0.06758343655487242	0.46915477477782375	0.8964133499210337	0.47492294063582174	0.8542500966624523	0.26506698426921405	0.5722700854130581	0.36505349823412225	0.9733012186181242	0.3980452009538945	0.8268091461308436	0.04521431572797996	0.038068345237856294	0.9948693113452924	0.7369595837366939	0.24237562417410918	0.0630418138078438	0.7561231015747018	0.5661095935777357	0.9922679866445174	0.6168084891451623	0.9684600407418574	0.5632405510102741	0.6564722730900118	0.46294281077647015	0.21608484800999872	0.2592931771163368	0.91083400588784	0.46778134392358794	0.7789005491023148	0.4384976626119452	0.5521323036994479	0.711093737193902	0.04221785952645729	0.9650001876448636	0.7463464658518101	0.4079764828222746	0.00569387713459002	0.9459183661955455	0.3782979028963227	0.0076615085753153345	0.13981266567120032	0.5831857192425096	0.20908435659501445	0.34092666273207295	0.22641872540077068	0.23672764831809212	0.002208852818236351	0.33766484216929593	0.5315826466387021	0.9721278248840962	0.9446215320200979	0.8506348094760663	0.26933350909538134	0.28455863823222616	0.811725529430651	0.4909078508234642	0.7182801015574526	0.6098270944119787	0.7755469407318486	0.13005379000999784	0.0993040016936827	0.0740927824537091	0.1700114826451149	0.30127861946372125	0.6411700841916167	0.2528258111766696	0.17527590768767554	0.7302040108667464	0.2822815691432765	0.6005323948220347	0.39670795680064397	0.9739765995387034	0.735832820886268	0.9581403131841193	0.6044629080702393	0.9299312184325456	0.12162259069294368	0.29847373235929997	0.39263849828157027	0.65880408250505	0.9808447504800275	0.5733124444800815	0.7545794273684843	0.8110426500679151	0.5042305206144532	0.4084192774271206	0.9172809509681538	0.12828948119366612	0.9859302009059043	0.5601135186263114	0.4839550522530879	0.3397051819323593	0.9914597409307494	0.6951416114136274	0.6123272298560901	0.8493258985649753	0.517773822391005	0.1313525120674508	0.532412404574148	0.36874305921177475	0.8831463520987823	0.8532038259963355	0.019417500605106164	0.12279394250648878	0.4643155137066205	0.26471284002137296	0.700630067884297	0.03703147378663463	0.1493818072101154	0.2742865552725755	0.10461584273004598	0.5913887071990613	0.2598568003279069	0.8878724376400943	0.04751339116933395	0.8405798658051622	0.11030811503164217	0.11935278842825048	0.37808772739371277	0.29017580922401043	0.5210463637661518	0.025927041101278414	0.9528856019494965	0.4336650812131504	0.5703497192347677	0.9802364433008096	0.2912906059539492	0.45434285453735357	0.4908336883547285	0.19477533240706468	0.6862510668967299	0.6076195533620035	0.679582197807172	0.4453313705726287	0.7341658658695612	0.32274308699690923	0.30925637782209836	0.7775946592187006	0.5085566241484294	0.8607381849363959	0.40552449116711775	0.07028398294394334	0.618156569914653	0.5191653963376186	0.43915054163335066	0.6008378236444606	0.7498241456136198	0.7626561470963396	0.8309286744302993	0.8230118019273026	0.4093072733298253	0.45824332582299565	0.29128129332477504	0.6954303125105737	0.10987322731794302	0.345668091521255	0.7990726006611505	0.25181778919601094	0.6090424546220162	0.199801955596845	0.29730868700266366	0.29092700494482415	0.21496404669260016	0.10755879057724671	0.17594311182659028	0.044664413032994066	0.17752739138342566	0.08154511435514877	0.6258566992484572	0.08867819208104455	0.21621168428066606	0.8806413644425473	0.7099078412998869	0.5032170324933407	0.29601851594698503	0.20156536022985827	0.8659479468456189	0.48899916599919435	0.447985670304921	0.9091680212614445	0.9293255443830817	0.280800277670073	0.7431685595534189	0.6626292791720417	0.7118523970671985	0.3910243721774641	0.2774049670823445	0.428044519730966	0.842024303375527	0.837753864835857	0.9322671949058585	0.31792967373402037	0.44439870771837986	0.20600711050410248	0.26399570756632096	0.3262294637648031	0.8921893900210495	0.21462775846488746	0.6957113944885108	0.22646109004067017	0.0971605134942587	0.1542076125810199	0.9591563808734868	0.513941853106235	0.5685616816372371	0.6271466597096876	0.30854712466102663	0.15186442602677797	0.7998293943231738	0.4418468372155804	0.13420659697806392	0.43820211092768213	0.6781534586767545	0.41308050372987637	0.2098951992136182	0.2624171711619604	0.806486974626391	0.8509528462884185	0.1449503171530081	0.8042749364704292	0.04802465670294487	0.3687986670008718	0.23291244686298973	0.778750597085573	0.7925247029732244	0.10260120310125431	0.32264619774967673	0.36797052647706663	0.3211603399780686	0.27821667620353274	0.4578185044919615	0.9487928290597214	0.14634495983019913	0.9638217040154685	0.4269648737280701	0.29516713743990375	0.9691754546979686	0.38331031806828086	0.5906544392158283	0.6880831749471349	0.7496665092234217	0.9442671726902117	0.5757893736257796	0.410277183031049	0.13168166121825664	0.725956533480209	0.5395434385791911	0.8438593639834748	0.20678849830400325	0.30430304060225066	0.6679290811341934	0.8675598753211037	0.9250480931515902	0.960342212391323	0.9135879657977868	0.26233539862634137	0.35785035716922164	0.3064615713601996	0.8273496092923481	0.3963574195451133	0.34576795407835315	0.3446933993058834	0.12098592402136887	0.6650601603901016	0.2767072895441325	0.8987803405827315	0.07602517469421022	0.43391037302213953	0.84572319468606	0.7577537941210742	0.8401745833811871	0.9163127865968436	0.5295665028666737	0.8652986364417475	0.19488130985950303	0.21640849350582447	0.8380779716279488	0.35484086334793563	0.8284986171783197	0.4313534774465463	0.2580123486311936	0.5835412293090353	0.1910448486428521	0.8149950027224306	0.21636840343598274	0.47980177890806097	0.3969691872424962	0.9257505530245315	0.16185343015226472	0.11190971439765784	0.7627382228018694	0.19935290214501156	0.8255611689546024	0.5757086555076917	0.8037288789401144	0.587849322108505	0.02026018465742918	0.6652217278311295	0.1727440307491317	0.4024405623573123	0.6786181280480582	0.04348072397382041	0.22232985443805342	0.582245068869384	0.9310407570758519	0.3733575405723072	0.6981637283595769	0.21730969844873682	0.4912655166936293	0.3077249098466923	0.23751463054613553	0.8411374532532495	0.8455913187361097	0.9744070790142291	0.0019208597883396683	0.705089822465295	0.6488642664002924	0.4614424081207176	0.233137086665422	0.23731359394245255	0.5353239716787632	0.296494365377733	0.23457184946956688	0.9559772134683379	0.2490763638049941	0.9018547410959227	0.4706343701990702	0.4543049926540974	0.2500069418336217	0.8256475453330046	0.6912286448694297	0.0240065080415639	0.8782649132850032	0.6236727223568583	0.07384358511458677	0.9764862347059216	0.6376310097303027	0.5951082111213339	0.48322746827088325	0.8688544541350528	0.8326890908722091	0.439131652719961	0.04328241152915413	0.7655547271286764	0.3716024367073062	0.875608125465025	0.778956670841605	0.6140279800275287	0.6545436237060044	0.8572071650881345	0.3066059619517796	0.34281972391354354	0.1734208769922344	0.9215491053052206	0.09463668507779655	0.5880940307792892	0.9203937966137002	0.6903518269401381	0.5708321089680424	0.7011275389035624	0.9114143858724427	0.532349288592847	0.5002466887073025	0.915489775712072	0.9130335522263074	0.3883385468254853	0.024052730189149774	0.4189619389711887	0.01065644842049318	0.9390286814746752	0.8709312912525495	0.744960955966371	0.5165874395354967	0.056385073289968446	0.02838131133706423	0.006922390717098326	0.1237041606310102	0.6099820005370937	0.8194962575837338	0.4917741268824959	0.8549098238925693	0.7568906047817896	0.0076302507476100345	0.39920441394670225	0.6984966848882053	0.15085225406832425	0.17829606428010736	0.37410411802292676	0.7772499265988224	0.04365671425435358	0.25846628415555495	0.9863245435422952	0.26955745392247343	0.3080732942621546	0.4788663885475358	0.22449818577194403	0.6889602643685006	0.4655582329696386	0.1631009115838279	0.7555222976192173	0.986436475913337	0.6873737447227992	0.0080299817508801	0.5214793020249666	0.005656376066290991	0.636047940844373	0.3294693123916581	0.40835437107235695	0.5825889804219475	0.8762142874879406	0.8779135868626436	0.5982801616978033	0.22911800733075605	0.4996162889227126	0.06071019177471826	0.9036871881140583	0.8815168051235062	0.997296688509443	0.3703295047317168	0.7845741039283975	0.09139627544562046	0.2066066851382743	0.3897257152956599	0.6130743707663361	0.8723386158322153	0.24348777057807758	0.6893830219695909	0.4190682377271353	0.03568836970170852	0.3767902290767988	0.42245731661474495	0.31691892483770545	0.7783740353733988	0.9095515763536488	0.6598316162362564	0.3888119253666483	0.6721402983079634	0.25367582697471913	0.9135512561703725	0.6800652175524782	0.11794438107329375	0.8109990889329362	0.19122742953322502	0.8819882535206129	0.41475524790828067	0.6740834935411969	0.39507155130630656	0.44364415136386326	0.07988238707618733	0.8056097188014569	0.7740873103754106	0.6516696494949006	0.3888222256030426	0.3074290429282769	0.7539032098264814	0.23901976831848437	0.4189267707340062	0.6848223558723151	0.9153022884560474	0.31910866088223855	0.716138418242363	0.7435512840201884	0.7780835094633318	0.8421764524630859	0.38772842991262535	0.5579660336431194	0.5493095025135	0.19543526597703198	0.34390111102125376	0.12442413859332446	0.7596767705879078	0.6688223775979313	0.1795280501960106	0.21056432696274108	0.31217442906938586	0.9704087317104132	0.9917191712150011	0.483540762536382	0.18592813473251724	0.6738261433972379	0.3335167378837849	0.9073129089399447	0.4199257350331739	0.9453634787455609	0.16862270539623836	0.013675718187759811	0.5604297115369463	0.4016108761873577	0.5693383926625721	0.25759918773276136	0.7242505035969259	0.524577481159853	0.43537090594135164	0.9755784826721232	0.8105477282553727	0.9361345799881284	0.0001856930969053039	0.46219479446749345	0.6833544150611339	0.021724549089252698	0.4658226738453073	0.28020165828966703	0.05075775424686557	0.02982169021760983	0.48040378763500247	0.7493412432807752	0.5505497144490402	0.5118645201449418	0.8739969067978746	0.9057688785224614	0.435108663128555	0.7785551466570535	0.944542819836488	0.13066952349317706	0.737708366591601	0.8902371067325512	0.8429128214917149	0.7191786795790323	0.539388968700334	0.51747933318137	0.9717319666774608	0.16595874510407016	0.13788678727010228	0.4902947277569487	0.858642883145085	0.11079058527795171	0.34910930234132187	0.06788408675241142	0.04327000928931268	0.22979927891014296	0.5138982476656697	0.5233049450904258	0.01487868921871971	0.8797502057804797	0.1962437733626906	0.7993976989149074	0.8611921759165317	0.5560371794092579	0.8652898140779047	0.684495367216251	0.3193521921775031	0.9397946549478118	0.5561050841842624
0.844666295130947	0.07577541687037936	0.04340271492102732	0.26033138510188314	0.0843533424596492	0.8076418858547091	0.4010115714377418	0.977712589174634	0.7803287152382907	0.7571799868119802	0.02051432501876882	0.0010659698174979582	0.4099209234451343	0.39054249557459486	0.32958628916850574	0.1765493426541911	0.05653172431160747	0.011364312789871489	0.09520214530405857	0.08537471727500334	0.9673620082856452	0.4504573688606387	0.0736041760577204	0.5569844310345838	0.03412282378085507	0.24361879626842575	0.013695991349410908	0.7306334258276048	0.34447856068934557	0.5641876116042398	0.0015273586941421113	0.8928104023762469	0.716869083634873	0.8994818477168519	0.5777318208475007	0.2288176373349472	0.743609685986576	0.2573275858856403	0.4983217975262427	0.7819806534030753	0.46571682799660297	0.586992430098964	0.04381475691022907	0.6012638192059294	0.5598399757034641	0.7296488601052422	0.704541257266769	0.5256466115695939	0.62723437312657	0.6645128012877133	0.5660593629412759	0.02048773452236563	0.913512016224374	0.6239575512244804	0.7814884773293747	0.8534409568075226	0.6020718361972656	0.27472633768867605	0.12706713117460133	0.7959737574063294	0.17492659913460584	0.24490396646907464	0.21645233338734504	0.5291240668585712	0.35984833259647764	0.9881342482092004	0.3209974871375043	0.25050841214172614	0.9221103199945274	0.7789847238976595	0.007815847156052658	0.050938190811700146	0.5858579024831945	0.26510988184636797	0.7413989744259569	0.6573068580378095	0.9838705247623493	0.05751334434991484	0.8994592496574061	0.5708161828062455	0.7066887015815679	0.6878416210763544	0.02356116979299827	0.16011884225275153	0.7718104891527487	0.12238778591376043	0.7341686921218941	0.038902416741431245	0.4340087628113103	0.49087267426315917	0.717223962449407	0.3736536698653832	0.3668035813604841	0.5421375835673855	0.7011977926575154	0.9514969576349628	0.6917970391084234	0.3778834784554448	0.9663789136592711	0.8895840098314404	0.7752819728198159	0.538707472563022	0.43402898563830306	0.3565590454534383	0.2975119353050868	0.02841053917920855	0.6952615890719632	0.22461169661774416	0.03492314373312311	0.29271252791028823	0.9604433717208406	0.46055236411606415	0.4209054614329917	0.04777990010176325	0.31707477511434057	0.2611673456329454	0.9000975756840927	0.9766266557879483	0.5375967085046893	0.545400423623883	0.8197372741740278	0.8717684668588235	0.624558750899348	0.38011199447163313	0.24091927368076582	0.04346473565721565	0.45146022357847215	0.6416844264549874	0.7014832938305774	0.07154646739450177	0.38797106532969705	0.7746867903487472	0.4389136732264882	0.29420061004412124	0.2619305445073048	0.8026127047614979	0.5810196812268512	0.9856553449092065	0.055823516998652956	0.5848519647547781	0.2652922165101095	0.7269587589786769	0.7626633908972061	0.9703044267488484	0.19580484746817228	0.8268759305940829	0.31899897075920614	0.1398613352675736	0.5063924924581157	0.4911838204509026	0.33529353759105174	0.18879562260673954	0.46915843032141247	0.15162192359871796	0.3403134063129888	0.059690846712783574	0.8625725525970034	0.03934387734342737	0.9597160632312128	0.7647086910929044	0.38684858161525626	0.7141164410483981	0.7710114644623622	0.941487280406586	0.28359713845395484	0.650473586132159	0.6412134629852695	0.08290209450703356	0.13051175556975836	0.8322677936866636	0.8555075669797251	0.7938228101038441	0.5228415902685905	0.3059233354275107	0.5358190508264009	0.509905725997126	0.4449845573938047	0.30671637337503377	0.13950555687578237	0.6201584734489121	0.5485412245980309	0.7747447966608323	0.6604148637826973	0.5340047157542579	0.806394238094136	0.22128396966305963	0.6206797293755947	0.5693767569281224	0.7891525801518668	0.6634669414010285	0.5496306988954449	0.19680216415055474	0.2279779908018219	0.8210773200048094	0.6592457586105459	0.3103798313918519	0.33411337329877144	0.1158284961126902	0.8401094530236355	0.5050494917543425	0.14458911569848376	0.2986749596673792	0.5149220169045147	0.9987895739496903	0.16706620616683387	0.9771246559163812	0.7725889882361231	0.5904304938103242	0.34066623472231305	0.3653633188579227	0.351569685917013	0.8578128730713266	0.7496760537334982	0.26206860329228776	0.8318648258580975	0.41802441199505314	0.8441490163817525	0.801365105276207	0.20241539831758903	0.14822303935296222	0.4785827468397208	0.15762061789375237	0.6662485470747213	0.7268235006416974	0.8092260148859227	0.021384218970806335	0.7513875747428015	0.7060673353639297	0.9614569970323104	0.3465892560413867	0.1597557713741652	0.7434514144189487	0.20001970641694733	0.001796774610933638	0.08391265604066867	0.057069676795051594	0.6719247125353478	0.19443853861042182	0.9793075360862501	0.10699202313974432	0.5244050969527333	0.1826381438185768	0.44708151120160466	0.7953966813989538	0.5852068423638549	0.962487747417012	0.7086633335060549	0.2760804583433285	0.8011261002342078	0.26364177015948465	0.5063228618636442	0.8117269067492209	0.5643471795070562	0.7430430353878155	0.3727309907633657	0.3853660245244198	0.08164285647267377	0.9003548366166462	0.1419031556677406	0.5203015095530017	0.8747323206018841	0.9779146824478088	0.9216105351820654	0.8367722177170214	0.9481007034492691	0.5460545794828682	0.704466047855608	0.26856972392645473	0.22160218396103992	0.07917358808502273	0.03994531821129799	0.43247842556972904	0.9330073524012943	0.5748921710790086	0.8437806744268274	0.26349910980494884	0.2426992682313689	0.2902072610902894	0.388369888739296	0.7044437658129272	0.12557167477766895	0.5511774369449802	0.3777158631948999	0.7466165224306134	0.422083871457538	0.7557355319694122	0.2138124263329858	0.2929542968140554	0.8844616591502626	0.8589695077616571	0.4745106242682231	0.9161779843402601	0.9987124229686405	0.4732450912640185	0.5859011784404972	0.7198952058821746	0.32052995144913154	0.42370041554750226	0.7318912391947613	0.25666968131089796	0.7801974730464127	0.7640370293667967	0.6043742680387442	0.9355413795518681	0.6382923162607305	0.465341208050742	0.7696560448554692	0.4109108328709066	0.4937849628676544	0.3887943718559371	0.05714014573567694	0.9281048192115654	0.07411125805574026	0.244339034313507	0.3619265818387115	0.8085189251667811	0.07189462705298555	0.7017447175504006	0.8112172934396391	0.0690498941961235	0.0530951814050481	0.9718009594589542	0.2949610046155452	0.40759802405928347	0.07150077720184311	0.3731337113254428	0.09322086262655538	0.09636362455049063	0.9969250164231681	0.525631392923351	0.1354314499411018	0.06587451075542039	0.5248594138616157	0.744549014632653	0.47338990055177255	0.04929586104526085	0.561760402872864	0.3264727033908531	0.7448955157463814	0.8618043641173154	0.6721478870996304	0.1731296906211831	0.492403718382862	0.7891940016607195	0.8299814935315649	0.07076676396584547	0.7337892241489321	0.7484997894569698	0.31578966935003405	0.522344022159384	0.48034267535347586	0.1199219305487339	0.672581388857009	0.8797661963252894	0.38523861605229937	0.37815383181800466	0.1323091619466441	0.578507132680575	0.48360335971192625	0.6233379289943907	0.10192057606971416	0.7424532265469879	0.5556921438941878	0.9418451194101736	0.36725182703686676	0.27832308465304534	0.7356783414766335	0.9597990031334563	0.48344920851118955	0.20882085565574704	0.8972586119600984	0.705013360415713	0.6679043395844254	0.9812305959223118	0.5895779489220093	0.1499078012393491	0.7822073488684521	0.34408499799601056	0.25154978558341123	0.3845866823039651	0.1601383843976104	0.2348997860756331	0.2937297730317825	0.88439600123363	0.1832699443722774	0.9245666284120752	0.4908213901169629	0.5829441960882531	0.9261532556159736	0.8854646106584891	0.9741387595854114	0.16094786593831212	0.5797925839890534	0.3702584993224203	0.2797431500620352	0.48932273756423517	0.7063390520874547	0.5506564175579266	0.10954496928660762	0.2205266288485057	0.005989263457825356	0.7891370596545088	0.8712853821745153	0.7447207935122864	0.9755610082278516	0.1644954521206633	0.05608847550278928	0.5200444814201235	0.1733552666046696	0.102483823509956	0.8953858428843579	0.032325249467756945	0.3055799263246439	0.07415203537332515	0.0971650536403621	0.4363877413366237	0.5677315004324575	0.443553269798161	0.5183475523987754	0.06663957062309622	0.9946421278059845	0.647078532372313	0.96681748317588	0.9038437542285724	0.7112739563575501	0.7859002679798095	0.9218268480855168	0.6047685424729541	0.16213201780987352	0.8536042202341997	0.19491403665234952	0.661680829240317	0.2912672309675478	0.1081002520910459	0.03791091810648595	0.1735520962849304	0.05891838191079335	0.4668401934444357	0.9541102541386092	0.3349678344034994	0.5545082776282978	0.4175174102623169	0.7282197860422593	0.4656476878374881	0.1190611750554077	0.07775449979176652	0.7552418130247273	0.20187569019258333	0.3346841053860108	0.45815266790365217	0.5579199466673356	0.9114691091916292	0.4898177778171626	0.12035434921621335	0.8738768210944375	0.2656898582714793	0.9034177048508213	0.07371459141477543	0.5162998767482841	0.7347370523842817	0.03861776361797842	0.3989209614027456	0.9430752473597558	0.24055463170577807	0.6375754036917489	0.33585159218270844	0.4049904930687772	0.5922427137502856	0.30583071145014973	0.3831402813828916	0.5403555412657508	0.26142520338535247	0.7278042060910223	0.9396224800607171	0.1253776623502224	0.9312620743498607	0.5069127884285667	0.020606076185360478	0.7201036890722913	0.664779400278383	0.9746409157370628	0.731339630717716	0.5274722408591621	0.5865751933006742	0.14051324806988374	0.7366481947693891	0.9224200099889159	0.43916660397316565	0.8311716930286889	0.310515519824074	0.455779072873825	0.38960080138115716	0.348503816893195	0.7568451929679004	0.47736393854721837	0.5272757755623962	0.8736623961885941	0.4127383988720408	0.03749849742133793	0.9744792900012534	0.015204626644421348	0.45655412514584004	0.9735272338978274	0.6396312772768761	0.830018848660349	0.8217324784233508	0.30647806095238783	0.02180795627798049	0.44093952368290545	0.8854645970818552	0.8400246925059777	0.8866498539603918	0.02133778853476398	0.2613628626529545	0.05958119226315861	0.02125825068792142	0.9551463639571834	0.35041416599622	0.8641801173897978	0.08073492247330871	0.7907530029767305	0.810068360614062	0.8277606749912992	0.21806642163204504	0.8806812513104946	0.9750978098599127	0.00685579671107539	0.3956618717079179	0.6137948924505261	0.5727585368726169	0.5336842315133072	0.09389788429182933	0.39974927607116095	0.5970433288066683	0.0186172218786107	0.6335414818639584	0.16457713058924073	0.6692809006978254	0.19520089419258002	0.3458516851436697	0.4852742564446756	0.26870294749936163	0.7923434702997572	0.15446627754586573	0.662118287330039	0.3371801222851558	0.8544552519560781	0.5615315745074397	0.08571208239176364	0.8501841497067885	0.1707733652276564	0.2823893342101579	0.7346785831375796	0.712064401844374	0.9757010237800994	0.18378647207039445	0.8512199425958042	0.3087003728964528	0.6034120386716509	0.33556621002256015	0.03846990699971331	0.8412759120604765	0.7412464166232173	0.8325275391045284	0.24010997655191801	0.3656048411469006	0.16045458570893711	0.49853864596035224	0.8554120239526207	0.9938165818962893	0.7264645495204569	0.8430978362067595	0.9009013618927538	0.5563071227454558	0.2278798201734369	0.952728782372464	0.4357749410540419	0.033710319590139926	0.7532513127844501	0.04891722702227219	0.31418182576712905	0.01948419909789012	0.6717421842017887	0.8560778503547983	0.5495832425904377	0.3577883154994692	0.9523267743701415	0.6481435656330048	0.06706715419159781	0.9255914929884248	0.7535413530104522	0.026179773173634735	0.4796570722092638	0.5988357699025337	0.9715341744348878	0.8877491490699023	0.8782610895851611	0.2017375137690246	0.17306032281793904	0.2870001412503914	0.5877979724335064	0.2737762586001391	0.36824014358810586	0.16666252731962838	0.5482261586754268	0.6653798003392112	0.5203395232009165	0.0776921690340171	0.893943632942472	0.9648304516521813	0.463479923557487	0.48354876289612225	0.18010512458518357	0.8233846261985895	0.7831390170886481	0.133907971035634	0.2526607636687408	0.05822502871170787	0.31134457730966725	0.8237013928271248	0.11970962058505408	0.6930969570469707	0.4456238092867627	0.3010111494034645	0.7455111455679174	0.6532764021309768	0.3370762401422577	0.7347557489438031	0.6793108181021568	0.47111519263020407	0.2070677739281973	0.6600057551936299	0.9552554953582938	0.49067704398888645	0.8872872328299257	0.10584084917928449	0.6385610081034123	0.24462903304398864	0.5796779267401395	0.5079686444845743	0.5607326209307051	0.7264698966465277	0.48432679186213756	0.8345621817932152	0.22125221680139762	0.5867328028612087	0.172793812284733	0.9633765103085478	0.38618304758522437	0.1594369507335346	0.735408359329622	0.858149723356383	0.9769053045376697	0.060484292297243725	0.8298469075266477	0.69925637764183	0.6505241638097593	0.6529400851790732	0.3761093459033671	0.9131969452115455	0.5746553189676673	0.4033134392078389	0.6642492176854963	0.08194411654244105	0.45418951377087036	0.8756800213816226	0.3665837474731519	0.2875371716847581	0.3878730194736606	0.44350147777528115	0.7296548480710081	0.571208239989562	0.9599403843994092	0.6394431007569226	0.8681205222012409	0.26904211895949404	0.6280050577347523	0.3676726423900407	0.5524940843825874	0.7795727255779203	0.15736180468050442	0.1694414685672555	0.08468893613914685	0.6291780350459282	0.2328260349958302	0.39531729420325945	0.21647230806753626	0.2782709090919858	0.687366778455473	0.7210209740957749	0.20376527172043535	0.548671384314781	0.03674157445114978	0.6858682669438004	0.06286273521891717	0.36527378944070876	0.10993524164104529	0.2326562288569416	0.6888426055262085	0.025652240190813247	0.629598163102608	0.6387232971984774	0.5949545916970503	0.027802352110675832	0.2674048767825502	0.7986898347719088	0.45560030916972827	0.6410985381392815	0.7287884261595123	0.29984306590539445	0.6203909145030925	0.32919258435531606	0.1267430412850965	0.5854993996296889	0.9929688838476798	0.42715265457486906	0.8596572451565542	0.15369148401805333	0.34905542129977285	0.8507701585006264	0.7138288341892853	0.500805232883439	0.017216503859490473	0.7654029637295755	0.9780765106993133	0.9913139862474281	0.43299525001143624	0.1829470935241967	0.7840531412945256	0.601195856269906	0.6826118759320664	0.5891866378619871	0.24435711424735262	0.8087290101019616	0.768664554056152	0.010184660149315072	0.41630157695234227	0.31414812894624156	0.8468795636065376	0.5350529799030345	0.06969651898805262	0.9436059588641356	0.7966207294607406	0.9348776007509418	0.9354487431009705	0.18191540016032504	0.29410678630789455	0.862784262800655	0.5190136388698113	0.09536082401202306	0.3844213020752508	0.38237280647751326	0.890120164875571	0.7684011742975693	0.33267548160114757	0.36074263688673947	0.7797990133355025	0.9443649458399092	0.8865102239389074	0.46995258291669717	0.3953251026888207	0.8630980027152241	0.8432793657102416	0.9849020962136261	0.9986132750472253	0.8732892963226082	0.7816990006295667	0.5116552607945686	0.9678888998096563	0.6633637372922712	0.4107534427458348	0.34314463093004866	0.26570017277862934	0.8118163960314977	0.4153194198007433	0.5089363952176997	0.2434766887222325	0.70122633305721	0.3283731886309348	0.7055899035627657	0.4493744680772821	0.45229802519357687	0.2848553385548124	0.7603032534047787
